{
    "name": "SelfAdaptiveBrain",
    "mutation_rate": 0.572323332396492,
    "layers": [
        {
            "input_size": 15,
            "output_size": 50,
            "weights": [
                [
                    -2.1133079305471814,
                    0.9606279766062016,
                    0.2562040201285522,
                    0.42436300647428804,
                    0.6910800414164335,
                    -1.3393668710826356,
                    1.1246778146957177,
                    0.7414821442830977,
                    0.959618331930537,
                    -1.6947894628702245,
                    2.2001016523946415,
                    -0.5682082070468515,
                    1.946375987891754,
                    1.1658295421061289,
                    -0.32404061332777456,
                    3.5013852329750668,
                    3.2080566831446826,
                    -2.457182315919633,
                    -0.35711283000864624,
                    -0.6283814114585974,
                    -0.1302854902365314,
                    -0.4076967035912328,
                    0.0456631638411783,
                    -6.829270736633784,
                    0.8911625373114261,
                    -1.3156235419669309,
                    -0.12680287387523542,
                    1.471492027757307,
                    0.8360267082344828,
                    2.071866672748837,
                    1.3469056835916255,
                    1.4686721071138706,
                    -3.6050162224527225,
                    -2.079768397931675,
                    -0.8703486077304838,
                    0.9541117891850721,
                    -0.5573541429006528,
                    -0.48856857578541735,
                    1.6581775122883342,
                    0.11163481642970019,
                    -0.1885151048501454,
                    0.38053817556261815,
                    2.6040749357996607,
                    1.4368822085240058,
                    0.18016600486029366,
                    -1.2607164048461208,
                    0.7685336398082401,
                    2.6257622139056425,
                    0.9840305407945612,
                    1.4319609658017753
                ],
                [
                    -0.2349756022908538,
                    -2.112382536657612,
                    -0.184184642586385,
                    2.0691353605979375,
                    0.1417499939444593,
                    1.0041092372462315,
                    -1.3196470466939023,
                    2.240576928729296,
                    -0.17765593919202738,
                    0.8701267313827801,
                    0.8252132862248274,
                    1.8749800902207463,
                    0.5481314193391053,
                    1.7546581638204526,
                    0.5292021229440242,
                    -2.1747179978495317,
                    0.3719212967745984,
                    -0.6803849542266077,
                    1.8829094951347276,
                    -2.129717594916148,
                    0.00505460876616335,
                    1.598483961143868,
                    0.45877043622711944,
                    -0.24485438604892518,
                    -0.7283035752790272,
                    -0.5157448037293858,
                    -0.7967307439369435,
                    -0.9278973537653495,
                    0.15626434205824136,
                    -2.9233316390628157,
                    0.2547413543026959,
                    -1.053115940954196,
                    2.9502616622971503,
                    0.20466129470944022,
                    -0.21849979593171226,
                    -0.22382960761695225,
                    -1.511216650057748,
                    0.5009766124729698,
                    0.5087534803227872,
                    2.6236914220797374,
                    0.31278726702326304,
                    2.481388444585047,
                    1.0247042788115794,
                    -1.8290906605797357,
                    2.1063640884780606,
                    -0.4359549867887421,
                    0.39228384235769376,
                    -1.9783383120880231,
                    0.4791073371534144,
                    -2.111330266931138
                ],
                [
                    -0.5253564525853023,
                    -2.05285950725613,
                    3.468334871011746,
                    2.9761353795905268,
                    -0.7432139770065592,
                    0.7282352883153511,
                    -1.5366476414679537,
                    1.000338100764996,
                    -1.0043830163108007,
                    0.5191291814320629,
                    -0.1002365750906985,
                    -2.4619760950647605,
                    0.801248327452344,
                    -1.652953632738621,
                    2.230893847202493,
                    -1.3235257673930825,
                    -1.3479420246538032,
                    3.2166493302554695,
                    1.9238794542820807,
                    -1.8310157865330634,
                    -1.865449031159541,
                    -1.2174903781607638,
                    1.9893581918452756,
                    -0.11000802140896077,
                    -1.0316680631384352,
                    0.9394526243763668,
                    -0.6735152484014462,
                    -1.59010904966166,
                    -1.1252219688703229,
                    2.6722268458617338,
                    0.4874366008958546,
                    -0.2021212863786569,
                    1.2219322579167304,
                    -0.3562886417054577,
                    -0.08612539180950396,
                    -0.318183957459419,
                    -3.3823535892603656,
                    -0.9970551803911828,
                    -0.6234999077798485,
                    1.3235610795284156,
                    0.19721344179139344,
                    -0.010723899707143714,
                    -2.245843779820476,
                    -1.414483381331635,
                    0.8888410632963232,
                    0.3538836584366127,
                    0.7643980786406235,
                    -0.8490247376522521,
                    -0.11762324882855721,
                    3.457778932528172
                ],
                [
                    -2.22115906735567,
                    -0.9142923186538603,
                    -2.3321271372219146,
                    -1.5849983664815528,
                    -2.3716691036901207,
                    -0.005111318328115705,
                    0.6544485089295753,
                    2.800473123148683,
                    -3.2190911479874416,
                    1.498708572975231,
                    2.862007388654673,
                    0.6383944400033575,
                    -1.3446789139428401,
                    2.572658890804052,
                    0.06315494085531059,
                    1.1692305095406152,
                    0.13455782577032704,
                    0.9012272347272619,
                    -0.8975697796643511,
                    -3.754311322059118,
                    -1.7038052976406273,
                    -1.199047804182929,
                    1.1324965437951624,
                    0.887216050553149,
                    -0.23163912954067584,
                    -3.745061370273034,
                    -1.174041289846505,
                    0.49613824183763344,
                    0.4284720698826335,
                    1.839322972410253,
                    1.8129274664726722,
                    -0.8500668226465924,
                    0.5200937725009079,
                    -0.4131736716149821,
                    1.9333450677747868,
                    2.3724107673949297,
                    0.7422522081681759,
                    -2.169096003291868,
                    -1.1794155274474198,
                    1.9686786372040046,
                    -4.533651003862554,
                    -2.229721752875406,
                    2.6102415143848012,
                    -2.2854299519719485,
                    0.6307495842446159,
                    -0.11265543119231125,
                    -1.0394069235539136,
                    -1.8872761372101647,
                    -1.318895442845637,
                    -0.4200469189081371
                ],
                [
                    0.6849721292610208,
                    0.07620717440702784,
                    1.1000305700485646,
                    1.4064054629208762,
                    -1.9701721221590303,
                    -0.4544804776570961,
                    2.2430735448737993,
                    1.4422867545674531,
                    0.8280352235191105,
                    1.4331938966249154,
                    2.1546143399939144,
                    1.114906580399511,
                    -0.3526397590048115,
                    3.3351987451639986,
                    -1.0041711715877368,
                    -0.9830538707762715,
                    1.074299191184566,
                    2.256602534733868,
                    -0.2501610463784623,
                    0.46751379322693465,
                    -2.0732869362506237,
                    -1.0374092047070047,
                    0.38313702419239937,
                    -0.4501759124285347,
                    -3.2576581208589093,
                    3.3501415145865865,
                    0.5099516514471405,
                    1.940114074189206,
                    2.4582361601989917,
                    0.44010264614491384,
                    2.9512445127141613,
                    -0.44287644186849284,
                    0.5115015808976275,
                    -0.8563587341533373,
                    3.797603577794187,
                    -2.589596685749186,
                    -0.517386710170605,
                    1.6345983980610432,
                    -2.5645923224034743,
                    0.6092812016680633,
                    2.7487235279758497,
                    -1.4869265666827347,
                    0.5743933846925308,
                    -0.5891120840773759,
                    -1.5964069626667887,
                    0.24969765583091158,
                    -4.5299522307151925,
                    -0.4564559565994625,
                    4.454869499334567,
                    -1.4447581062873258
                ],
                [
                    -2.1138900793093907,
                    -0.012126475978212592,
                    -0.2921810952168959,
                    -1.0957871627911346,
                    -1.7467405539358252,
                    -0.12228647821642247,
                    -0.30280343400902526,
                    2.4055053194303384,
                    0.20279531741141577,
                    -4.564279846583557,
                    -3.3145161897075015,
                    0.7765888865209429,
                    -2.6608400055638723,
                    -1.3221180763706237,
                    0.9366272309704198,
                    0.3638297102520325,
                    0.8443045352996571,
                    0.10389918261455919,
                    -0.9213088092525512,
                    -1.3612682524639845,
                    0.729642891190832,
                    1.0408380423420946,
                    2.515705025684619,
                    -0.8118184891562712,
                    -0.6819408725875747,
                    -1.647842980421109,
                    -0.08347719482611948,
                    2.8595173107205216,
                    1.1570582442824104,
                    -0.7749345337393974,
                    0.41335554246870826,
                    -1.133589896175853,
                    -2.3602002344948816,
                    1.9592544024296346,
                    1.7712336850787906,
                    -1.579990501945838,
                    -0.08863900518103282,
                    1.6481737767582387,
                    -1.819641474680218,
                    -0.3608051133521599,
                    2.2414391724043523,
                    1.6287846556145418,
                    0.6390354630086689,
                    1.7148410020063933,
                    0.8438744626439522,
                    -0.8654273459162467,
                    0.32093742699409095,
                    1.6304049760126422,
                    -0.014347960694349099,
                    -1.5471077481757907
                ],
                [
                    0.5774451356960622,
                    0.03168304971496384,
                    0.1690329722167913,
                    2.3093283397405058,
                    -1.03162806852472,
                    -0.5456915339021826,
                    -2.2081518688517248,
                    -0.32261574651971314,
                    5.123860363468749,
                    1.8715836247276894,
                    -0.6733822744660756,
                    0.7210127076184414,
                    2.048172159326893,
                    2.8877534419134,
                    -2.5343639024402345,
                    0.07038737256164473,
                    -0.4646707853505102,
                    0.2796756432786849,
                    -0.1774609964713918,
                    0.08153431243251341,
                    -1.5445468491481185,
                    2.917300783705569,
                    -0.5903238160351294,
                    -1.367683539121453,
                    0.8212831580124997,
                    -0.5261519277987099,
                    0.8311646510446081,
                    1.45231286898065,
                    0.20982410050886047,
                    1.949713566209374,
                    -1.3703283541016196,
                    -2.4093556993917935,
                    0.022533947663946008,
                    0.23316954769695786,
                    -0.5122340271625362,
                    -0.6363216579924996,
                    -0.8565999517098264,
                    0.16199778333732734,
                    0.2357832298410406,
                    1.0770312548849712,
                    -0.8068697720218735,
                    -1.7157669961987998,
                    3.2682171382178584,
                    -0.07973853830153788,
                    -0.08035792028305719,
                    1.5455665646422232,
                    1.6030128810294817,
                    0.03478590156815297,
                    -3.01884886225012,
                    -1.3768425679546255
                ],
                [
                    -0.7411951835096235,
                    3.0592489658411366,
                    -0.6595724895952992,
                    -1.239221078343571,
                    2.4204056643792358,
                    -1.6711888512835567,
                    1.592366993714229,
                    2.438708673049831,
                    -0.8300601354608204,
                    3.135500322292506,
                    1.4268308433707975,
                    -0.9900233438101909,
                    -0.19987660210418812,
                    -1.2739229726978198,
                    -0.6853543621962511,
                    -0.5308195748093449,
                    0.05211989755618904,
                    -1.0726538675409794,
                    -2.6112265396208403,
                    -2.463527728308715,
                    1.0263049313723194,
                    -1.5663000199928307,
                    0.3127478456411407,
                    -0.6521961455958718,
                    0.28644411808479664,
                    0.7967261098320236,
                    -3.7369766530908968,
                    3.015638316646709,
                    0.9493207881005143,
                    3.0749293579749284,
                    0.45244966884690485,
                    -1.3530629529195106,
                    4.870549429563635,
                    2.454640160883381,
                    1.0985336104599512,
                    0.01831429071931054,
                    0.6942371484783363,
                    -1.8592276851297735,
                    0.47698837710973463,
                    1.2613996305803783,
                    1.6885255795193086,
                    0.3030995599066345,
                    0.5375768372842586,
                    0.4228141011701955,
                    -0.7740964674627226,
                    -2.6928348938719915,
                    0.21705402051268718,
                    -1.3504723595674697,
                    -1.1484730645535604,
                    1.9327208706757313
                ],
                [
                    -2.2334607694598896,
                    2.443227246004427,
                    -2.596756265139881,
                    -0.38926956356172615,
                    1.3599829248644997,
                    3.2067239149796785,
                    2.5388863553615484,
                    -1.7009459244164087,
                    0.8052607818309357,
                    1.3160668531397222,
                    -0.5126742777626342,
                    -0.652082666916921,
                    0.37014480583026066,
                    -0.8770885561385825,
                    -0.7985921036588852,
                    4.359901544278753,
                    -3.593981252871069,
                    2.9100952493736,
                    -0.22645391674189677,
                    -1.3102727380637762,
                    0.37685675993781304,
                    -0.40758960258890314,
                    1.0441979131313106,
                    2.1348700453943787,
                    0.6463826284896601,
                    -1.2873996821084135,
                    -1.9795635769625999,
                    -0.9226772731022069,
                    -2.335714999657994,
                    2.375377274248318,
                    -1.1515376863696047,
                    1.9765998304638983,
                    -4.006049823033221,
                    -0.4196601016107808,
                    0.13025646974752236,
                    -0.9413794954674741,
                    0.6345300448156039,
                    -1.4823860368407853,
                    1.25344599427775,
                    0.7210517691616709,
                    0.5895171641048772,
                    0.9053189646191344,
                    0.8770452644769262,
                    3.7653913440742026,
                    2.491044634128977,
                    -0.03663289841231432,
                    3.260304464872366,
                    0.3536473169315243,
                    -0.3355824387342272,
                    2.9401984058790296
                ],
                [
                    -0.9697724895487975,
                    -1.6524379784094896,
                    -0.8231772973284427,
                    -1.8469823790054198,
                    -0.33717917226306515,
                    0.7257343374371759,
                    0.49963155350231375,
                    1.9834098864926086,
                    4.781696521776578,
                    -3.1674699527967336,
                    -1.1367010561161568,
                    0.6598102222361861,
                    1.294463445041167,
                    1.398443468352146,
                    1.8690042042020356,
                    1.1802084753232074,
                    0.6442404743888748,
                    0.4760329023366661,
                    0.18875027529173932,
                    -0.5624741400027916,
                    0.8526280976800791,
                    1.2582295965348163,
                    0.32975203751139726,
                    1.8669879176424526,
                    0.2272362382695398,
                    -0.6216447282637994,
                    1.3952652082314483,
                    0.7118547539438345,
                    -4.0682825496637065,
                    1.0612458780808054,
                    1.0340751643930357,
                    -0.996751769097296,
                    -0.6519356353993859,
                    2.9743059036976613,
                    -0.05396624925785287,
                    -1.9475758576871343,
                    1.8125923214345476,
                    -3.0029665042617797,
                    0.8240876842390714,
                    -0.19341025796711486,
                    -0.8203910196629467,
                    0.6732402748646373,
                    -1.6690954809237943,
                    -0.47094955306037845,
                    1.789839556728631,
                    0.967235678302141,
                    0.1887499777773224,
                    1.4671426735033413,
                    -1.3346383816435314,
                    -3.7052219617127147
                ],
                [
                    -3.3513090406666146,
                    4.456572433804834,
                    -0.49745958970483073,
                    2.430329379398562,
                    -1.7253857419044913,
                    0.5644715267158035,
                    -0.7211302168379672,
                    2.9537225150503956,
                    -1.9487021640174413,
                    2.858345146293357,
                    -0.48860763240935623,
                    -1.5153062506251407,
                    -0.6612351018066385,
                    0.3475227930561139,
                    1.074173370776048,
                    0.595754738283818,
                    -1.7590594806378808,
                    1.1733978496030026,
                    -3.153367436612762,
                    -1.0489371577880497,
                    -0.31382075593060677,
                    -0.7479297102085749,
                    -1.2888199401895317,
                    -2.845761463291698,
                    1.1408303784099032,
                    -2.430592674084689,
                    -1.1441654578183438,
                    0.9591340302695823,
                    -1.256395659502495,
                    1.3029775497079068,
                    1.5933848117112888,
                    0.42567977103969196,
                    0.9087329662161576,
                    -1.3128636816755186,
                    0.7956482208243287,
                    -0.752357676852206,
                    -0.7758796740921523,
                    -1.5842444689628488,
                    1.5185854177073899,
                    0.18537003386246653,
                    0.9950047744074914,
                    1.1906365147774849,
                    -3.4731521480961947,
                    1.0509176376745777,
                    -0.3205887902224853,
                    0.3627686970823665,
                    0.44289293804791524,
                    2.611415376115829,
                    0.6361723201730086,
                    -3.1275843553743896
                ],
                [
                    -3.4027469863829163,
                    3.5014764638538542,
                    -0.3384354661450915,
                    -1.9986928755251907,
                    1.9438223222197917,
                    -0.3245207474026022,
                    0.8080271864628943,
                    0.5830158383606692,
                    1.0513443921327321,
                    4.056494717511324,
                    -2.788534112607075,
                    1.17087435049166,
                    1.2662653333916205,
                    0.2445137838188762,
                    -0.0011906425538515952,
                    0.49141240476624104,
                    -4.251221867594171,
                    0.6000522749984215,
                    2.612840660578594,
                    0.32867752918013154,
                    0.25281753812403696,
                    -0.5876838298772793,
                    1.4341219192296641,
                    2.329886649626907,
                    -1.159098278641985,
                    -1.4782587887241028,
                    -2.6080590298356223,
                    0.4018736867263596,
                    -0.2531169229259802,
                    2.7642201328935565,
                    1.797320846601238,
                    0.48668622215209223,
                    3.006431796305237,
                    0.1694698174381045,
                    0.3379061470195837,
                    1.2422565840512896,
                    0.4829640744362652,
                    -2.4267146324650435,
                    -1.335294683561174,
                    0.4682581661560362,
                    -0.19286708568025368,
                    0.8649736856791944,
                    1.5678256472773073,
                    -1.302238310053842,
                    -1.1734218315923592,
                    1.4532190694660563,
                    -1.481861818678068,
                    -0.8885812225700641,
                    0.6872278816669792,
                    3.5260498443832375
                ],
                [
                    0.4806076113718246,
                    -0.8600253139216384,
                    3.070826191306323,
                    3.014745115190214,
                    0.3214180138517464,
                    -0.47041777455139905,
                    -1.1543541234348271,
                    0.8770535187278218,
                    1.4795292107562528,
                    1.5787552733363652,
                    1.1305913218548878,
                    3.1855009773209324,
                    -1.3299872480656898,
                    0.3898250955078666,
                    0.11563030474127348,
                    -0.33641930115642926,
                    -1.1698085941616485,
                    -2.9286872979545833,
                    -0.1174742722310348,
                    -0.05126746949702643,
                    -6.833700113117784,
                    -0.4863600239796126,
                    1.2577696661239317,
                    0.1659444240425424,
                    -0.3044212308915034,
                    1.5908715756290341,
                    -1.852454724853235,
                    -2.504349758398258,
                    -1.5705498051254665,
                    0.2864044938221244,
                    2.300996393589341,
                    -0.04184720301991329,
                    -0.3840936603502145,
                    0.38482487756930017,
                    -0.39007934066245975,
                    0.028761872164614455,
                    1.8951899995573884,
                    -1.2563708283091932,
                    0.3248699659806432,
                    -0.0636884824802077,
                    -1.5584541778586545,
                    -1.3865630738330903,
                    0.7970068194088953,
                    -2.0745934593915853,
                    1.7399976281485783,
                    -1.471130089245602,
                    1.6368617055095254,
                    -3.5444325961505796,
                    -0.9607439056418006,
                    -2.8233018511249743
                ],
                [
                    -1.8215650637695404,
                    4.475898388263316,
                    0.15398820430298513,
                    -1.3269029813249158,
                    -0.3111483629417498,
                    -0.017201554887428805,
                    1.988637902030342,
                    -0.829193473695567,
                    0.8758169865320006,
                    -1.3764371052900206,
                    1.6202208612466142,
                    -0.3068333315133126,
                    -1.0978670316436596,
                    0.2969111711858219,
                    -1.2008349300661825,
                    -2.374475413480747,
                    2.2756389046674346,
                    1.1035641760777828,
                    2.2118493511709527,
                    1.2470126228904306,
                    -0.864222694945702,
                    -0.07489991610733321,
                    -2.3202040254829774,
                    0.8433732259402622,
                    -0.6149645005839153,
                    0.18312846132286809,
                    0.25104226920509154,
                    0.5989785458525585,
                    -0.4448729079959819,
                    -0.6641215961510242,
                    -2.671142236005611,
                    0.17317052400444366,
                    0.7844871186963789,
                    0.3066867651914339,
                    -1.776424965953304,
                    -3.276600477795308,
                    -1.9404585058807566,
                    2.2862029584777477,
                    2.8596651641299764,
                    -0.3580336991492479,
                    -0.40471155950015325,
                    -1.7834861661287411,
                    0.8199698231670968,
                    0.8654308468187266,
                    0.12724116697111304,
                    -2.1558168872115635,
                    -1.6215828992754406,
                    0.004919216965893591,
                    0.4262749747433685,
                    0.4191456933694725
                ],
                [
                    -0.005279347106226906,
                    0.5582836952188404,
                    -4.466945720717142,
                    -0.6379537130055537,
                    -0.6278703399671989,
                    -1.0578582520270239,
                    3.4229261118122594,
                    -1.529493599471704,
                    -0.44562942342949546,
                    0.3330273041160994,
                    -0.5060902336567761,
                    -0.08052910728465729,
                    1.784831916049368,
                    0.7093620178060088,
                    -0.5190532638873058,
                    -0.07769885891706008,
                    -0.7737282548062595,
                    -1.9783700835980405,
                    0.28514519949499734,
                    -1.8019025484321178,
                    -2.9366457557333043,
                    -0.22783408841706887,
                    -0.4638041567476925,
                    1.563955536792221,
                    -0.5225383599416202,
                    0.47876200854046064,
                    0.07865109231890866,
                    0.6737108974001436,
                    -2.958829856472537,
                    -0.20329973595541517,
                    -1.0815615834890504,
                    -0.1454111512879992,
                    -1.4258659714288122,
                    -1.8428651799038143,
                    2.6065886871007984,
                    -0.4049101033499972,
                    0.2601340920844963,
                    -1.0291315696125112,
                    0.6919583658568577,
                    2.3232735221659038,
                    -1.849723074751153,
                    2.006913601734644,
                    -0.29577611395661235,
                    -2.2525686228670145,
                    1.8760011420555425,
                    -4.213761732036184,
                    0.4579036792862171,
                    -1.3846733646125073,
                    1.0108683643393024,
                    -0.8953906225548297
                ]
            ],
            "function": "sigmoid"
        },
        {
            "input_size": 50,
            "output_size": 30,
            "weights": [
                [
                    1.7297790795307557,
                    1.6186733090370762,
                    -1.9655289353599639,
                    2.6333254316089074,
                    0.3237819450865177,
                    0.8028338401508184,
                    -1.6230664953748764,
                    -0.7898344934813619,
                    -0.3121016809911725,
                    -0.2635444026966587,
                    -1.9074074910101413,
                    -3.7419387175523986,
                    1.2369369174759242,
                    -0.8984527697682039,
                    0.8927498910788662,
                    -0.5596255849147522,
                    -0.9379503914028579,
                    1.227793991481308,
                    0.18418939329376388,
                    0.18294532949674147,
                    -0.3809969129260909,
                    -0.648209878992732,
                    1.7201752674086717,
                    -0.3001819794442136,
                    1.9437619551027363,
                    -1.516764268444256,
                    1.4633366533371566,
                    1.2976527103551745,
                    -1.9528603557101676,
                    -3.011465855798724
                ],
                [
                    0.17203064393623935,
                    -2.8233292076002976,
                    0.5564215408197543,
                    -0.7806281065515831,
                    -1.3412762466981765,
                    2.2203624057917435,
                    -0.7356984095083617,
                    -4.617934186066748,
                    1.3021580251682443,
                    -0.922348748912873,
                    1.3810592814839207,
                    0.9533668874309581,
                    -1.6840131514906922,
                    -0.20784227956155601,
                    4.346153608530035,
                    -0.3622777723436225,
                    -1.2285851322092998,
                    1.2685301148672237,
                    -1.1326697591578145,
                    0.8639557531684161,
                    -1.195795076562776,
                    1.2518307209618948,
                    2.35868053323388,
                    0.4472224440555057,
                    -0.6324591371027866,
                    -0.8259074131501848,
                    -1.7606851547350875,
                    0.05547666351012709,
                    0.7229958735526214,
                    -0.7026762125369962
                ],
                [
                    -0.8468788139925233,
                    -1.3160782888231526,
                    -0.5475653824119525,
                    2.9367939658404065,
                    1.7371741181995457,
                    -1.5782960897507652,
                    3.695768562636332,
                    -0.5003640274642345,
                    0.6955190703826273,
                    -0.7866208478501948,
                    -1.664658881024951,
                    -0.6288365595786409,
                    -0.33412651150596806,
                    -0.21949704435497602,
                    1.0442135725790198,
                    -0.23173143992240824,
                    3.4519302016836635,
                    2.446002619266232,
                    -0.4369304198453906,
                    2.544219144076606,
                    -1.6339735943748854,
                    -2.588662993168236,
                    -1.235406237287815,
                    -1.1089335712858779,
                    -0.36802308122916344,
                    -1.0250406475720886,
                    -1.9598984029604958,
                    -0.23612374609455986,
                    -0.9463967390249662,
                    -3.8170333101404683
                ],
                [
                    -0.27691174118685685,
                    1.2153312733350543,
                    -0.6912352089877102,
                    0.11682568836003819,
                    2.5505969097897787,
                    -0.1567688539595296,
                    -0.029099813145525642,
                    -2.5169175531220107,
                    0.4552112856473629,
                    2.148048553321114,
                    -0.5652813256268098,
                    -2.8458056494743116,
                    -0.6901465991456216,
                    2.3020309976192923,
                    -1.3524379406922726,
                    2.0300525115771846,
                    0.010447776415878268,
                    -3.5047053896562073,
                    -0.6115491084712998,
                    -0.3274879968559723,
                    -1.0358058852140244,
                    -0.47841422903267405,
                    -1.9346149805695474,
                    0.7018747817822533,
                    0.18207733851565883,
                    0.339213053576252,
                    -2.7561466974208955,
                    2.5771300999435094,
                    -2.8857297008841654,
                    0.7227519737970434
                ],
                [
                    2.762305708340562,
                    2.9909619292551457,
                    -1.3159422628032313,
                    -0.42603830751484306,
                    -2.5324093734855335,
                    1.6537013338726765,
                    0.8708568274894655,
                    0.8789146862182046,
                    0.05011156870892319,
                    0.7938135305136482,
                    -1.4602516398938727,
                    0.6197524185881392,
                    0.36880527739788205,
                    2.386969786722929,
                    0.7091872538196499,
                    -0.12456906217126695,
                    0.6988674264542637,
                    0.24923276170106462,
                    0.30314913425011336,
                    -0.586885679966041,
                    -0.4757850938220206,
                    -1.4933330343292355,
                    2.245090284713763,
                    1.486659777524291,
                    0.012282825810728315,
                    -1.5409963316457362,
                    0.07564249224691427,
                    -4.74388266218568,
                    1.8814024220940109,
                    0.25527344645828637
                ],
                [
                    0.6326031376525241,
                    1.237577583923023,
                    -0.12866504876489682,
                    -0.6460833229517754,
                    -0.8929122378281142,
                    -1.0996739986213968,
                    0.5333093468824088,
                    -1.9612689261197715,
                    2.108496012075237,
                    1.1604167366427687,
                    0.17246806667111345,
                    3.2698261259401646,
                    -2.3610463182675114,
                    -1.5778237604106358,
                    -1.0791953361916795,
                    0.5879081309245869,
                    0.8835827562517193,
                    2.5613235508695515,
                    0.35444241493843437,
                    4.23321585277916,
                    1.8956466047354725,
                    1.085599034258618,
                    1.1262719844501274,
                    -0.2661493855724146,
                    -2.665494287237024,
                    2.89311941311054,
                    2.898312505388579,
                    -0.7945607810446378,
                    1.6257864820666819,
                    -0.8543272460410924
                ],
                [
                    -2.2376434665542204,
                    0.09407225711633113,
                    -0.2295303773760355,
                    -0.7450133498788634,
                    -1.9562689832059377,
                    0.2116450624692884,
                    -1.1201085500365133,
                    -0.15110596787000335,
                    -1.7601598609754938,
                    -0.6716592177492149,
                    -0.7811987343293431,
                    0.778512807310667,
                    0.11658873633462251,
                    0.8013274547221152,
                    -2.432968339907521,
                    -0.242163566471576,
                    -0.948967910068933,
                    0.9508928842151332,
                    0.2538284653168954,
                    -2.775417353954352,
                    0.7715240999522086,
                    0.4845818726914247,
                    -2.288741531824106,
                    -1.832105158546803,
                    -0.06054083210665301,
                    -1.3995461214746578,
                    -0.14769434074756815,
                    1.8963184089267733,
                    -0.09072087108251736,
                    -0.578997131336948
                ],
                [
                    -0.44806243197270235,
                    0.9600998792359858,
                    -0.7450472346879725,
                    -0.12809293439540229,
                    0.0987719195485019,
                    0.5820799115013937,
                    -1.0844110975475008,
                    0.8407207870560374,
                    1.5995192519994639,
                    2.6121211328162057,
                    0.297347905555593,
                    -2.1811103873287006,
                    0.640530104045625,
                    -3.8474082885610406,
                    0.14855241015497928,
                    1.3398151514569452,
                    -0.5487071961850905,
                    -0.9339063106002156,
                    -0.8941197319834903,
                    -0.8329107242940506,
                    1.0214229857614932,
                    -1.1767715736673976,
                    -2.2187507225644447,
                    0.38374026106194714,
                    0.6313213171035315,
                    1.1891887847433125,
                    0.5514500727203647,
                    -0.310405550370471,
                    -0.6751728819151199,
                    0.4447372375801659
                ],
                [
                    3.9521337728213055,
                    1.9971198664465524,
                    -0.44450545119005846,
                    -1.6520328160286004,
                    -2.038311614658478,
                    2.2232098387622616,
                    -1.6466404127520555,
                    -2.5157525648563404,
                    -3.1809854922130505,
                    0.26978477589035765,
                    -0.1245057131387528,
                    -0.303066641068765,
                    -0.8544467381441375,
                    2.88110309389364,
                    3.3200771209719533,
                    1.119476362437823,
                    -0.18750820586435707,
                    2.3969470153906793,
                    0.09959923503777612,
                    -0.7816637419697796,
                    1.1414128696821924,
                    -0.08756609137553828,
                    0.016447053039284964,
                    2.220310810226194,
                    -1.6145804535617572,
                    -0.951985441969845,
                    -0.926886843691179,
                    1.1995065412011146,
                    -1.8124938721685289,
                    -1.7179104049302534
                ],
                [
                    -0.7148434242669242,
                    -2.0255879965081967,
                    2.6705515639766886,
                    0.8430923261756764,
                    0.4898572751127651,
                    -0.038012398368779454,
                    -0.9732764817497356,
                    -1.8416357708658684,
                    2.9810241219064313,
                    1.29484826983552,
                    -1.8740013587661226,
                    -1.0787112453878174,
                    -1.9691232457035064,
                    -2.13467344920657,
                    2.341056681319193,
                    2.0007430552634755,
                    0.41091124505062415,
                    -2.7940574439690273,
                    -1.4373876917386936,
                    3.1178375554717195,
                    -1.415678497882602,
                    -0.963025593604379,
                    -2.170084410031584,
                    1.1678555624921925,
                    -0.9350106317786072,
                    0.6222423083005075,
                    1.5010462496917383,
                    -1.7265566070543203,
                    0.09391906044025994,
                    -0.4082438338894976
                ],
                [
                    -0.11595169566396507,
                    -3.1186706212097297,
                    2.26305549374566,
                    -0.5312388436383076,
                    0.05726957893313456,
                    1.0037619207106592,
                    0.3646681079572559,
                    -1.2367928531772794,
                    1.3928483015169486,
                    -2.8172216438715285,
                    -0.6120865504159325,
                    1.8283571945948573,
                    -1.6708374841870388,
                    -3.1369596341008097,
                    -0.48262775325479823,
                    -0.009568400323148818,
                    0.6107934814943177,
                    -0.8006227644765219,
                    -1.2808505634665233,
                    0.1239056122974207,
                    1.1792374174341613,
                    4.9344030748197465,
                    2.3691008246780503,
                    0.5966268989194327,
                    1.1010538182876624,
                    -0.44557155591865427,
                    -2.4484835904431717,
                    -0.008464090626385257,
                    1.6199495570586802,
                    1.3449489164532347
                ],
                [
                    -0.22965921658450306,
                    0.6776335688166755,
                    1.1199579818775103,
                    1.9876010048980557,
                    1.530220929074267,
                    -1.2806677209680888,
                    0.4549051757695317,
                    -1.5111570300061803,
                    0.7158533153427645,
                    1.5402692334444488,
                    -0.17517981518863496,
                    -0.5172916854045195,
                    -3.011676010716574,
                    -3.106191618718622,
                    -0.533709942366571,
                    -0.08439930725913025,
                    1.6724308497262574,
                    1.2489789710438486,
                    -0.2085479597954233,
                    -1.0468785460457393,
                    -2.734778361218827,
                    2.373780889882862,
                    0.17017856512996793,
                    0.5159373892719317,
                    0.014279754991680216,
                    3.162106176317019,
                    1.5545034947179743,
                    0.46532627388089554,
                    2.1412236335636523,
                    2.113264983336126
                ],
                [
                    -1.0516330623928813,
                    0.14142646691932037,
                    0.9224105081367268,
                    -0.6515295665675592,
                    -0.8204960356758743,
                    0.3165985349778516,
                    -2.9090496344063475,
                    -1.2966570948445826,
                    -1.5874623873335172,
                    -0.2827665555562099,
                    1.7489957689339175,
                    0.056193095488178524,
                    -1.0703720019494019,
                    -1.8900284006041024,
                    0.11931940987401858,
                    0.6620510099301562,
                    0.06841594780045246,
                    -2.2821593721901943,
                    1.213395983509677,
                    -0.22438303449529792,
                    0.5655714936055638,
                    2.345054203862533,
                    -0.876924720319768,
                    0.23263687214971096,
                    1.2146906290088832,
                    0.3843523043508307,
                    -0.2570524753767529,
                    -1.7892380750089207,
                    -2.9228222214539255,
                    -0.033733287489503105
                ],
                [
                    1.0157851163828902,
                    3.7610924693310865,
                    1.1773282156086005,
                    0.05580610706190031,
                    -2.9650277164909973,
                    -1.4550770059932714,
                    -1.641956337157243,
                    -2.0931815812346835,
                    -0.1903394401037124,
                    0.2137134317626464,
                    -0.38306014327275706,
                    -1.2797782834932947,
                    -1.955545847208402,
                    0.24113821969400528,
                    -2.8083216022410107,
                    -0.6970454745335852,
                    -0.7645229429363292,
                    0.21515451125297974,
                    -0.05695490071017062,
                    -2.2074743335822276,
                    -1.2763453858464475,
                    -2.9882978433613943,
                    -0.41029525628478686,
                    2.3678909770968968,
                    -0.7265859272881202,
                    -0.15266077226133273,
                    0.25766890242933893,
                    0.28724221952889817,
                    1.8181684524755284,
                    0.7163407376967167
                ],
                [
                    0.7266520126618675,
                    2.209297305494599,
                    -0.17115102928016168,
                    -1.5141513015907768,
                    -1.5758135572251113,
                    0.7530982241604168,
                    0.7093331692378362,
                    -2.484607256507723,
                    -1.6572224552503467,
                    -1.5945555505762754,
                    1.497766256775955,
                    -0.6080714368348149,
                    2.545770926943412,
                    0.40094881555445516,
                    0.078519935541419,
                    2.3837733663189495,
                    2.5418040985297634,
                    0.3554966409542307,
                    -0.9610443246904276,
                    -0.4486679641382191,
                    -2.1136050823986885,
                    -0.7182753954317596,
                    0.6324776176311657,
                    -0.3166583270077027,
                    -1.3193594481323958,
                    -3.647854076680829,
                    2.9608955349025323,
                    0.8463317541242136,
                    0.2402589333881484,
                    1.2358934015421292
                ],
                [
                    -2.191037087379493,
                    0.4922341975515569,
                    0.8567550051579906,
                    0.14255047449096656,
                    -2.0204453558371975,
                    -1.5999716393547325,
                    -2.921492087057694,
                    -0.5946880723392051,
                    1.8536849957869252,
                    0.589811419069634,
                    -1.9404131381308376,
                    1.5619950305501753,
                    -0.4064747150753081,
                    -1.9602064096002891,
                    -2.074448943059678,
                    -3.190369426013511,
                    1.3605519288842332,
                    -0.5209242357281288,
                    0.038630419576927144,
                    -0.4728541148996317,
                    0.48361735043116527,
                    0.8226045471755921,
                    -0.48749546966734525,
                    2.0980441831404097,
                    -1.7741072274878675,
                    -1.4442125515625772,
                    0.4580067475027706,
                    -0.356877799435128,
                    1.920720204795916,
                    2.4457381881675495
                ],
                [
                    -0.7865863338733403,
                    1.8567509041225323,
                    -3.2747941309557937,
                    -1.7400330037510323,
                    -2.0685162315100274,
                    0.7398828405777176,
                    -1.0805827754384016,
                    0.10973069704174447,
                    -0.38748053409741345,
                    2.3542206976085818,
                    -0.8139185480515344,
                    -0.20928728774388294,
                    0.038189517805341966,
                    0.6981187694748271,
                    0.20206376623576194,
                    -1.7304450676694092,
                    -2.629725870282215,
                    -0.7993490949303265,
                    0.6922349765472251,
                    -0.6928492601543279,
                    0.14641209566192734,
                    -0.07081542734652992,
                    -0.38787289141707,
                    -0.37190503789957263,
                    3.7728789750947236,
                    1.9255510241664373,
                    -0.0761767984512206,
                    -3.4291178430197933,
                    -1.5115414269618543,
                    -0.9572958165277908
                ],
                [
                    -0.4846470264450442,
                    -2.9842737016109475,
                    2.2823697993546848,
                    0.6901319183381205,
                    -0.8308967451734637,
                    -0.7351659358243833,
                    -1.253881507261244,
                    -1.0235397506806894,
                    0.30977095898634116,
                    0.8731680244290657,
                    -0.2568100773486123,
                    -1.0989741751542765,
                    -1.0973553028334577,
                    -0.43257390727838474,
                    -2.1090062150213873,
                    2.312610539613706,
                    0.8760946061489795,
                    1.498116449832876,
                    -1.4283608497852858,
                    2.3990475715744024,
                    -0.1753716793607938,
                    1.9167606484091837,
                    0.7255690776259127,
                    -0.6557985203866552,
                    -1.1737146902721958,
                    -0.43479912273770716,
                    -2.089068874170953,
                    0.40026761294536806,
                    -0.8779645587006358,
                    -0.26395920356682934
                ],
                [
                    -1.188518067016536,
                    1.8606194517761039,
                    -1.4196980563074424,
                    2.527785249303447,
                    2.7161049160054964,
                    -0.8494089514631049,
                    1.1296680675612827,
                    -0.8795123312774112,
                    -0.21913297518820135,
                    -0.7375165795442287,
                    1.0771199253260684,
                    3.1080311406689365,
                    -2.5881490227942514,
                    -0.9697763385585565,
                    0.15330655285945194,
                    -0.028823509386866952,
                    -1.4261925736815542,
                    3.261819426304343,
                    1.5445451646327537,
                    1.7272338578903108,
                    -2.9976852404170446,
                    -2.3540418741299343,
                    1.0752258488028552,
                    2.863834861267259,
                    -3.4155769433858096,
                    0.5466152360862941,
                    1.3944371607043167,
                    1.409432347438393,
                    2.5812609842219936,
                    -0.9850951895087511
                ],
                [
                    2.407899305419549,
                    0.28998886960012704,
                    -0.6410888350133795,
                    2.2447301323467013,
                    0.2024260116580095,
                    1.7171634298257803,
                    -1.522314564721674,
                    -4.043474227779209,
                    -1.4549028517535838,
                    -2.2556858569377694,
                    -1.0100737104867252,
                    -0.3866750625370681,
                    -0.17813087200932615,
                    -1.0705600414997591,
                    -1.1802239708373652,
                    -2.1506328669048065,
                    -0.7401849768084965,
                    1.5637770777438318,
                    -1.7334519770218872,
                    2.5022914572145134,
                    -2.6035686256460946,
                    1.245006060378183,
                    1.4276786783737045,
                    -1.984211620855963,
                    0.7205334450400183,
                    -1.2587195689999546,
                    0.2434026241737023,
                    1.5475891915133515,
                    1.456731898490832,
                    -0.7152421864133699
                ],
                [
                    0.707327169853891,
                    -2.2174324441164326,
                    1.6777109764246747,
                    1.314113709533482,
                    0.06631462963002902,
                    2.4335626374243944,
                    -1.923243403535807,
                    -1.3555401425201135,
                    0.22077400732837144,
                    -1.3220271558231351,
                    -0.2868451279941106,
                    0.07897731392273588,
                    0.0265461340966468,
                    1.8571455248652606,
                    2.300474917136063,
                    0.895665994898351,
                    4.030976971460617,
                    0.058770085618207235,
                    -2.004230741139665,
                    0.7045435978752369,
                    2.164000129897009,
                    -0.052562399806178384,
                    2.531789699027748,
                    -2.0596491979735707,
                    -0.5895651893316483,
                    0.5825412476962768,
                    1.3157272928985781,
                    0.05269115650319012,
                    -1.0314975372404085,
                    -0.4150539569558698
                ],
                [
                    0.43233198567691067,
                    0.18533275955816575,
                    -0.6294343245859219,
                    0.46017674884078874,
                    0.2736475812945399,
                    1.8951699519334055,
                    1.5829503592625027,
                    0.6806664458084999,
                    1.1977815676380015,
                    1.575913622463105,
                    -0.6955764070020318,
                    0.018617436413204236,
                    -2.0382982639756357,
                    -0.04346524116825368,
                    1.5962198948648472,
                    -1.8567750060291783,
                    -1.4649790588461222,
                    0.1320252850535062,
                    1.7202439688770688,
                    0.3867054220080798,
                    -0.3398700078089768,
                    -0.7440358446279484,
                    -1.4932305887397348,
                    -1.2568014110442354,
                    0.6162981587157265,
                    2.8858547611217107,
                    -1.4210193900428396,
                    1.7578166488270712,
                    -0.13070882550864463,
                    1.7309896246771244
                ],
                [
                    0.9095963974206597,
                    -1.2509058726356175,
                    2.774733332593397,
                    -1.6315800923343942,
                    -0.5562561702456339,
                    -1.7489597541401694,
                    0.4416678386645754,
                    0.6412649062318012,
                    1.0063155125757342,
                    -0.25266879310675255,
                    1.930915553240742,
                    0.8493439890497412,
                    0.029320461467123693,
                    2.769615253508079,
                    -0.6587057477935152,
                    3.9251538116083027,
                    -0.7525538586565865,
                    1.984407648049389,
                    -1.0090974223300224,
                    -1.0290561854177893,
                    0.0457832159336124,
                    0.4326318849365728,
                    -2.404447345199079,
                    0.333602380532807,
                    -1.2034680323037334,
                    0.7820709255494289,
                    0.1734996344786306,
                    -1.6061573483418021,
                    -2.7494080794537368,
                    1.9470901446263396
                ],
                [
                    2.541610184563329,
                    -0.7792966379571715,
                    0.13931631334128763,
                    -2.26595401209851,
                    1.7110400830313648,
                    1.2690415187785304,
                    -0.4334108223341988,
                    -0.7828538481886677,
                    -0.7374390369199727,
                    1.3383493898412895,
                    -1.0283847518682911,
                    0.0122357379618101,
                    -0.09701799781421472,
                    -4.600949970835966,
                    0.3895109464044761,
                    -0.5043483636356167,
                    -1.244149893886959,
                    2.3425084164590557,
                    -0.06513421055964269,
                    -2.9953478937244147,
                    -0.6161012939347711,
                    1.0932057024214445,
                    -0.6974977775121666,
                    2.8929635131476736,
                    1.588600618996992,
                    -0.7305851517839785,
                    1.4119257683080857,
                    -1.018340045764272,
                    1.8181302280689133,
                    -1.9221173105571476
                ],
                [
                    -0.5722851586387305,
                    2.2145307365083826,
                    -1.7187652726714817,
                    0.8071505381973442,
                    3.4080498328787887,
                    0.6457086966972356,
                    -0.5661377734954549,
                    -0.38181221938254967,
                    1.2433927177855622,
                    0.9852099492079682,
                    0.2059313302342459,
                    2.2477694322452386,
                    0.5174082608259121,
                    0.48689290091111137,
                    0.8485107279182483,
                    -4.287927934203284,
                    -0.5148521651925028,
                    -0.1872040657275876,
                    -2.783352236170525,
                    -1.7707455015261366,
                    -1.3460242138699727,
                    -0.12851118331429445,
                    0.9524418091274371,
                    -0.6119370628702424,
                    -1.094685331275363,
                    1.570474470263973,
                    -0.7052976113263401,
                    1.0558286453912853,
                    -0.39196549723703916,
                    -3.2295428754568585
                ],
                [
                    -0.6887045422457733,
                    1.2706971162409841,
                    0.4971914997814748,
                    0.3782220368541031,
                    2.430069950778625,
                    1.7287628422155006,
                    5.3097595962118875,
                    -0.586630828956983,
                    -2.5822598398898675,
                    -1.8675065165357312,
                    -2.0065167283861767,
                    0.10034971129564307,
                    1.789110140665772,
                    2.1519137436509235,
                    1.2146184654013934,
                    -0.5966353731019869,
                    -0.4999584861134814,
                    2.1536878398917945,
                    -3.4539524696961754,
                    2.1020534397517703,
                    1.6919624209037207,
                    0.6986998396209622,
                    0.17012144535591,
                    0.5215736613311085,
                    -1.6456803126748887,
                    -1.715767271919506,
                    -2.7415449031633776,
                    0.5845978013935951,
                    2.3042912101006214,
                    0.06332937308869917
                ],
                [
                    -3.534803152864595,
                    -1.1003667337254952,
                    -1.3223514122986997,
                    2.6987668508633766,
                    -0.3416605266001512,
                    0.5017948022497778,
                    -1.0207571241372173,
                    -2.3016378116539493,
                    -0.08507680211278523,
                    1.817259305904082,
                    -0.7567649465705693,
                    1.0705723885680638,
                    0.058943204479809636,
                    0.7185768556074198,
                    1.5350911719208544,
                    -0.9445843051475289,
                    1.0767188147133626,
                    0.48798349255946805,
                    1.064937430237967,
                    -0.554943016292805,
                    -0.25882913089840326,
                    0.4034221170565473,
                    -0.43784019303689437,
                    -0.28173084134530296,
                    -2.0459144934255074,
                    0.5047468662225024,
                    3.3949762414536186,
                    0.5915804242988266,
                    -1.0653754304855698,
                    0.041741695342690566
                ],
                [
                    -0.308224365342853,
                    2.2642458425013894,
                    1.478215918950531,
                    -0.6666752777414705,
                    0.15169097854833813,
                    2.248442237503409,
                    -0.9831693913062391,
                    0.32769809292575586,
                    -0.8445923914668317,
                    -0.026890441663945164,
                    2.1617936616739395,
                    1.0846384727081915,
                    2.1756954953016767,
                    0.48200344247980403,
                    -2.1746760772941136,
                    2.4170076277181147,
                    0.8526437218558487,
                    0.6397498416963779,
                    -2.2568650998881594,
                    2.9482548021245383,
                    0.340985561788295,
                    -2.8118538146031073,
                    -1.1086522276211563,
                    0.5893562242648616,
                    -2.6040091496105346,
                    0.5514029617245872,
                    1.2490032438130914,
                    -0.12398239287646738,
                    -1.244062776835862,
                    0.29422651668979605
                ],
                [
                    0.8578018697135136,
                    -0.6510229039466173,
                    -0.5899000734515354,
                    -0.347439620374584,
                    -0.6879044038077463,
                    1.147202489281444,
                    0.03324300912129152,
                    0.6370638524198222,
                    -0.033527271458809405,
                    2.4937130871930635,
                    -1.3638278740282161,
                    -0.3976480678832737,
                    0.8934501772315516,
                    0.5046508939788411,
                    -0.5497000953650166,
                    -0.3150856889718965,
                    0.6703799244971883,
                    -0.7650355691140561,
                    0.6730449375856019,
                    0.9886329808048567,
                    0.1630801288253621,
                    0.18545014859393164,
                    -0.206296181170454,
                    0.21841918352580217,
                    3.6611126308943716,
                    1.7575889748523683,
                    -1.1026116091141365,
                    -0.16631454685661184,
                    2.8235810562783854,
                    2.0502262937216584
                ],
                [
                    -1.7271167968883,
                    -1.996204185933108,
                    2.360552060277326,
                    -3.36883170236182,
                    -0.2971532287814347,
                    -1.3912103774895828,
                    -0.23830699723927495,
                    4.563604007447504,
                    2.1920321190511527,
                    -1.1728304167867414,
                    -0.1120637814215398,
                    2.003241539587345,
                    0.6647780847219654,
                    -1.0584567699197205,
                    -1.7473065646157409,
                    2.212102622053079,
                    1.8234859765763263,
                    -1.890761532571295,
                    -0.31768053966790744,
                    -0.8188979888555057,
                    -1.521154742177968,
                    3.479997100546438,
                    -2.416425749520297,
                    0.8720676938181038,
                    1.5207243032897584,
                    -1.7664672966522765,
                    1.2078919892684965,
                    -3.1370741675849154,
                    2.052193442570831,
                    0.14748826806088466
                ],
                [
                    -0.5314043072564063,
                    -0.7525742645652512,
                    -0.41592790719427114,
                    -1.8729610089608368,
                    0.7059727714631044,
                    -0.04402100058256264,
                    -0.7753804315075321,
                    1.2911998989085436,
                    -1.4915861498872722,
                    0.8669004653260048,
                    -2.268223086812487,
                    1.167118321789135,
                    -0.5664203068827153,
                    1.6160909958132468,
                    0.7571940297723283,
                    -2.1266418676024,
                    -0.8377786964160802,
                    -0.07891570328056718,
                    -0.8784253074539624,
                    -0.3034696672299991,
                    -2.2063089630933748,
                    1.530806810377369,
                    -1.4322464352437274,
                    1.1524575824339087,
                    0.39514665515391406,
                    3.7120299704177917,
                    -1.1799794334914806,
                    -2.0842672287492605,
                    0.8552343269775251,
                    3.497101789147563
                ],
                [
                    1.0658583583254047,
                    -1.708835772555048,
                    -2.9537808936428784,
                    -2.2463306296582113,
                    -1.8855890243500641,
                    0.6181467601062515,
                    -1.9119586457279327,
                    0.6014178183489041,
                    0.7273999003714302,
                    2.016109866530437,
                    -0.9718448860382869,
                    0.47997303067215114,
                    3.0204421379354875,
                    -2.1153198738065293,
                    -1.4799347368498557,
                    -0.2660971114777058,
                    3.8233593315729517,
                    1.0600929803439676,
                    0.16062775995368206,
                    3.2223171295007176,
                    0.039042121140277164,
                    1.9783458656258788,
                    -2.927653392482137,
                    -0.10859555645492946,
                    -0.8700208751489011,
                    0.6580416078915678,
                    -0.06567367789121803,
                    -1.412584210803073,
                    -0.5733191383032705,
                    -0.6918111844568824
                ],
                [
                    2.5236740904964816,
                    -2.33743108141325,
                    0.5496667462149869,
                    -1.3551755525535694,
                    -0.07107270198552386,
                    0.03378908476228527,
                    -0.9728110766823865,
                    -2.928363047070669,
                    1.5260916913964941,
                    -1.4632127814756557,
                    -1.5674741719811927,
                    1.392120856099893,
                    -0.3969614195406911,
                    0.2499791891985808,
                    -2.416618883981083,
                    -0.9017403759036096,
                    0.497095900522062,
                    -1.9254177021475893,
                    1.6711265567503117,
                    -1.3613150553702078,
                    -0.6075931917609905,
                    -0.8822638006487001,
                    1.0700148532397975,
                    -1.542602529038248,
                    -0.81820415356034,
                    2.6775126015994966,
                    1.7487707746861119,
                    1.0810089144495882,
                    0.9929057740959244,
                    0.9297832391107352
                ],
                [
                    1.8840820489146046,
                    -2.088435469773123,
                    0.5736142785429401,
                    1.3338850168696113,
                    0.6376696842824076,
                    0.1891408878789021,
                    -1.8974157305501023,
                    0.3677614126703382,
                    1.4077108636609896,
                    0.6527813932184529,
                    1.3079011402320453,
                    0.7456065065492901,
                    -1.4093755045759235,
                    0.05853075397396064,
                    -0.5215432305795674,
                    3.0071466634141744,
                    0.6082076384259509,
                    -0.22623450017168995,
                    2.518826059471393,
                    -0.9264116441892314,
                    1.9002758393985126,
                    2.3223459651289833,
                    0.7862783774868233,
                    -0.36126903705240193,
                    -2.6007495838745864,
                    -1.8409776784564358,
                    0.4391470192045209,
                    0.9734087217898335,
                    -0.2855938495568307,
                    -1.4805443653236112
                ],
                [
                    -2.3218652360455194,
                    -0.6638007585117551,
                    -1.5320143288584602,
                    -0.723733750197985,
                    -0.8621352606195766,
                    1.6268812346010049,
                    1.201264121971795,
                    -2.870741366737899,
                    0.9617454376631169,
                    -3.0284628427254323,
                    -1.0329998890721028,
                    1.9463209005268558,
                    2.6199116039224086,
                    0.43391274489689236,
                    3.4961501649097504,
                    0.8194709255335736,
                    1.1535910245999261,
                    -2.646431040758236,
                    1.9350378898753682,
                    1.4994066394634047,
                    2.4933239915399437,
                    1.0984136713069663,
                    -2.2981384575735437,
                    -1.5450434205180084,
                    -1.1019432348529135,
                    1.5432070015108776,
                    0.21559596839919215,
                    1.877813660183758,
                    -0.4959042627352328,
                    3.794057889605357
                ],
                [
                    -0.5878687442657017,
                    0.8085878470156056,
                    -0.5736797397546679,
                    0.7873374862457011,
                    0.7597952422797125,
                    0.4195775869238055,
                    -0.38756594050704996,
                    1.249930815054906,
                    -0.6476126979163295,
                    -0.8788407881905449,
                    1.5666123429380774,
                    2.810444245657308,
                    0.9906956681782799,
                    -0.7876685200245087,
                    -1.9124130606840648,
                    1.605231165488146,
                    -0.9505356290358662,
                    -1.973877864643371,
                    -1.7705471430219166,
                    -1.7766327950637373,
                    -0.4893278562154266,
                    1.0375629478594421,
                    -1.3852670875890623,
                    2.5538439133439605,
                    2.5262423246680386,
                    0.3052385636726249,
                    0.3011673159067906,
                    0.28474331378700424,
                    0.724507349489609,
                    0.05701678918295696
                ],
                [
                    -0.5223045576542295,
                    -0.2529568841031711,
                    0.43005890776891226,
                    0.8838905985143989,
                    1.4868334755013026,
                    0.8656457008899047,
                    -1.7099925570816887,
                    -0.307241097581441,
                    -1.4485825509252024,
                    0.39294893811839543,
                    1.6861058333634915,
                    0.8379470477369143,
                    2.3906653447784696,
                    -2.2070129149375948,
                    -0.6166847240005583,
                    -0.3503378732666727,
                    -2.027168889106118,
                    -0.9825658934033719,
                    -1.3837289301018112,
                    -1.5644481173695146,
                    0.2533603595223237,
                    -0.2494567670589623,
                    -0.9919022829152524,
                    -1.6221999122447355,
                    -0.4646200220360932,
                    -1.6116704549129455,
                    2.6637562425137102,
                    -0.11315133388317034,
                    -0.3413954135857542,
                    0.8378414000845208
                ],
                [
                    0.4512649370934553,
                    0.47580108914462016,
                    3.3351396660782866,
                    2.9142248441478817,
                    -3.237703990971446,
                    0.9002503153446587,
                    -1.3257089684848424,
                    -1.2234885011085042,
                    1.5903184096183356,
                    1.8088373421145993,
                    -1.0645107152236617,
                    -2.1661229820154393,
                    0.04155662654825875,
                    2.1905248148399057,
                    0.6222516335218752,
                    0.22682558968504588,
                    1.2781499561996101,
                    0.9487417882758044,
                    0.7754553528214004,
                    -1.8690579734946404,
                    0.9040130228218195,
                    -2.237908053221917,
                    1.8877314473712108,
                    0.6251908622216964,
                    1.1425540131423724,
                    2.220228627165466,
                    -0.4609780408340212,
                    -0.677086695582821,
                    -3.2750768114721733,
                    -0.4866347970738216
                ],
                [
                    0.17148064591500045,
                    -1.143853469327699,
                    -1.5701470453430941,
                    5.568742237303338,
                    0.4189343930596153,
                    0.04913613748119616,
                    0.9326402142413562,
                    -0.23165009931180125,
                    -2.920689096516104,
                    -2.429743056681435,
                    4.079089559280298,
                    -0.5443574593967699,
                    2.998901181493501,
                    -1.257603095575471,
                    0.40465000361550607,
                    1.8451030131709731,
                    0.18012495476280932,
                    1.6366634298082101,
                    1.320608334556641,
                    -0.10014122466742065,
                    0.21168569714765018,
                    1.6658303858858798,
                    -2.776944339056244,
                    -0.38044773822454375,
                    1.729335409991955,
                    0.33814891056523877,
                    0.6713395826707013,
                    -1.1979779532218289,
                    1.4718588083288733,
                    1.6815123698736942
                ],
                [
                    -2.5209210732047436,
                    0.43342774272911966,
                    -1.5534153990359423,
                    -1.189003715144371,
                    1.4191660234519288,
                    1.8626243961616842,
                    -1.1934444911259379,
                    -0.09018171595804436,
                    -0.4801359666150421,
                    -2.1620079092491133,
                    -3.656839640501326,
                    -0.29737390573535927,
                    -1.4863621080382075,
                    -1.313894079261582,
                    -0.3523009978098661,
                    0.1782940324101627,
                    -1.896230909328155,
                    0.7114335499117522,
                    -1.988904160212095,
                    -2.925736710760101,
                    4.093301249328742,
                    -1.519463952722652,
                    0.7029275959138617,
                    -0.6731203981139884,
                    1.521485795404028,
                    1.034449544266399,
                    -0.46428462596518805,
                    0.8724880485568778,
                    1.2173573247197544,
                    -1.145283323933489
                ],
                [
                    0.4094835927525304,
                    0.0061313664644352395,
                    -0.13209394769106686,
                    1.5521483207437543,
                    0.9694115371229701,
                    0.922750717896519,
                    2.766088637488516,
                    -2.016949172886235,
                    -0.9317735729848505,
                    -1.6516943470292353,
                    -0.613274616978172,
                    -1.8019483818369875,
                    1.324721199909715,
                    2.238060235077231,
                    -1.9925125327267583,
                    0.6956502976274599,
                    1.2090328750174266,
                    -0.8892808678143383,
                    -1.0235822325700905,
                    -0.09003606530367092,
                    1.0691179281828367,
                    0.8929133366247142,
                    -0.8497994565731634,
                    2.286145072728974,
                    3.5395966323744616,
                    2.48309056760569,
                    1.3527039417207738,
                    -0.8759828375874779,
                    0.668686813286455,
                    -0.037282064653116787
                ],
                [
                    -0.5166651560813358,
                    -1.8434762112495746,
                    -0.7994854509251933,
                    -2.728136009431118,
                    1.4629529643138763,
                    1.209703560697538,
                    -2.9704443464938906,
                    -1.5858208369527553,
                    0.8369567273273154,
                    1.0479168580864346,
                    0.14816326969015492,
                    1.368130927797151,
                    1.9853563354009645,
                    1.3308025478351087,
                    -2.364643290474529,
                    0.04916914004136391,
                    4.063029266528402,
                    1.4249824805560158,
                    -1.656317172667653,
                    2.891661494145124,
                    -1.053918101555448,
                    -1.642703050191338,
                    1.8559101531945323,
                    0.8301399730047396,
                    -0.9982661421297624,
                    -2.4435771700219964,
                    -0.311157442224821,
                    -0.04943713398881888,
                    0.4655276761377153,
                    1.5173441318613656
                ],
                [
                    -0.10415076945511192,
                    -3.4928013545620473,
                    -1.6089272744365908,
                    2.915449359702255,
                    1.1627391101842832,
                    -0.30273191089393936,
                    1.0156175078859222,
                    -0.5467026806626959,
                    1.0421151392196015,
                    -1.6587307875230661,
                    0.6188888404189259,
                    1.5076451000204592,
                    -3.1073544036935394,
                    2.6836693177341693,
                    0.9167362770791305,
                    -2.3740039799147947,
                    1.5730456002085131,
                    -1.825020012593285,
                    1.2149022911677645,
                    -1.246329216567759,
                    2.172934641427867,
                    -1.7261698808678454,
                    2.4102823199075525,
                    -0.3590284949128788,
                    1.1306248104652208,
                    -0.33614572204613613,
                    -2.3352877841271544,
                    0.45869946285293783,
                    0.582087834490783,
                    -0.6346558396776965
                ],
                [
                    0.7240488738999038,
                    0.8465525185804252,
                    1.523792364505864,
                    -1.3196146073903772,
                    0.9792158036775208,
                    -0.8112966643894423,
                    -1.35281584722404,
                    1.8839431714039843,
                    -0.249740225130061,
                    -1.2557736065849383,
                    1.3668502426797453,
                    0.335197877098365,
                    0.09518838550169093,
                    2.214818285192089,
                    0.2225574599423836,
                    -2.1303598747661536,
                    -1.1253193228244485,
                    -0.8418489967099678,
                    1.0149186369800636,
                    -0.8328615358068086,
                    -0.4481465443936844,
                    -0.7590993037677727,
                    0.898971004385927,
                    0.7362863166972073,
                    -0.47608092753406406,
                    0.2664019162056695,
                    0.026407959056037877,
                    0.1320400853780882,
                    0.8454859345744001,
                    -1.9543265416993647
                ],
                [
                    -1.3361714375720626,
                    2.4694661767355695,
                    -3.2327624719553545,
                    -0.9577509398197516,
                    1.46691532346057,
                    1.908001657103339,
                    -0.7124908281055138,
                    -1.8997396189527798,
                    -2.2911643171698843,
                    2.9219960088772776,
                    0.7858569397203642,
                    -0.07810931643797003,
                    -1.3745846412952925,
                    0.7554430831386268,
                    0.6243089831949133,
                    0.24083167244310005,
                    2.171310101844544,
                    -3.178618715566044,
                    -0.20883219657838825,
                    2.191901043683562,
                    -0.5873665964633752,
                    -1.4190703230487642,
                    0.7965649116251432,
                    1.3868868539430235,
                    0.18456181297867782,
                    -0.17119818955625243,
                    -1.325102246627135,
                    -1.4035763284695773,
                    0.4213980943147251,
                    3.3967386637445305
                ],
                [
                    0.9947690062563738,
                    1.9322552618976698,
                    1.4154395331558798,
                    -3.0113509675600754,
                    -0.6574329443490653,
                    0.4506785687916923,
                    0.21657339114049073,
                    0.6493946577417293,
                    -3.6539923924318507,
                    -0.8949003758041018,
                    -1.1333209664536983,
                    -0.5613470431319322,
                    2.2667488687579143,
                    -0.8975442868578863,
                    -3.033216578638082,
                    -0.46353013267529397,
                    2.0561720381129085,
                    2.215339001549588,
                    -1.6450799789200796,
                    1.3732040649638733,
                    0.4911134363918187,
                    1.3252864588337683,
                    0.029949833345048693,
                    -0.7319901961334475,
                    0.697944862584425,
                    -0.7729901782442383,
                    2.0574862466876835,
                    -0.29670900102043596,
                    -2.1006024000731567,
                    -1.596921191664154
                ],
                [
                    -1.3784237855588288,
                    -0.9573338706137235,
                    1.2221220424006236,
                    0.7146917629928453,
                    1.5287487498739698,
                    -1.237630932036261,
                    -0.0617103139678169,
                    0.881140626633736,
                    1.2206591522122212,
                    -0.412476094455647,
                    1.992482532990319,
                    5.01974002574877,
                    -3.9624625363645203,
                    -0.06269624497438592,
                    -2.67635749532781,
                    4.676838677702202,
                    -2.9474773067016216,
                    -0.8802136555235482,
                    -0.8235314054592011,
                    -0.5592908677765659,
                    0.14629933102351728,
                    -0.16499801789493776,
                    -3.0340797458210425,
                    -1.124725080504895,
                    -1.2186071796064541,
                    3.0298654305769244,
                    3.2864748908568053,
                    0.35471239320591313,
                    0.9084272629735741,
                    0.8910371423275494
                ],
                [
                    -0.1936797450107109,
                    0.934732704688028,
                    -0.2887997976154597,
                    -0.374902236021626,
                    -0.6970083581430886,
                    2.3906947329680377,
                    1.449925798676918,
                    0.45704827871017767,
                    -0.7060295104408779,
                    2.259181356013789,
                    1.0475772322369334,
                    -0.4323859532535904,
                    -0.47336184351765687,
                    -2.1247589716011985,
                    -0.26808727729425896,
                    -2.436707651808992,
                    -3.576912625916034,
                    -1.9325279379718738,
                    2.4755303982409598,
                    -0.45253772395543546,
                    -0.4601396905532064,
                    -1.5989141692656177,
                    -0.3005889842656684,
                    0.011598329046777378,
                    3.219951824472249,
                    -1.4431682199253357,
                    0.5789584039666957,
                    0.11764905170746444,
                    -1.5316859264540095,
                    2.1167051405547537
                ],
                [
                    -1.8908076054231016,
                    -0.6443571291433017,
                    0.49015149967139565,
                    -0.39020061515533405,
                    0.3112884760928529,
                    -2.339751733989909,
                    0.6344029069442717,
                    -0.4914605429903679,
                    0.21327151253265342,
                    1.1229888476108378,
                    0.10405992827282262,
                    2.4279440690288343,
                    0.35299007963797635,
                    -2.5882914601886897,
                    1.4373791805244056,
                    -0.39553918994508547,
                    0.33273865683636783,
                    1.5351897829760277,
                    0.5349922331896043,
                    0.20515178241595344,
                    1.2766815093906496,
                    1.7021254084117277,
                    1.393808034725247,
                    0.20107601357840754,
                    0.07603712911679697,
                    1.1610469779906603,
                    -2.828510434240661,
                    -0.03074986520018852,
                    -2.400737564162752,
                    2.497039294180401
                ],
                [
                    1.9642110121179286,
                    -0.23670475241340586,
                    2.702285525417615,
                    -0.3743195062875441,
                    -1.8177233871812377,
                    -0.32943188735489964,
                    2.228242690901846,
                    0.5021673064215708,
                    1.8586091705281,
                    -1.7212197463630554,
                    -0.6529336348338632,
                    0.3901708146741123,
                    -1.3737256080059335,
                    2.4065488578763863,
                    -0.6212433475968709,
                    0.14551400277569979,
                    2.1690265570050977,
                    -0.30427357913914427,
                    1.791029340344024,
                    -0.6052676656878655,
                    0.44648320440385214,
                    -0.07913847348559738,
                    -0.14092640374505136,
                    0.8582357612363538,
                    -1.1563333086672105,
                    -0.5507137978501266,
                    -0.21860816628331714,
                    1.5214546148436827,
                    -0.8072078082137176,
                    1.7073868701862478
                ]
            ],
            "function": "sigmoid"
        },
        {
            "input_size": 30,
            "output_size": 8,
            "weights": [
                [
                    0.0666006450467198,
                    -0.33702415806549,
                    -5.750609060888658,
                    0.4679113834476738,
                    1.8338692168784174,
                    2.1405516530646733,
                    -2.107207075587127,
                    -1.6311123512779855
                ],
                [
                    1.0718173952563856,
                    -1.3228233492909731,
                    -0.89179247930729,
                    3.04866291086729,
                    1.8516564310979284,
                    2.9678312582972803,
                    1.1970773782682205,
                    -0.6775077388716088
                ],
                [
                    -0.14070326344764303,
                    -0.3936739295807965,
                    -1.8674202250418048,
                    -1.4702610752547165,
                    -1.88330190058276,
                    -1.7227486029019037,
                    -0.4100842122805689,
                    -0.4753162509171833
                ],
                [
                    -3.3165145474578726,
                    -1.0320160181518405,
                    -1.0866873364196956,
                    3.9302564594031764,
                    2.1557386295577166,
                    3.4153051504654264,
                    -2.12552597144876,
                    -1.0489958103013481
                ],
                [
                    -2.0388960645556096,
                    0.47530812305869646,
                    -1.496591941872948,
                    1.5015465897789269,
                    0.9651300916567619,
                    3.0106967618733416,
                    -3.5183637851300755,
                    0.6877109237494139
                ],
                [
                    2.0049894095729535,
                    1.0439994372965995,
                    -0.4681391001523356,
                    0.14503119892382899,
                    2.4041776553315666,
                    1.0493368410073216,
                    1.5328037112278081,
                    0.30823983075344974
                ],
                [
                    -1.4851765881611447,
                    -0.7954404123698322,
                    -0.04764745022120698,
                    0.34270578705475074,
                    -0.29713655297313235,
                    2.285801976399677,
                    -2.3632279525953086,
                    -0.506243548162044
                ],
                [
                    -1.8020762715760243,
                    -0.11300167502877212,
                    -0.6283201864685442,
                    0.5572438684576219,
                    -2.8407484180198117,
                    3.098607186914461,
                    0.6631236043850164,
                    0.06773231265619478
                ],
                [
                    -1.8499368291466523,
                    -0.6391464742404992,
                    -2.3950048974695957,
                    -1.4641200540822639,
                    -1.6360711257656344,
                    0.2405043082959063,
                    -1.4097513939992632,
                    -0.2102414854902028
                ],
                [
                    -0.576519491555141,
                    -0.8258893683154958,
                    2.0646822575295585,
                    0.25972373650307734,
                    0.4962187790190082,
                    -0.23637791826126295,
                    -2.440754829778576,
                    -1.7338294478836285
                ],
                [
                    -1.2738774697639677,
                    0.9357673024971302,
                    -1.0226049229879661,
                    -0.5962437087359627,
                    2.2221327244593345,
                    -1.170107628988146,
                    -1.7391558002738734,
                    -1.2151737122893151
                ],
                [
                    2.0606887573638466,
                    0.7824634115907735,
                    -2.3455996626503968,
                    0.6291046081459881,
                    0.4357064344767545,
                    -0.779125543381879,
                    -0.27671878823574303,
                    1.4455306337901064
                ],
                [
                    -2.944836048551431,
                    1.5413073604242513,
                    1.3110906825584197,
                    -2.0364096971692964,
                    -1.1213972998003015,
                    -0.7328252285862511,
                    0.7806868653418765,
                    -1.9155727971371703
                ],
                [
                    -4.393470841422898,
                    -0.5446039033360808,
                    -3.5711675558413707,
                    -0.4512406857007205,
                    3.195606399527803,
                    -1.4591121592999394,
                    1.6699687775751126,
                    -0.29630897470803585
                ],
                [
                    -0.4757816350022841,
                    0.4212524005497621,
                    -1.9327236004728738,
                    0.9185885898071136,
                    3.4221676469416535,
                    1.4983065049256905,
                    0.49327931088432503,
                    1.229218608629545
                ],
                [
                    -0.13700970781361357,
                    4.109296134659695,
                    -0.1350341518549456,
                    -2.810213692130844,
                    -0.5586550779360515,
                    1.032595502324882,
                    -1.2972016855297424,
                    -1.6931722769954942
                ],
                [
                    0.3242243534110011,
                    2.1563091433035564,
                    -0.6818992188543526,
                    -0.8440008208763516,
                    0.40859772533509786,
                    -3.2182276767223614,
                    -0.9782827090222861,
                    1.6435270367774575
