{
    "name": "SelfAdaptiveBrain",
    "mutation_rate": 0.2117730766361268,
    "layers": [
        {
            "input_size": 15,
            "output_size": 50,
            "weights": [
                [
                    -2.015578481522346,
                    0.4335525296432278,
                    -0.30954339483149623,
                    -0.18261633985735354,
                    1.967262616536757,
                    0.7645116038798551,
                    0.3891788710497467,
                    -0.03673980324451548,
                    -0.7330636438220673,
                    0.9208662050067369,
                    0.3525842935899832,
                    -0.600468416347841,
                    -0.9262747744574287,
                    0.39011689234866614,
                    -0.7645041599775585,
                    -0.9987533422869336,
                    -0.21208394017443266,
                    -1.216323756882411,
                    2.2576349970975507,
                    -1.1202044638108304,
                    -0.48598768143125315,
                    0.34232385894566847,
                    -0.7265655502238286,
                    1.2456034158194953,
                    -3.8052758572008525,
                    -0.46080258768005944,
                    -1.1561728633452957,
                    0.6791583443148588,
                    0.5553309206712967,
                    -1.1991241587104984,
                    0.2900313397135223,
                    -1.2589596848300881,
                    -2.427499179583691,
                    -0.6447561921415512,
                    -0.12616369982838646,
                    -0.4973620824116419,
                    -0.5476946223249347,
                    0.8900931355139639,
                    2.021920323253226,
                    -0.8280816295405737,
                    1.474575097345413,
                    -1.5447682482956435,
                    -0.4046760958027621,
                    -1.6459662113652596,
                    1.1462245828870585,
                    -0.016302511590086482,
                    2.8750722815997074,
                    0.49714962940511337,
                    -0.28922502478829354,
                    0.7012395841121367
                ],
                [
                    0.4701943419544039,
                    -0.023239263979724034,
                    1.4467445642506531,
                    -0.5692864147230837,
                    0.7000199364018814,
                    1.143806160375808,
                    1.3195596597003214,
                    -0.6103222666685704,
                    0.19743143408943953,
                    1.1917292162799098,
                    -1.3689211072089449,
                    0.6768807630737558,
                    1.988162754178232,
                    -1.0087056753422703,
                    2.667884811825667,
                    -1.0520789312649717,
                    -1.3325682002318417,
                    -1.1188059863594872,
                    -2.009480409828415,
                    -0.6216804744023434,
                    0.4238530481420142,
                    0.3563155393624553,
                    0.3170189951608132,
                    -0.6824919166055243,
                    -1.7523055513173185,
                    -0.04312159734911199,
                    0.48256359093259626,
                    1.5923735929824099,
                    -0.6427440560087531,
                    0.3205754936596518,
                    -0.37845124194472096,
                    -0.6903442929401196,
                    -0.048392062832577507,
                    1.9457140255693428,
                    -0.31533313631542,
                    1.0728759290366912,
                    0.33475336808528566,
                    -2.1703908173057305,
                    -0.8969634685615513,
                    -0.9921625438615337,
                    -1.4438970427474709,
                    0.2953336285012156,
                    -0.8154402815408752,
                    0.7024505115749444,
                    1.93858349242666,
                    -0.3724301179637268,
                    -1.1942222796266817,
                    0.252581880374245,
                    0.8205883188946305,
                    -2.7565378126369793
                ],
                [
                    0.6840346880734213,
                    1.0277286620506179,
                    -0.5403062396895497,
                    -0.783014769193009,
                    -0.7024201809764159,
                    1.0720378569359006,
                    1.3829721331188065,
                    -1.645351085639541,
                    -0.569051754798138,
                    -0.37834874428355575,
                    -0.9095179222492611,
                    1.8508336954950741,
                    1.415129038734999,
                    -0.10500924814103027,
                    -0.045745027408149785,
                    -0.868714085631553,
                    0.7328006327646626,
                    -0.6490541960927836,
                    2.5422246731304194,
                    -1.4172580212504082,
                    -1.3370159152834848,
                    -0.2705939842383268,
                    -0.24626909417025716,
                    1.0309894577114287,
                    0.5231630488899612,
                    1.4604816355393584,
                    0.8885200512175742,
                    1.790454234941198,
                    1.0709972345769625,
                    -0.4280475050592536,
                    -2.1834569334943192,
                    -0.3268331393624391,
                    2.2243919216637593,
                    -3.2577844954249136,
                    1.1933386795083365,
                    -0.19422154780529424,
                    -0.27731493058478124,
                    1.4152218518547408,
                    -1.2882428778759365,
                    -1.0588146805220569,
                    1.7000372552375298,
                    0.4496154651775076,
                    -1.7879806340442368,
                    -0.8798589122249185,
                    -0.3127951346600222,
                    -0.08553240870139998,
                    1.121106879025051,
                    -0.021528407386053022,
                    -0.474968159753451,
                    -0.32804906372078396
                ],
                [
                    -3.1858753715719437,
                    0.6552769172105591,
                    0.8950677920425211,
                    0.75286874834332,
                    1.7377042898759256,
                    0.688586117254913,
                    0.6547860929351624,
                    1.2304645956268103,
                    0.6263316355750047,
                    0.13012780282265196,
                    1.0232366996519082,
                    -1.475004398621837,
                    0.5925323400681961,
                    0.4495428582612776,
                    1.3732556971396046,
                    1.1679545269231193,
                    0.029302774431055376,
                    -0.7840674017396922,
                    0.30996147707962607,
                    -2.7605042296581273,
                    0.3978192476136631,
                    0.3375656047941168,
                    0.1271223333223359,
                    -1.5322095329664918,
                    1.404219029832959,
                    -0.8138419980548133,
                    1.3616345718344436,
                    -0.46752630762945985,
                    -0.438055310317128,
                    -2.3708561697517494,
                    0.2891710935364907,
                    -0.6117143192595815,
                    -1.095226471573998,
                    -2.089585052178864,
                    -0.6334056977719017,
                    1.2697643429623957,
                    -0.1460441297433127,
                    1.3053212454009846,
                    0.10506535633933897,
                    0.3544714061513056,
                    0.859665096314729,
                    0.4417880826143695,
                    2.5051745026485226,
                    0.45633210195482843,
                    1.0387575654400683,
                    2.412741517223187,
                    0.8394899636061522,
                    2.063657173351988,
                    -2.9610702121554597,
                    -1.2404621605751422
                ],
                [
                    0.6879311593525826,
                    1.6796946156682437,
                    0.32138669470609516,
                    0.3221640963719415,
                    -0.40564928835849745,
                    -0.33163547947719907,
                    0.7635815705827039,
                    1.257778814207447,
                    0.6135246571947578,
                    0.9209589849644848,
                    0.6897930777558284,
                    0.0075517527501182125,
                    -0.47472569814993226,
                    -1.1816036282660463,
                    -0.8130570877362846,
                    -0.606291174782625,
                    -0.10053466776981346,
                    0.4337049835338414,
                    -0.9674827419022302,
                    -0.6907977100885004,
                    -0.5167800375069366,
                    -1.7152241485544923,
                    -0.6597513092234293,
                    -0.6250998278566834,
                    1.738791137150803,
                    -0.011076844346391557,
                    -1.496772277145275,
                    -1.2639658083915009,
                    0.5339182442635264,
                    0.20777326741257215,
                    -1.1479419071428714,
                    -0.591204622635676,
                    0.21835856602843462,
                    -0.6308638793105779,
                    1.3083320472689586,
                    -1.244426582491225,
                    0.4926105587923721,
                    0.701438156415168,
                    0.08146846099385491,
                    1.5385764823109012,
                    1.0188109986294922,
                    0.3261075328899218,
                    0.28261178781410246,
                    1.3809677860030931,
                    -0.34515580001985785,
                    -1.4512313850702165,
                    -0.43699854093188895,
                    -0.022039836543152308,
                    0.3717376378358745,
                    1.304004782769133
                ],
                [
                    0.07764549946195612,
                    0.14320710010711982,
                    0.5805335540509635,
                    -0.1843623155900856,
                    -0.8818789848253508,
                    1.6014303732394106,
                    -0.7859151440564862,
                    -3.607448673893109,
                    -1.480622121685665,
                    -0.7759013860728068,
                    -0.2821493047738738,
                    -0.03196007637656467,
                    -0.642178961518352,
                    1.2813032330205858,
                    2.9712662312594014,
                    -0.7123666185578843,
                    -1.1328820012627978,
                    -0.7058281600606269,
                    1.4831750407724416,
                    -0.8556084014539765,
                    2.757015089664145,
                    2.0517919174285058,
                    -0.25306881734100617,
                    -0.056879035477003126,
                    -0.16250642694127626,
                    0.3918355902791056,
                    -0.09828423825674745,
                    -1.6587106628364445,
                    1.2468731401443987,
                    0.07887325910273867,
                    -0.29399303978826247,
                    1.953612089010213,
                    -1.706754783835384,
                    -0.499646511824839,
                    0.5053451654762571,
                    1.3051436181460487,
                    -1.5107065707834058,
                    -1.0273969460178196,
                    -0.32717736602770836,
                    0.15327724990907127,
                    -0.8491577489956003,
                    2.1277990501285475,
                    -0.054291631126352796,
                    -1.4538687702601891,
                    -0.13294771676645045,
                    1.543998387276742,
                    1.5295843820156076,
                    -1.5730653955326617,
                    0.2699699256016534,
                    -0.39924055101885747
                ],
                [
                    -1.4926886521295373,
                    0.11759097789043901,
                    0.3945278553084774,
                    0.8685022284668247,
                    0.4051038892082995,
                    -0.5396153329145951,
                    0.5419996753446613,
                    0.11775424188060303,
                    0.9198446232094705,
                    -0.17437295740118058,
                    -0.1240415711272691,
                    -0.8302300565293907,
                    -0.7894329149595014,
                    -1.1122562062060775,
                    1.0819131021575192,
                    0.4768768079689868,
                    0.7031932616758363,
                    -0.05089519204003762,
                    1.587321562128985,
                    -0.22302474823190632,
                    -1.3078242243827778,
                    -0.037465345470836076,
                    0.5974438869877076,
                    0.14529823417530022,
                    0.29333301471920115,
                    0.15583195816159984,
                    -2.7117076717091,
                    0.22558095947885237,
                    -0.09457401392873471,
                    -1.3642476652034685,
                    1.629904713517464,
                    0.06193422483140652,
                    -0.01567295812520572,
                    -0.7210144589209923,
                    -0.5217229634426699,
                    2.318807542482761,
                    0.11551660617322666,
                    -2.0315328399775376,
                    0.5785139521899999,
                    -1.2927901990419994,
                    -0.3491851244454277,
                    0.47048506627288866,
                    -0.211417073433112,
                    1.46108501247624,
                    -0.20611982953777386,
                    0.2782201101934908,
                    -1.2298351937255818,
                    1.1529097959112224,
                    1.6325295262770607,
                    -0.8338479510213344
                ],
                [
                    -0.44288765377738837,
                    0.5692151690321993,
                    -0.9840567338792211,
                    1.497280610810372,
                    0.08436237666690374,
                    2.2386996023591377,
                    1.429323887339758,
                    0.36156158162380736,
                    -0.6805031984605421,
                    -2.121003047759824,
                    1.0890650233592172,
                    0.5486716917476654,
                    0.18344516486508972,
                    -0.6717513280903592,
                    0.7834562403959077,
                    1.7552555397581566,
                    0.9572190063527075,
                    0.6958837107511116,
                    0.7354756924791257,
                    0.341630345283505,
                    -0.14185662616989542,
                    0.21089400421969678,
                    -2.08999483398885,
                    -0.651118688250925,
                    -1.5685561167960462,
                    1.4168638350484133,
                    1.347205841656626,
                    0.8907204245136945,
                    -0.37719366439837265,
                    -0.2132557323232354,
                    0.9560386659694544,
                    0.8670943715175864,
                    -0.9874854195067688,
                    0.6016249390072544,
                    0.2707157710048758,
                    -1.2746282733795544,
                    0.5049102404426042,
                    1.2005489495179265,
                    0.4981907100250011,
                    0.8865389897077282,
                    -0.07333774574667742,
                    0.12487613003134981,
                    1.235521324740069,
                    0.06171666612075587,
                    0.4327441122667276,
                    2.9359705097924795,
                    0.3176141025000544,
                    0.2921742137099798,
                    0.4470159983199735,
                    0.1847564702539948
                ],
                [
                    0.44324837014006957,
                    1.7690754723391944,
                    1.534391618004778,
                    -0.07338411786507672,
                    -0.7771026817713405,
                    0.5443693055262657,
                    2.236022296538476,
                    -0.4997238064033884,
                    0.1899081220462006,
                    5.036927318127079,
                    0.23142450338855947,
                    -0.43015938252403385,
                    -0.6500843279662972,
                    -2.344179701659058,
                    -1.15282338487387,
                    1.5014462861449593,
                    0.03218523296727897,
                    -0.9013195178662397,
                    -0.9115226952889012,
                    0.007384191810602972,
                    -0.3926320178231029,
                    0.7451688355735178,
                    0.08266527960262214,
                    0.16674800983817253,
                    0.49098906804094467,
                    0.7580798972063882,
                    0.5431828039684621,
                    -0.7300898485862921,
                    0.9158408452700775,
                    0.5387565417175936,
                    0.46300374878629796,
                    -1.3740055646718974,
                    0.40657276739962267,
                    0.6865551352748531,
                    -0.646207806561371,
                    -1.9475137953934074,
                    0.2895581244809343,
                    -0.7506158492179797,
                    3.0384580376267034,
                    0.5990688816375612,
                    0.8707714603346982,
                    -1.4746502123377465,
                    -0.6487842095369691,
                    -0.8332289283267208,
                    -0.27218628122018285,
                    0.4932330179934029,
                    0.7199983254312584,
                    0.35001738275188643,
                    -1.262628119045447,
                    0.24124808469250342
                ],
                [
                    -0.20024432830962874,
                    1.6430917473397697,
                    -1.2613485664965907,
                    -0.16357923260852472,
                    -1.2562819895892494,
                    -3.0163540245307745,
                    -0.5758584137384222,
                    0.27662360050004786,
                    -0.7661473825604853,
                    -0.5958352837831993,
                    -1.340507941695452,
                    0.18620763798239676,
                    -0.15254201227036512,
                    0.5373551570118438,
                    -0.3102795529450929,
                    0.27225257947582227,
                    -0.45996061927669585,
                    -0.9369894781934373,
                    -0.00420732745725088,
                    0.4799674640448177,
                    -2.004182112351617,
                    0.6808329999996635,
                    -1.977259566467949,
                    -0.020418776935219235,
                    -0.9427390656823065,
                    2.502661271758314,
                    -0.35917478420576804,
                    0.7711727197086057,
                    0.6647842586905582,
                    -1.083494893756969,
                    -0.345868709631477,
                    0.664018943054338,
                    -0.7138864562543912,
                    -1.2358563908217128,
                    0.6295424124882264,
                    -1.297127254133871,
                    -0.40166815874870354,
                    0.9091426341081611,
                    -4.246332964084513,
                    0.6803726375904033,
                    -1.808658537254273,
                    -0.10834349814314179,
                    -0.10375792980928239,
                    1.650653742121381,
                    -2.32935033752972,
                    0.5368639016429576,
                    -0.9879992019414625,
                    -1.484631394073188,
                    0.08986551557493173,
                    -0.7718512572888465
                ],
                [
                    -0.170368010857887,
                    3.1341037564565735,
                    -0.11768410583038866,
                    -0.835400650220074,
                    0.15922193654241373,
                    -0.9664838965098821,
                    0.9658323524326666,
                    -0.41278334908755826,
                    0.5698451254111316,
                    -1.9691785405367666,
                    -0.04381759714216879,
                    0.08674390799827059,
                    0.029625526154976045,
                    1.0481449398905105,
                    0.853475336726319,
                    -0.606981722404558,
                    0.6748876544813753,
                    0.8118766996633513,
                    -0.7615846680690159,
                    0.8887661268327488,
                    -0.1552393537415529,
                    0.523771476244173,
                    1.2798863850344004,
                    -0.019705971251928966,
                    -0.5310739054427034,
                    1.6524349057898142,
                    -0.004071153285835134,
                    -1.1903655023582465,
                    -1.784964212225917,
                    -0.9858030522494916,
                    0.6747589608050926,
                    1.7098457580081212,
                    0.17961758064860997,
                    -0.9384163318274358,
                    0.9806089344441311,
                    4.0813633840685695,
                    -0.264493913898289,
                    -0.3410882487227468,
                    -2.6040999894628984,
                    -1.0878724735889047,
                    -0.9273733619031498,
                    -0.2859449939940014,
                    -0.2917714811439409,
                    -1.2660801980940932,
                    1.1244074418557142,
                    -1.7073300628986974,
                    -2.1830780147212865,
                    -0.04694828070257434,
                    0.7563028775229141,
                    -0.007560759043839231
                ],
                [
                    -0.2310657021000445,
                    0.7509408132342623,
                    -0.5287868835668431,
                    0.6293281829467849,
                    1.191611058268553,
                    -2.2620960820084117,
                    0.8815909718612277,
                    0.510039996478719,
                    0.7114215397442988,
                    1.7577895542921171,
                    -0.8889052118886329,
                    0.3309069517265633,
                    -0.24790480186463398,
                    -0.25957797741844163,
                    0.26329635790100964,
                    -0.8433053809769115,
                    0.6294010081832474,
                    1.2884398326377864,
                    -0.009147605230520023,
                    0.40954558921046824,
                    -0.1473324050101956,
                    0.023808853488391277,
                    -1.8396760257528593,
                    0.6802772756761939,
                    -0.13664477694397323,
                    0.17062546570515535,
                    -2.386324431271888,
                    -0.16470362742287525,
                    0.9071032148592846,
                    2.1451761204352557,
                    -2.264176380793737,
                    0.20443037593730712,
                    -0.773996151896313,
                    2.210425559976348,
                    -1.5577882761138317,
                    1.3248171760270677,
                    1.3689149853108618,
                    -0.6000529317174141,
                    0.00899381913754585,
                    0.1317107474028733,
                    1.4514631008136252,
                    0.8304014447536328,
                    -0.7325254846882786,
                    0.5558704772991429,
                    0.11463845728074407,
                    -0.7986586318941856,
                    1.6510525378295324,
                    1.939836781614592,
                    -1.3820369656798204,
                    0.2173725483815282
                ],
                [
                    -1.9637777439184323,
                    -1.0718300479543965,
                    -1.7256067472455436,
                    0.07366783467493349,
                    -0.03836430887753762,
                    -0.3619710888722152,
                    0.5520569869085502,
                    0.828457407975034,
                    0.3568383418082399,
                    -0.7261510214580662,
                    1.107511387498509,
                    2.222081156475178,
                    -1.0864188492691087,
                    -0.6176703230753066,
                    -2.1573051225630278,
                    0.0461078025846367,
                    -1.3458712327707105,
                    0.678959600813413,
                    -0.25546223221407,
                    0.1527489329124991,
                    -0.46419626771761824,
                    1.021618894585845,
                    0.45318342741985407,
                    0.06842190348451299,
                    0.4348285207050474,
                    0.5314419488358165,
                    -0.10209324282516208,
                    0.03654561881296817,
                    -0.4320229844648269,
                    0.9476525698790546,
                    -0.46818825684905285,
                    1.2935323836100563,
                    -0.17833030293554275,
                    2.331820772312467,
                    -0.13607054785752767,
                    1.3767589923404275,
                    1.2120603204963745,
                    2.554673134740757,
                    -0.7618712592214125,
                    -0.08378596959900184,
                    -1.2623651434289431,
                    -0.4305430581406851,
                    -2.890966248158245,
                    -0.020118759952165333,
                    -2.061310868605184,
                    1.0384154165211714,
                    0.3087238117991652,
                    -0.4519397156300585,
                    -2.272160510770095,
                    -0.3413856409716939
                ],
                [
                    -0.5411304970113682,
                    0.4522696458132972,
                    -0.8376516857220115,
                    0.6572750082859042,
                    1.0567129912476387,
                    -0.48720790735484454,
                    -0.30028072106697395,
                    0.719358093631003,
                    -0.41609669626309953,
                    0.6941251033066497,
                    0.42909109802873185,
                    -0.5414059524056438,
                    -2.1512465547304473,
                    1.895310199852824,
                    1.6218052496467583,
                    -1.0015574855890863,
                    0.17207542030553258,
                    0.23828334668660245,
                    0.4520062940310027,
                    -0.25980117490761623,
                    0.9346885225411616,
                    -0.6506764493065594,
                    2.259285893489855,
                    0.19039933105933188,
                    -0.35904374412106743,
                    0.48725285519155276,
                    0.6353424015049767,
                    1.3342898794675602,
                    -0.9028649447127903,
                    -2.6831460123522297,
                    0.36598452881730126,
                    1.0009677163425268,
                    -1.6415004631112977,
                    -0.9544914499011458,
                    -0.1914636448000623,
                    -0.9023733594100476,
                    -0.39109713862149226,
                    1.6246212514982021,
                    0.7455269326221574,
                    -0.6738395741877017,
                    -2.524833532991415,
                    0.36306564879162917,
                    0.6746323856965892,
                    -0.6714077419872165,
                    1.0288032065133943,
                    -0.3733475403036596,
                    0.9685747860908908,
                    -2.1911387076799556,
                    -0.8454558995891563,
                    -3.3988775383784895
                ],
                [
                    -0.8598816021885054,
                    0.9980754506738463,
                    -0.36931602413565356,
                    -0.1353882827287508,
                    0.4721846588496864,
                    0.11617953331081435,
                    -1.169359017784643,
                    0.9156665975986509,
                    -0.42872640247954674,
                    1.3332378176086916,
                    -0.361897529279973,
                    2.3847480535925434,
                    -1.0527210080823204,
                    -1.8892329777543986,
                    0.15474909171932194,
                    -0.9464187479324728,
                    -0.6477834070252644,
                    -0.3641468538931106,
                    -1.2791815777903537,
                    1.0804179003730867,
                    -0.6498386052927472,
                    -2.2547038823029935,
                    -0.9914404266357989,
                    1.0001076109726006,
                    -0.3532774824116243,
                    -0.617651140349686,
                    0.033984398226309845,
                    0.20521807762460015,
                    1.7382837369664803,
                    1.629462502276814,
                    0.22597445793677062,
                    0.95334180762833,
                    -1.140529051410175,
                    0.5058455215021316,
                    0.3279630552546956,
                    -1.0153653527863031,
                    1.2240147595840785,
                    -0.7658673303349757,
                    0.6173010356164037,
                    -1.5323827831444612,
                    0.8965485271964865,
                    -0.7026878215461583,
                    -0.8617066268003668,
                    -0.2381453777242598,
                    1.0824152996216732,
                    -0.24989127603186723,
                    0.3491921833674345,
                    -0.46928158168417733,
                    -1.1950439117080458,
                    0.6353887197314257
                ]
            ],
            "function": "sigmoid"
        },
        {
            "input_size": 50,
            "output_size": 30,
            "weights": [
                [
                    0.13302067129090012,
                    0.7908554608270068,
                    3.2641551872932655,
                    -0.1346218058579618,
                    0.5514426192376303,
                    0.31460868457935287,
                    0.31041780206768543,
                    1.1874111323019538,
                    0.008375648216820297,
                    0.22247784452480132,
                    -0.46338153635510393,
                    0.7849619977708113,
                    0.2523528863610991,
                    0.6009546602665164,
                    -1.251883738298488,
                    -0.9291606585933236,
                    0.6515567374686189,
                    0.7454285348881086,
                    -0.53233867902889,
                    -0.18501207962900207,
                    -2.045717063021794,
                    0.9509578787301294,
                    -0.30065693787715575,
                    0.5759434164944863,
                    -0.9226189997417273,
                    0.6259086971849994,
                    1.1220644058326597,
                    0.22362039780257625,
                    1.591242012544519,
                    -0.9749310602776453
                ],
                [
                    0.31582888746997406,
                    -1.022447208452095,
                    -0.5851459580511016,
                    -0.6379427889775438,
                    1.5398253431220386,
                    0.6265976432442539,
                    -0.24806510156044514,
                    1.6149548849806925,
                    1.36630630321224,
                    0.48771896681826044,
                    -1.0395991829185596,
                    1.4056923511160229,
                    0.30806313085996634,
                    1.6294272184131882,
                    2.4505421070861364,
                    0.6433495432720047,
                    -0.7948922970237359,
                    -2.805714621544177,
                    -0.8503823840851739,
                    -0.14006024180591428,
                    1.5380039477103515,
                    2.536764184465746,
                    1.4160432673420043,
                    -0.61853535682944,
                    0.6444457203694058,
                    -0.5370061007782685,
                    0.6301003568660011,
                    -0.15466960458609408,
                    -0.36450898846560176,
                    -1.2019947770845172
                ],
                [
                    -0.4997871047537854,
                    -0.16354337795657833,
                    1.0042607171874414,
                    0.6842989931807271,
                    -0.820707447353235,
                    0.8015468710434765,
                    -0.9794318184656222,
                    -0.36081866453970857,
                    -1.2202731036074097,
                    -0.773010429068099,
                    -0.6678579846520688,
                    0.49400501512489525,
                    1.3893968499467135,
                    1.2619421884618909,
                    1.914743863229981,
                    1.0443650776380204,
                    1.197952773332635,
                    -0.4918030226299429,
                    -0.4417959048449772,
                    1.3586559174288912,
                    1.374121508660594,
                    -0.6766053013849227,
                    -1.252706608173387,
                    -0.6892117772336235,
                    -0.6784703983714856,
                    0.16035551795804553,
                    0.5216160676128963,
                    0.9303423008032545,
                    0.07829527028815739,
                    -0.7155293281293678
                ],
                [
                    0.9644082493983549,
                    0.35844748212430394,
                    -2.755347528052408,
                    -1.0270476467615823,
                    0.3545912002459821,
                    -1.1548925366439196,
                    -1.3962792993113446,
                    1.0683106372130005,
                    0.41870478731625116,
                    0.8340998085577788,
                    2.391905985564545,
                    -1.4670554162954725,
                    0.8603019420572381,
                    0.634328222525955,
                    -1.4376961574294473,
                    -0.8036976953322529,
                    0.45417579694297294,
                    -1.6274481341733713,
                    1.7278894862122918,
                    -0.9157289901032746,
                    0.0014015322408225672,
                    -0.5828596410873651,
                    -1.0144570493496052,
                    0.27299803615515794,
                    1.326840026060525,
                    -0.11439154475068238,
                    0.7014623647392002,
                    1.7483570040338057,
                    0.32044210088857644,
                    0.6216099148220061
                ],
                [
                    1.428132411820946,
                    -0.31003388568807716,
                    0.4677923901708746,
                    1.774272071385326,
                    -0.03431344460951355,
                    0.0418505115251922,
                    0.08407064005413215,
                    -0.2882467902707895,
                    -1.4754716045041156,
                    -0.3671053671616903,
                    -1.6090135034140336,
                    -2.9619827009388997,
                    0.9517800342246939,
                    1.5520146261409753,
                    -0.24356634104478148,
                    0.6740852492846758,
                    1.5679784412018438,
                    0.2396971085394891,
                    0.8015215609743512,
                    -0.438608812658815,
                    -0.06750650398449207,
                    0.029321639598326333,
                    -0.08029577809085812,
                    0.9886076540865135,
                    -0.20543416714301105,
                    0.38678776777367896,
                    -0.9006453354107128,
                    -1.6087462888942778,
                    0.8267326099360798,
                    -0.22111768360433381
                ],
                [
                    0.6111703138125363,
                    -2.5697989791416362,
                    -0.730156089391735,
                    -3.0525578285665493,
                    -2.3108569918625506,
                    -0.35759411420574616,
                    1.0636578837964634,
                    -0.31391343634534763,
                    -1.6726499514701814,
                    1.3600952613496582,
                    0.6627500754685725,
                    1.914910261897234,
                    0.8029926652644764,
                    -1.2599450476226148,
                    0.7042479146843628,
                    -0.6285637917737517,
                    1.2833791073137948,
                    -0.0020868065207875625,
                    -1.6731964016148566,
                    -0.7484690562087457,
                    -0.8948042358553573,
                    1.8224446578920634,
                    1.2108506899378515,
                    0.155319349362534,
                    1.197809163340684,
                    -0.39465237434744294,
                    1.6717153338674726,
                    -0.353209084856595,
                    -0.24663369833221116,
                    -0.8910046572654685
                ],
                [
                    0.10381709575898548,
                    0.752790255432202,
                    -0.42869785387618486,
                    -1.390493645965631,
                    -0.6113466926527682,
                    -0.42828235228381295,
                    -0.6018826788437621,
                    0.49195675016835,
                    -0.6730065091569932,
                    0.08606141310906279,
                    0.8271723065348877,
                    -0.34965516821231146,
                    -1.8188108460452583,
                    1.682993503745787,
                    -0.8660342303783243,
                    1.9574789531677268,
                    0.4166207821265863,
                    1.266129508975445,
                    -4.608698992588219,
                    0.31706982794528404,
                    -0.7124994649421617,
                    -0.4510364434463338,
                    -0.2939989279657532,
                    -0.7683787688023855,
                    1.3544150464302684,
                    0.6999509319080826,
                    -0.3017048863536426,
                    0.5222044697060554,
                    1.5486900704319682,
                    0.14474715694585494
                ],
                [
                    -0.5648294235529981,
                    -0.14207011279734388,
                    0.2689093339632226,
                    -0.6907924259870354,
                    -1.2652077932385795,
                    -0.5837627515296394,
                    1.0074492643574147,
                    1.4969914767477774,
                    -1.8718693282063172,
                    1.1676486462015887,
                    0.2658627832973011,
                    -0.8137692148696778,
                    0.604107996718214,
                    1.6909333955624855,
                    -0.1144496406145859,
                    0.7561940898190292,
                    -1.3479981470861844,
                    -0.9504103800873713,
                    -0.44731702688871877,
                    -1.130568928984616,
                    1.5654371249661923,
                    -4.064032789135862,
                    1.9081767288055633,
                    0.05281878658916147,
                    0.18230130376618975,
                    -0.8153953270354666,
                    1.0345064217380586,
                    1.6170753857481082,
                    2.0411704984242527,
                    -2.7982696158843945
                ],
                [
                    0.4242686093758413,
                    -0.029575837454459165,
                    -0.9872870124653763,
                    -0.5084529335825221,
                    -0.12237510701917413,
                    -1.5965797480116652,
                    -1.2436800056880328,
                    0.5062303719525048,
                    -0.1769155903263971,
                    -0.43274863496825333,
                    -1.8164614019054603,
                    -0.7814679301417199,
                    0.9112374873445466,
                    -0.4452763042896411,
                    0.13795813822270525,
                    1.4819977015533217,
                    -0.30582735630783814,
                    -0.3307732518212085,
                    0.8957131260014763,
                    1.5867174737294611,
                    -1.1547591350780932,
                    1.5030924362664935,
                    0.7231778093726617,
                    -0.93935169626447,
                    -2.5050262404274446,
                    -2.530237217679821,
                    0.48799232086811284,
                    1.0268992568255237,
                    -0.25868268880433687,
                    -0.39174868586882466
                ],
                [
                    0.17502268138723578,
                    1.676080560736984,
                    1.7856705060924982,
                    2.0115713614380017,
                    0.16030566703664326,
                    0.14046103454452186,
                    -0.1530210395462201,
                    0.07078852939711403,
                    -1.21287702576323,
                    -0.7444031685983346,
                    0.2653510336803694,
                    1.1182173376055413,
                    -0.312074009986513,
                    -1.3898443257401139,
                    -0.08198009944463017,
                    0.5385673768369574,
                    -0.1779461636093437,
                    0.19305799565188844,
                    -0.7135569157581204,
                    -1.8224483880556135,
                    -0.7216354385459801,
                    -2.2432582650270683,
                    0.01259875950553277,
                    -0.0038387366867588257,
                    -1.6176111691744581,
                    -0.3045417510208809,
                    -2.444090483704239,
                    1.2623877716555878,
                    -1.127107144235858,
                    -0.10725454412424154
                ],
                [
                    -0.03431727153919506,
                    1.681055406123274,
                    1.0340578562155527,
                    1.0596314686318118,
                    -2.2518075126851405,
                    1.4889494262376417,
                    -2.0615328932442707,
                    0.14311138533130535,
                    -1.2004963392400412,
                    0.5554298219296288,
                    0.5236933142358698,
                    -1.5505481803076429,
                    1.761371278623147,
                    -0.07430451975847269,
                    1.7225990344004265,
                    -0.7088029797269424,
                    0.5425153903906852,
                    0.27002176595407745,
                    1.3545787958286097,
                    3.0297312804130234,
                    -0.16008528236952657,
                    0.315490523709304,
                    -1.0564305689323545,
                    -1.8094315058745198,
                    -1.863386881970757,
                    1.296599410756236,
                    1.9700471345832251,
                    -1.1428886096357882,
                    0.5235289685725892,
                    -0.6192591487661427
                ],
                [
                    -0.6408800913490384,
                    0.5651639757491034,
                    0.15470454021490704,
                    1.8536495376820616,
                    1.4205634208664897,
                    -0.47746692015272224,
                    0.344090494047486,
                    1.8061845719925147,
                    -0.31399683328192346,
                    -0.09168419879211881,
                    0.6993067267184802,
                    -0.9518493971887657,
                    -2.0595474064786714,
                    1.1889049751285719,
                    -0.28719077414030286,
                    0.8120590063977138,
                    0.22804592904707105,
                    -0.484514635846954,
                    2.1466330468275014,
                    -1.410026536514413,
                    -0.16922597136039885,
                    1.419725643900014,
                    -0.8782445353830964,
                    -1.122980423608133,
                    -0.732057194046157,
                    1.3856489217703145,
                    -2.0036487973101385,
                    1.2086678122588952,
                    -0.8151395432191213,
                    1.1258112507279534
                ],
                [
                    1.110259155684432,
                    -1.5534243199462046,
                    1.27325538108407,
                    -0.7282469223754116,
                    -0.2516070818178259,
                    1.4313977941048197,
                    1.7028820613371145,
                    0.4943992130373445,
                    0.49094815568007016,
                    -0.9483335838985327,
                    -1.9441053826566395,
                    0.6810905404313337,
                    -1.7395952817860307,
                    -0.42886516059240737,
                    -0.636019200859597,
                    0.9287144936192173,
                    -0.550279753064988,
                    0.5306579088289134,
                    1.295743220497405,
                    -1.722877580906041,
                    -1.0530287025918939,
                    -0.8360449599722558,
                    -1.2755306486885927,
                    -0.05222149060962328,
                    0.19613504403992876,
                    2.3705062650954867,
                    -0.690874933794192,
                    -1.415102096705088,
                    -1.5729136674685142,
                    -2.2561662224254144
                ],
                [
                    2.0725701247969153,
                    -1.7593465044901617,
                    -0.7626903981455182,
                    -1.4324172474046863,
                    1.4933457031904531,
                    0.5043524488226547,
                    -0.28748357566878746,
                    1.5346399614345965,
                    -0.5259293974609646,
                    -0.8096907862529663,
                    0.7144679957838825,
                    -0.5192785640648995,
                    -0.15890600899956153,
                    0.04652781861353339,
                    -0.9247380072947169,
                    1.8999164287757058,
                    0.685553035377734,
                    0.7421626862287494,
                    1.1776461556892153,
                    -0.2966644568734014,
                    1.4162556480337918,
                    -0.6117602001963525,
                    1.0020658922131227,
                    -1.0920268090606604,
                    -0.40651415385025813,
                    1.4353705690325615,
                    1.5885498374952478,
                    0.8578200411679798,
                    0.34022339967328985,
                    -1.690983487071708
                ],
                [
                    0.37979021003953967,
                    1.1514279141860366,
                    -0.2370749909554423,
                    0.2809623844461356,
                    0.6777399654502378,
                    0.1932530445540228,
                    -0.4045842051730133,
                    -1.8138099949990696,
                    0.09814104417015238,
                    0.2490957875221762,
                    0.8638576796636687,
                    0.9444627343063523,
                    0.8908238359524245,
                    2.6161656537430242,
                    0.8370754797149031,
                    -1.2271736554681245,
                    -2.5763595085116697,
                    0.9494820357458317,
                    -1.269263745642175,
                    1.4460742584595783,
                    -0.8986917748604695,
                    -1.0975906375698832,
                    -0.26696608037881814,
                    0.2876311714054214,
                    0.7062403124625346,
                    1.4979198831671727,
                    1.9030727311132893,
                    0.3111749503719511,
                    -1.6753361475683195,
                    1.0644435107885561
                ],
                [
                    0.007783495458163037,
                    0.4535638815131697,
                    -0.6387919822179817,
                    -0.9096691905815262,
                    0.5842405939708657,
                    0.458518701194338,
                    1.295214759586527,
                    0.656248334882966,
                    1.2457895230024914,
                    -2.9108282254043454,
                    -1.4756996542399592,
                    2.0681385800649643,
                    0.32661577345853293,
                    -0.7460460383878575,
                    1.358730419259404,
                    1.1522403860998456,
                    -1.3598715457379162,
                    0.4358111241551291,
                    -0.723979160109456,
                    1.1861244653160847,
                    -1.163805820055208,
                    -0.2306687899040833,
                    1.013172333564025,
                    -0.2146960354037975,
                    -1.2095512257487684,
                    0.2347319450377771,
                    0.8795211493760735,
                    -0.12438579967518125,
                    -0.4449648809310081,
                    -1.4944958118409815
                ],
                [
                    1.5010831486203293,
                    -0.8469738874155568,
                    1.1363317672872104,
                    -1.479427509647165,
                    0.6144533277731773,
                    -0.3985277685126973,
                    0.49654572915466555,
                    -0.38830742600525425,
                    0.4725919736520977,
                    -1.0796871558476273,
                    0.4953539540606324,
                    0.9505715548740643,
                    -0.05244241170942974,
                    0.5820191794117753,
                    -1.2920880010863545,
                    -0.0031020807291423924,
                    1.120018858552257,
                    1.27709009168389,
                    -1.2690529427924206,
                    0.5537007800736609,
                    -0.021234657525076264,
                    -1.142008918142265,
                    -0.09357090134104351,
                    -0.9821740216137791,
                    -1.0118113122392633,
                    0.7307759035352706,
                    -0.654697217992549,
                    -0.2396209491131911,
                    0.15400887908340788,
                    -1.5676552799851728
                ],
                [
                    0.420382569831602,
                    0.11997242322880303,
                    -1.5153903914778812,
                    0.14405271547003512,
                    -0.21402119682363777,
                    -0.9828432137229697,
                    -0.742537145501106,
                    0.7831061504022088,
                    -0.322611777656692,
                    1.018934849023795,
                    1.4228763459784084,
                    -0.05155767949453599,
                    -0.5011467068039369,
                    -3.01280134130917,
                    -0.6171357880128524,
                    1.4863854394130145,
                    1.0750294351393699,
                    0.3196522890777061,
                    0.5078065578278211,
                    -0.43897999384904113,
                    -1.4891529443992826,
                    1.506390237937948,
                    1.2476785769658338,
                    -1.5824297540301768,
                    -0.25081829606110984,
                    -0.5569466316735989,
                    -0.07161860023722169,
                    1.2359182037776426,
                    1.602027766836785,
                    -0.9680994811165696
                ],
                [
                    0.1523483016108897,
                    -0.8554956931180593,
                    0.2994174179794253,
                    0.15712472859462323,
                    -0.32235114568590295,
                    0.6229372482607227,
                    -0.48610676156728894,
                    0.11437476667487285,
                    0.7574395027313174,
                    -1.7683980561636399,
                    0.8193941523394397,
                    -0.9115652915069506,
                    1.335446511508222,
                    -0.5245678418062285,
                    -0.2652966246210188,
                    0.3972127708394232,
                    2.1365708225283484,
                    -0.7779169875937078,
                    1.3062678971419106,
                    -0.21688101933805776,
                    -0.2954102745639998,
                    1.6117319733823112,
                    -0.20538693570999422,
                    0.08339194335966055,
                    0.37444973209087307,
                    0.771647425814565,
                    1.7566113121193334,
                    -0.5381240259979702,
                    -0.7505803247507389,
                    1.117836976029707
                ],
                [
                    -0.5969224642145123,
                    -0.38590360361848874,
                    1.3241399051925782,
                    0.8817190554110006,
                    -0.4562762577684508,
                    0.020133760806682513,
                    1.8765574160284428,
                    0.39960414598414573,
                    0.33253127060440807,
                    0.34969189426896363,
                    1.325584477193511,
                    -0.1817079019367076,
                    -0.16719600045838373,
                    -1.3929224038603951,
                    -2.49231530383262,
                    0.025231382978548322,
                    1.1014123694407172,
                    -1.2369629155433206,
                    -0.3713408942333166,
                    0.8608673475723236,
                    0.6029081362916853,
                    0.5631991100239092,
                    2.2494345282633157,
                    -0.16203597421426222,
                    -0.09288518214852494,
                    -0.706090560301786,
                    -0.5807878593264022,
                    -1.6468356420672174,
                    -0.24288065475047693,
                    -1.4538993245610137
                ],
                [
                    -1.6614064251781648,
                    0.09402065786236666,
                    -0.5083681144774427,
                    -1.6192217316919102,
                    0.5292237758705858,
                    0.7437178035677239,
                    -1.1862216336728888,
                    -0.853422396560791,
                    -1.0546738617107898,
                    -0.4660378594822899,
                    -0.7347445498032725,
                    0.8430626905815186,
                    1.3474183112439466,
                    0.2942580338137776,
                    0.5562670786356175,
                    -0.9750031857136751,
                    -0.13922269192030864,
                    -0.34155987823174006,
                    -0.46027913002459375,
                    0.07159581967508385,
                    0.8929135180415624,
                    0.3489450697080011,
                    0.5773549851978004,
                    -0.04067457040810307,
                    0.7928251453598847,
                    -0.34710695016134996,
                    -0.42003478400701033,
                    -0.3787736089752322,
                    -1.2596083061938725,
                    -1.4997998558170378
                ],
                [
                    -0.7826155624473472,
                    -0.8297466106415834,
                    -0.09319413599585646,
                    0.599010420849622,
                    0.7487101023660898,
                    0.11041169976741899,
                    -0.8555221946992835,
                    0.5061359577111708,
                    1.2168812904551234,
                    0.19142701169942908,
                    0.024454624808402214,
                    0.07113358533047179,
                    0.4907997871901154,
                    -0.22237648384246111,
                    -0.6787356262404443,
                    -2.9255079477846224,
                    0.6269312786343231,
                    2.402555490135383,
                    -0.8801809126083889,
                    -0.8381508392712327,
                    -1.187470298426276,
                    -0.7301198555359821,
                    0.9153474286253902,
                    -0.4799354033005453,
                    0.8194939139009063,
                    1.1155591065849964,
                    -0.5694848349734629,
                    -0.29560870392541977,
                    1.2473686752596367,
                    -1.2536602385760878
                ],
                [
                    0.7900218297251488,
                    -1.4223448180627019,
                    -0.6918249577861768,
                    -2.1696564757592838,
                    -1.049699859398725,
                    1.1440939779306696,
                    -0.1865204963903626,
                    1.0559322256536587,
                    1.2772378728632545,
                    1.0761668753562559,
                    0.4643742512377693,
                    1.4225380700031671,
                    0.29638243249958907,
                    2.307209165555149,
                    1.231468871777598,
                    -0.07530680560750218,
                    1.052051711930561,
                    0.3608989468978952,
                    -0.28867031446154623,
                    0.47532582484090746,
                    0.3215434911044075,
                    -1.493313559024175,
                    1.447573899277338,
                    -0.7196630619065988,
                    -0.7797596409739588,
                    -0.7985564872168853,
                    0.696714477926681,
                    -0.905898459762003,
                    1.658741879644251,
                    1.6338255997780116
                ],
                [
                    0.7184997430768616,
                    -0.09043861803657433,
                    -0.04367653574579877,
                    0.3127237115880256,
                    -0.21394314244169954,
                    0.0005136520779345788,
                    0.07675183709477588,
                    0.986946117726568,
                    -2.265624414800002,
                    2.2082440753524804,
                    -0.4014455215959035,
                    -1.5450524996317632,
                    1.4100986446643502,
                    -0.4966455946068902,
                    -0.11795803642334596,
                    0.30156638927041934,
                    0.8850873875760061,
                    0.29677677222697285,
                    -0.3092341673687601,
                    -0.5155382561390678,
                    0.5178917233796548,
                    1.2396973853255364,
                    -0.5359636394482415,
                    0.6760971202962267,
                    -0.3192834396263042,
                    -0.19899844433672437,
                    -0.50175382595535,
                    1.5126582366648977,
                    -0.962108239404966,
                    0.47254239826955674
                ],
                [
                    0.4205078717679913,
                    2.2811959474353922,
                    0.3515527987204139,
                    -2.649894236269652,
                    -0.580086789041974,
                    -0.3851226851158784,
                    0.8174758019335105,
                    -1.4687988518516537,
                    -0.5941584828277912,
                    0.5602388686192792,
                    0.45018442231411304,
                    -0.36465534613446693,
                    0.8401556339935711,
                    -0.3634153806633818,
                    0.33241366525291044,
                    -0.4616881716237855,
                    -1.1153318950352358,
                    0.14401176227318815,
                    -1.0988591802238232,
                    -0.5484669989497841,
                    0.6462606701090386,
                    -1.670436277868829,
                    1.1043960692615429,
                    0.09291478684414906,
                    0.774197068925508,
                    0.26901071114539254,
                    1.885989648851387,
                    0.42698132511066406,
                    0.6333119141968498,
                    -0.16364733220729363
                ],
                [
                    0.08304501396830319,
                    0.5112881241834293,
                    -1.7219950989330048,
                    -0.40950345153943757,
                    2.5407751144633024,
                    -0.8394301228550614,
                    -0.016389662364283603,
                    -0.8026973749308839,
                    3.529246853693718,
                    -0.31263035825068586,
                    -0.4042073304304319,
                    -2.055118610933189,
                    2.376884450112863,
                    -0.817744460666448,
                    0.4392018815676164,
                    0.3185594638495022,
                    0.31717128598066213,
                    1.8051315696277024,
                    -0.5564343892950512,
                    1.185514775653916,
                    -0.14758049541613957,
                    -1.2692872485635034,
                    -0.23172164091443806,
                    -1.2098273998705653,
                    -0.27819184258890806,
                    -0.8859967608889944,
                    -0.5446293597568619,
                    0.7117550879234465,
                    0.3514300010111681,
                    0.5887104086289966
                ],
                [
                    -1.2660024296602133,
                    0.22809530452371274,
                    -0.5755771040306376,
                    2.151791290764414,
                    -1.7064919488840515,
                    -1.3107666105353557,
                    -0.6694837212359726,
                    -0.15802515069648243,
                    -0.11019511861351905,
                    -0.17202371272199296,
                    0.42489207067861734,
                    0.4421837855589441,
                    -0.10649560610496414,
                    0.12832082829191743,
                    -0.6116643577088786,
                    -0.4992348368063105,
                    0.24238562776678857,
                    0.09844991579766017,
                    -1.5269762667835411,
                    -0.8929744980976634,
                    -1.5804968188563349,
                    -1.5416502522018345,
                    -0.19047089975855866,
                    -1.4789085271362443,
                    1.0991853070092577,
                    1.336207642135102,
                    0.16866307646710504,
                    0.15816441274524085,
                    -0.3459556366158757,
                    -0.47058341522780456
                ],
                [
                    -0.2942386143265922,
                    1.4690376504222686,
                    2.0911283702159054,
                    -0.284149819172286,
                    1.4760029290707082,
                    0.8845914328782849,
                    -0.2598584123113541,
                    0.6423406381329837,
                    1.8034851161752794,
                    2.9145991445242383,
                    2.3057571365776055,
                    0.046715559618474484,
                    -2.7794843301918237,
                    0.13910666966739393,
                    -0.357393260455014,
                    -1.603387281029128,
                    1.9198087038543434,
                    -0.32729050820866545,
                    -0.30049775711819715,
                    0.4141795235311029,
                    -0.12614739654364365,
                    0.01941114626130372,
                    1.729736554278531,
                    -0.5154607363079367,
                    0.6189539675494513,
                    -0.33464455491078504,
                    -1.0442030134316225,
                    0.5760212318890781,
                    -1.4959969906221025,
                    0.25496816322681565
                ],
                [
                    0.6280491806368409,
                    1.5565144370657344,
                    0.8662229624758919,
                    -0.4189984724653827,
                    -0.39253545050459615,
                    0.015238688982332632,
                    -0.8994639856202336,
                    -0.025997005862748834,
                    -1.6627969181758249,
                    -0.09232077288446039,
                    -1.7964765638208402,
                    1.1299710896652724,
                    0.4604505858442014,
                    -0.8676301825925183,
                    -1.5887645985629715,
                    0.4624264381890154,
                    -0.6556051378540322,
                    -0.6426934466745653,
                    0.5913212299801498,
                    -0.46493247340339794,
                    2.4039196311927022,
                    -0.07059237985870837,
                    0.22734242469396818,
                    -0.5986511266033113,
                    -0.6508181909547202,
                    -1.286009627167749,
                    1.0421595622055952,
                    -1.4857243958942326,
                    -2.8825016698590216,
                    -0.20157770545062112
                ],
                [
                    1.4949239117820647,
                    -0.044337609373492126,
                    -1.504463686165175,
                    -2.6163776587656358,
                    -1.6420905329071709,
                    0.1857249284602815,
                    -0.9088922388456273,
                    1.2448380302353825,
                    0.6278599133032489,
                    1.0535338480947394,
                    0.3855700771912092,
                    1.4147894787037818,
                    0.1444973784681634,
                    1.518009917731032,
                    -0.5970265336027332,
                    -0.23216535705009927,
                    -0.8436909786602709,
                    0.9337774721735025,
                    -0.7605146595329191,
                    1.2776670880795284,
                    -0.13130681243616324,
                    -0.6884026442961493,
                    -0.05400409418651286,
                    -0.6521144299556105,
                    -1.5090480890348792,
                    1.8533080088117309,
                    -0.32865458070586107,
                    -0.1573207893647493,
                    -0.584528568607138,
                    1.0829923392029392
                ],
                [
                    0.30258805779502085,
                    -0.9077226765930665,
                    0.3612321361348216,
                    0.2839270354310398,
                    0.17557501372368284,
                    0.6980355776538626,
                    0.05753196971685455,
                    0.28323077364732785,
                    -1.032861850511704,
                    -0.4958732286249403,
                    1.8675693382908525,
                    0.32965371845150965,
                    -0.6000044723456683,
                    -0.5119933187969203,
                    -0.687602308060373,
                    -0.10136064446094917,
                    -0.011442574303915667,
                    -1.3152555860888682,
                    0.7442708853045543,
                    -1.1017725903820275,
                    -1.1856815873038262,
                    -0.005229239430829244,
                    -1.3459127223121796,
                    -0.8259678405588603,
                    1.4398832266653216,
                    -0.6764017190669772,
                    -0.36871934293841935,
                    0.14944045918478602,
                    -0.6212641667204537,
                    1.5922912570019876
                ],
                [
                    -0.3234962885861081,
                    -0.7022532446390721,
                    0.9328398865072243,
                    0.3167578438372032,
                    1.2976198087701998,
                    0.34359085966867864,
                    1.7262331874789358,
                    0.20558317612833665,
                    0.9708508744915666,
                    -1.3847389851599312,
                    -0.700923485295245,
                    0.25486308751112585,
                    1.4972717704781542,
                    -0.23832817253904529,
                    -1.7733346329376487,
                    -0.7808743712107469,
                    1.1726093311087835,
                    1.021013007899675,
                    0.1270441693265002,
                    -0.13195810815294368,
                    -1.617522612961257,
                    -0.8008610590855455,
                    0.6598934118717871,
                    0.8339705523457572,
                    -0.03682019853826725,
                    -1.8600603922529961,
                    -2.6505738629877507,
                    -0.25197154197026095,
                    1.2768850523167314,
                    1.9747831659536215
                ],
                [
                    1.4057691488988227,
                    -1.8019265624445007,
                    1.0792089954844282,
                    0.6361924860320125,
                    -1.1202544853730871,
                    -0.0257350160545311,
                    -0.5298368167278311,
                    -0.2792597486765999,
                    1.883137664914957,
                    0.6951855151584005,
                    0.4783104016020381,
                    0.07358448513516319,
                    0.6220417374895646,
                    -0.6741140594233623,
                    0.007627456152689782,
                    -0.058017913142923566,
                    0.7904837676539669,
                    -0.024428008983372468,
                    1.0149447427882963,
                    -1.9529577763230475,
                    0.30665070323173643,
                    -0.4555669420092485,
                    3.2618916948012875,
                    -1.3027339385157903,
                    2.2127215877803255,
                    0.1683134904902635,
                    -0.23651307197913363,
                    -0.6325447030482771,
                    -2.2077164211210745,
                    0.19159294090657547
                ],
                [
                    1.3089151711540616,
                    -0.972941034874857,
                    0.6547404310213107,
                    0.46808670627403165,
                    1.6619083215810542,
                    -0.7995348638521423,
                    -0.2246344168765963,
                    0.3203585574875933,
                    -0.8994215467839014,
                    0.15199946746736465,
                    -0.2074944997535506,
                    1.171978960146265,
                    0.5526362611995432,
                    -0.9698054530772489,
                    0.3564541360338421,
                    -0.13822921355260268,
                    -1.4975851563772404,
                    -0.3060169545429525,
                    0.27383392787350863,
                    0.6751686141176559,
                    -0.8727031582515282,
                    0.2724793446153979,
                    -0.0724019720843812,
                    -0.42627460573893905,
                    0.965778700798512,
                    -0.17772103338742457,
                    -1.796380310076457,
                    -0.16751987177881628,
                    -1.2375360234894874,
                    0.44357390199466407
                ],
                [
                    -1.218372502839366,
                    0.24922834132367006,
                    -0.6052940057321377,
                    0.016832605785828125,
                    1.6271527412048903,
                    -0.10025040374108944,
                    -0.857281150869601,
                    -0.19069083090695246,
                    -1.2890764647496822,
                    -0.7801335148701268,
                    0.6888727342847961,
                    -2.511642781300618,
                    -0.9457634808160078,
                    0.060288643499119665,
                    -1.8595962794979832,
                    -1.1218769746382236,
                    1.3578205877789193,
                    -0.038486763884446884,
                    -1.6232313726090284,
                    -0.20993611686183702,
                    2.0364351856935166,
                    -0.5965676630870431,
                    0.057743478501742176,
                    0.07290220890468557,
                    1.250099090578939,
                    -1.8948637723987096,
                    -0.3521862896068506,
                    -2.0988513420380737,
                    1.5249801180468436,
                    0.9631530947206176
                ],
                [
                    1.256714827464738,
                    -0.8825752934660027,
                    0.5861719328485189,
                    -0.279630101586131,
                    -0.984174845668109,
                    -0.16244262153362132,
                    -0.6940437362843419,
                    -0.4736627734758465,
                    0.15905460552575368,
                    -0.3916749432213555,
                    0.08049936885857832,
                    0.44296934284057615,
                    2.6848428439222154,
                    0.38501219365582984,
                    -0.5672343284874001,
                    0.7258894254364454,
                    -0.15235133394193093,
                    -2.6096579218089047,
                    -4.5966197900740156,
                    1.7188069602895268,
                    -0.9787972706272124,
                    0.19375386343468254,
                    -0.07347326735811886,
                    -0.4353795503829079,
                    -0.37509750881322534,
                    -1.2869049976803906,
                    1.0218163117721017,
                    0.978669828542615,
                    1.293148029749185,
                    -1.9948053006248567
                ],
                [
                    0.27874282718908117,
                    0.48008962878137335,
                    1.6211406910763297,
                    -0.860090479487772,
                    -1.3213079354069912,
                    -0.8121868451374039,
                    -0.6675583584568427,
                    1.0958858871260104,
                    -0.895657806052122,
                    2.176953734575245,
                    1.1261100743015902,
                    -1.3114689716439025,
                    0.465333420771652,
                    1.3104545066680091,
                    -0.7503193766426257,
                    -1.4063439289796174,
                    1.5760767408744858,
                    1.0602188966614186,
                    0.5418445450595891,
                    -0.13495683666782632,
                    -1.233258135555732,
                    -0.962014337295628,
                    -0.5431867951999598,
                    -1.1579697751630167,
                    1.3372772828179755,
                    -0.3113016729277977,
                    1.1060812453047468,
                    0.23420879658936783,
                    0.5387894168555589,
                    1.6488738704649428
                ],
                [
                    -1.371646377309367,
                    -1.247942071268541,
                    0.4667663211595766,
                    0.40123066108475336,
                    0.41850504356694695,
                    -0.1326364169084423,
                    1.1029788842592476,
                    -1.6386118402487677,
                    -2.3591917419390835,
                    1.5639226177790668,
                    0.9828507175144394,
                    -1.3743839046499675,
                    1.195599731845319,
                    -0.7429562469040898,
                    1.1408101123647785,
                    1.2289785585445523,
                    0.4734751051778426,
                    -1.3330438307669346,
                    -0.7730997815835768,
                    -1.6143295330302303,
                    -0.6915236792974394,
                    -1.1736250813597016,
                    -1.7570275793214258,
                    0.025512477054381873,
                    -0.22684406775621327,
                    1.4856991326444648,
                    -0.7683826600063965,
                    1.5910116098959848,
                    -1.6542869569891938,
                    1.540114086461131
                ],
                [
                    1.046744455180601,
                    -0.7266218872362381,
                    0.5129161875237636,
                    -1.0250500066950883,
                    0.49390984244013103,
                    -0.061265855246272954,
                    -1.913630151854797,
                    -2.162520141169292,
                    -0.9393689709764809,
                    0.39932277362566865,
                    -0.03445078143565039,
                    -1.26700495138809,
                    -2.3406284963414494,
                    0.9357092438203125,
                    -1.5852447986744262,
                    2.386486404133496,
                    -0.8525083390327562,
                    -0.480487331970029,
                    -0.4194293074569829,
                    0.6082448700190971,
                    0.6250027990398874,
                    -0.5463980665245731,
                    0.6925862884381506,
                    0.019120072678814604,
                    0.7753907499746435,
                    -0.9769865399537646,
                    0.8132872575749681,
                    1.1447757006373873,
                    0.3303215571735546,
                    1.1117207815964494
                ],
                [
                    -0.4606976505456008,
                    -0.6809567091227171,
                    -0.5100290125637104,
                    0.05637236281406621,
                    -0.8719170914359676,
                    -1.0071295389366277,
                    0.5736628922664542,
                    0.20135830536013086,
                    2.848322111732977,
                    -0.47348330361029956,
                    -0.024086420017116236,
                    -0.538062868551007,
                    -1.5989444535870667,
                    0.2940518038506782,
                    -0.6557028756863246,
                    1.5092874374712257,
                    1.1136099276114166,
                    0.573198898462761,
                    -2.262274859202494,
                    -1.0834665069132894,
                    -1.6562505266425591,
                    1.3100471665076672,
                    0.26290255455489864,
                    0.3444098164875675,
                    -2.3848864730140633,
                    -0.3740386134458879,
                    0.09958748901488307,
                    -1.4689262864666128,
                    1.8004813382140856,
                    0.8260906418668356
                ],
                [
                    -1.1638785348296092,
                    -1.397227446051798,
                    0.7347428307227283,
                    -0.14016743523617176,
                    -1.8077145360794922,
                    -1.8894117987123227,
                    -0.7572197087076558,
                    -1.6852902513314776,
                    -0.7124977913233019,
                    0.1568627995936943,
                    0.1826922366733716,
                    -0.5328067633424729,
                    -0.34931002387157395,
                    1.6951751360959906,
                    -0.1684920761899311,
                    2.127424797932255,
                    0.31433085703732805,
                    1.864434941183984,
                    0.4398499582339017,
                    0.09251713770087666,
                    1.1868807200096847,
                    0.6036026358165831,
                    -2.3149358101627424,
                    0.3078472569073173,
                    -1.1979323498205297,
                    0.6815586436763915,
                    -0.7591207859812376,
                    -1.1058644032206602,
                    -1.0704790647456268,
                    -0.15357798694162095
                ],
                [
                    -0.8228275844781274,
                    0.5508620770051754,
                    -0.9841108251155566,
                    0.34756798724105603,
                    -1.9540408833373115,
                    0.712262461780399,
                    -0.16481613942459722,
                    0.2687785099268468,
                    1.9069135608845202,
                    0.27588053921021294,
                    -1.8277462901964934,
                    -1.382260557337045,
                    0.05735544422042167,
                    0.9806159135885902,
                    -0.5256517042007179,
                    -0.04844224251890865,
                    -0.2886676287843928,
                    -0.9113826494618503,
                    2.029315938214471,
                    -1.0185630338972231,
                    0.41482266469580226,
                    -1.3582998366712247,
                    -1.547606826048052,
                    -0.50855553448651,
                    0.7097009663747775,
                    -0.6816179636010878,
                    0.45779981544654513,
                    -0.0861969847259253,
                    0.5348605388166174,
                    -0.386200091865049
                ],
                [
                    1.5674025594398708,
                    0.364629088030549,
                    -1.1060654235042608,
                    -1.2678991276976748,
                    0.34699415013961765,
                    1.724356049646203,
                    -2.127567530204776,
                    -0.6886658903196964,
                    0.37375545292233514,
                    -1.0518802982883129,
                    0.7159504344949889,
                    -1.0881586405159027,
                    -1.448302963632946,
                    -1.4208926468337073,
                    -0.24605499149271998,
                    0.13942262058628108,
                    0.626729830478088,
                    1.119199575686269,
                    1.5779563363292706,
                    0.4303285903558439,
                    1.210687265774229,
                    -0.3353942446087155,
                    -0.2518227378380745,
                    -1.135937563326127,
                    -0.4881894748245662,
                    1.3005092519707395,
                    0.17729931220144662,
                    2.251589070121193,
                    -1.2155550478336887,
                    2.9616421162473383
                ],
                [
                    0.17046457169047738,
                    0.1727232189232078,
                    -0.42585799389850787,
                    -0.42523803756998924,
                    0.032723434772607,
                    1.2974143257520228,
                    0.8593327895763243,
                    -2.9336942520499933,
                    -0.6218797338212224,
                    -0.2944753238409217,
                    -0.6897549463311415,
                    -1.7813614595283969,
                    0.223993228901484,
                    1.3256168552588707,
                    0.042264752089857166,
                    0.8441007743884233,
                    -0.05066851678114159,
                    -0.8440116039708662,
                    1.3784998044735428,
                    -2.316052666354039,
                    0.4731410896337334,
                    -0.10083741267720497,
                    -1.5397242122118107,
                    0.8682626000523977,
                    -1.258432672314549,
                    -1.4132163981125914,
                    -1.0259293497503152,
                    -2.214656162714211,
                    -1.5935634279795912,
                    0.651156005498952
                ],
                [
                    1.0702162555058767,
                    0.16221841375813478,
                    -0.31614011554951704,
                    1.1636748408384237,
                    -0.33149922144128935,
                    -0.7217869249591984,
                    1.080155353365257,
                    -0.647858239030794,
                    -2.4528318737294352,
                    -0.9058221256785612,
                    0.5139509473290859,
                    1.327989572722093,
                    -0.6404254461861101,
                    -0.9441646567777054,
                    -0.41290700781981604,
                    -0.3022540320934526,
                    1.5221040596308695,
                    2.0175456322974696,
                    1.4509910299762931,
                    -1.8431753161026707,
                    0.6984475594642805,
                    1.6043245503366983,
                    1.0452231224829793,
                    -1.6035406007786837,
                    0.6370900653171674,
                    1.0278745491303596,
                    0.6117324452407282,
                    -1.1845912689948503,
                    -0.2380645954351246,
                    -0.3416816475443025
                ],
                [
                    -0.7735511279215536,
                    -1.062202075063685,
                    -0.7226212477625861,
                    -0.11650421248448836,
                    2.1106715014896453,
                    0.06535498676698727,
                    0.607592832863301,
                    0.662355200273061,
                    -0.4463374345425315,
                    -2.081925239339798,
                    -0.16090571860826985,
                    -0.454208086664129,
                    -0.20888653257765377,
                    0.6279616659845477,
                    -0.46349681058680947,
                    0.8149077962088227,
                    -1.7434878685789157,
                    -0.26536058219962855,
                    -1.0979012556492684,
                    0.4042801375704588,
                    0.9209423397972509,
                    2.1950590347669743,
                    -0.3116949959678075,
                    0.09212732973850032,
                    0.08013952871597685,
                    -0.5235960128935735,
                    0.006898705416819362,
                    0.2653700667208473,
                    -0.2488034428538796,
                    -1.9910685129392267
                ],
                [
                    -1.9319033535207213,
                    -0.6884261573120056,
                    0.2925963727185101,
                    1.4886816942400545,
                    -0.050464254008051546,
                    0.2736744813978865,
                    0.2754531315234222,
                    -0.7022735091922991,
                    -0.16236788178116046,
                    2.255620951266223,
                    1.4237118524851151,
                    1.4877710924711198,
                    -0.16650960359044864,
                    -0.4767156874836702,
                    -1.1753114030378267,
                    0.031731482868003286,
                    0.34393414325200294,
                    -1.2500735457691632,
                    -0.12925186029815272,
                    0.4914094476865292,
                    -0.8278849746401487,
                    0.7749546499933126,
                    -1.121189330368031,
                    -2.3990443389865512,
                    -0.6316518501983458,
                    -1.3919076293038983,
                    1.022397964473841,
                    0.6604911602903722,
                    -0.36533212707373214,
                    0.8354947851055377
                ],
                [
                    -1.3822641221776388,
                    -0.6495077089697885,
                    -0.17086545494799277,
                    -0.15024788387459037,
                    0.030880690492304047,
                    -0.6090368950659895,
                    0.8895867314350988,
                    -0.8056076475964064,
                    -0.5513190851823802,
                    -1.045317399763186,
                    0.17301728784820344,
                    0.33585745012797796,
                    0.061937161480703856,
                    0.3315005838288084,
                    -1.3470255641985711,
                    0.7644738077878271,
                    0.3587583205438777,
                    0.6915218327483611,
                    0.25338190111889974,
                    -1.7530781303796052,
                    -0.8270982032750026,
                    0.3988294473969113,
                    2.497052164407211,
                    0.3413683345212522,
                    -1.7765307013362694,
                    1.37394467798083,
                    0.5119174565216315,
                    1.0060420326443609,
                    0.4151795802208348,
                    -0.35580536879444474
                ],
                [
                    -1.0825475936229803,
                    0.8646849873490208,
                    0.2880041153206362,
                    -0.4518014126048116,
                    0.7776370187951833,
                    -1.4487876380465363,
                    0.41320207603160386,
                    1.740452500002009,
                    -0.9942171441381807,
                    -1.0392228466668787,
                    0.577573101622833,
                    -0.666498780365411,
                    0.27603350013971356,
                    -0.5976009053642428,
                    0.22735964067297337,
                    1.25352962427658,
                    0.36080302268732045,
                    1.4799331628190342,
                    -0.9573439202878262,
                    -0.46366591773347876,
                    0.5832846110020398,
                    -2.0436857790586673,
                    -0.7717156262345183,
                    0.3604132191107456,
                    -0.6245276123375229,
                    -0.9746070608314296,
                    1.7360997322670613,
                    0.7570062872034855,
                    -0.37095316021249947,
                    0.4855718678440262
                ],
                [
                    -1.5512758862642086,
                    -0.8709077993332681,
                    -0.7240867264286219,
                    0.26468190131401986,
                    0.7438183636797868,
                    -0.6484471139043411,
                    -0.6030786502174393,
                    0.09764047673566359,
                    0.7831900968437349,
                    -0.8049381748052373,
                    -1.71926375690885,
                    -0.31101478698171575,
                    -1.6393154083808814,
                    1.1876796563061536,
                    0.9167359917576305,
                    0.2017290744071157,
                    -0.42237460139915756,
                    -0.49561989045133914,
                    0.1904365581521452,
                    -1.4442252415216634,
                    -0.7130525520693742,
                    0.3945308821102367,
                    -1.2768250525788594,
                    -0.2522138874550828,
                    -0.8337115594239708,
                    0.8715725305753227,
                    -0.19990807025981408,
                    -1.7210811548458018,
                    -1.3437035951443592,
                    0.05587119430823462
                ]
            ],
            "function": "sigmoid"
        },
        {
            "input_size": 30,
            "output_size": 8,
            "weights": [
                [
                    1.5542062720605743,
                    0.7279753755232793,
                    -0.668928224136963,
                    0.017793308656619794,
                    -1.2574849943841708,
                    -0.6266035532329771,
                    -2.745379082120359,
                    2.03172863549932
                ],
                [
                    1.3735491836986873,
                    -0.05996664400308649,
                    -0.08475282199512135,
                    2.177033524452888,
                    1.0124150796732738,
                    1.070453307462139,
                    0.6015315443494087,
                    -1.5527810868745417
                ],
                [
                    2.0944368893531715,
                    0.12553929987196083,
                    -1.3512640051734979,
                    1.4536847619059734,
                    1.0949491512351748,
                    1.4075429887699145,
                    1.14134241006048,
                    0.49229939536100453
                ],
                [
                    0.9300924784798761,
                    2.380049642390653,
                    -1.2405276959339573,
                    2.5610288978116524,
                    1.4888919773005418,
                    -0.6676483389943793,
                    0.40387521359692746,
                    -0.4771120764406744
                ],
                [
                    1.7636878106612097,
                    0.935321194023675,
                    0.6836013137730784,
                    0.048703220500415534,
                    0.4020163211446361,
                    1.1492371909331818,
                    -1.1982755929748443,
                    -1.4120480330831362
                ],
                [
                    0.9667201628998818,
                    -1.3880808406557614,
                    -1.4616541419190179,
                    0.7265300289995908,
                    -1.8610503049837914,
                    -0.157569869221017,
                    -0.0667934168766203,
                    -0.24268000510206833
                ],
                [
                    -0.15705080643420416,
                    0.20128343150331793,
                    -0.7970842208420538,
                    1.6037614486722165,
                    0.8099791728486458,
                    1.08807165266805,
                    -0.09476441873645869,
                    2.0791785457451253
                ],
                [
                    0.6631929587725447,
                    1.8955996089772837,
                    0.5859934263299086,
                    2.1772906367526024,
                    0.8464141959633549,
                    -0.39560686767023445,
                    0.9942906086678449,
                    2.281938339360951
                ],
                [
                    1.2138289084382956,
                    0.4665372043569205,
                    -1.2369116996247114,
                    -0.8516680480642964,
                    2.0005599362447946,
                    1.7876169959928487,
                    0.834490563733753,
                    1.4341111482248277
                ],
                [
                    -0.7726276769613026,
                    0.4597599756894994,
                    -0.34889632100771945,
                    2.1356527919892603,
                    0.2750685312124638,
                    -1.8773238544263788,
                    0.20288731775772967,
                    0.7662108450238051
                ],
                [
                    1.0272521172937465,
                    -0.2294388819063916,
                    0.06335753897989156,
                    -2.737224652942794,
                    3.3165430494998076,
                    0.7386710220241424,
                    -0.5125433277445375,
                    2.1746348138457643
                ],
                [
                    1.1203780912562056,
                    1.1986181114840817,
                    -0.9345870468833961,
                    -1.9422812007481434,
                    -0.17555966572852014,
                    0.48072796331410667,
                    1.5216580781494078,
                    0.4605741106304071
                ],
                [
                    -0.020638362713046657,
                    0.004280668849056833,
                    -0.6909792126067799,
                    0.22948789254479923,
                    -0.8953291653022566,
                    0.21004177864434187,
                    1.1096953118330568,
                    -0.620308259800371
                ],
                [
                    0.19388298882764188,
                    0.6057244402535937,
                    -1.8609950603937861,
                    0.1947543891438909,
                    1.7965612553447747,
                    1.7898147355902942,
                    -0.22330067956401156,
                    1.3412180217293386
                ],
                [
                    0.7439923438338236,
                    0.9322075073900215,
                    1.4222789547046082,
                    0.6775524475078732,
                    -0.011918095009650631,
                    1.137696655239782,
                    -0.5580304977828856,
                    -1.393604544384404
                ],
                [
                    1.1549881566800577,
                    -1.3548936941955287,
                    -1.4961522258318387,
                    -2.234213874449828,
                    0.6354590868505694,
                    0.8459365099388458,
                    -0.4009218932546351,
                    0.10988537106402974
                ],
                [
