{
    "name": "SelfAdaptiveBrain",
    "mutation_rate": 0.026804664427734284,
    "layers": [
        {
            "input_size": 15,
            "output_size": 50,
            "weights": [
                [
                    1.7183887932701507,
                    -2.216245204426782,
                    1.8008387505077463,
                    0.7245856098287974,
                    -2.29353964393431,
                    0.09160883952768811,
                    -1.5465750653072687,
                    -1.4795059164660012,
                    -1.3440552229806828,
                    0.5435479838389197,
                    -0.1879889228509155,
                    0.819192446886443,
                    -0.5734788664583895,
                    -0.19024485881792705,
                    -0.5683838131910429,
                    0.7572711426571689,
                    0.0039117679452281544,
                    -0.8703348082863926,
                    0.8825452075940706,
                    -1.2471018936312048,
                    1.2274683828060367,
                    -0.9183811069268496,
                    1.669877159472989,
                    0.683891898229378,
                    -0.6671320517132076,
                    1.2623015415157646,
                    -0.9888612165096601,
                    -0.5106358474485971,
                    0.72314846316452,
                    -0.55244852899128,
                    0.6857238206635453,
                    -1.6712597691230315,
                    0.11883049483232488,
                    -0.5155998619523822,
                    -1.8596989162911826,
                    1.1762518964286437,
                    0.8338793369975864,
                    0.5129657055302024,
                    -0.6842422955225134,
                    -0.14611481715509755,
                    2.443857609367513,
                    -0.9219712791905561,
                    -0.3582367007386312,
                    -0.3279866462362506,
                    2.5661538459026474,
                    -0.3743681343570662,
                    -1.7576770791484995,
                    0.11567677256900569,
                    0.8686042796931279,
                    0.4099683479494636
                ],
                [
                    -0.3148222734295601,
                    -1.897443876017582,
                    -0.013714077281485871,
                    0.19934230515762602,
                    -1.5891526060607235,
                    0.05784666902832367,
                    1.1952671981521488,
                    1.120502159244514,
                    0.16973378430760827,
                    -1.0255615248460384,
                    0.3029064263225296,
                    -0.7029302079414103,
                    0.9777828243987227,
                    1.0566158006565758,
                    0.39992344098545485,
                    -1.5328160236730433,
                    -0.8056424697347877,
                    -0.6695245336369748,
                    -0.9855315364825743,
                    -1.3853831698067556,
                    0.8953511815150863,
                    0.10010480156053808,
                    -0.39547371503965917,
                    0.22125806507129522,
                    0.37919596950103956,
                    -1.6690269208754163,
                    0.5983135610616512,
                    0.39812707378441964,
                    -1.7250765836386388,
                    1.1495077131966493,
                    0.6422398699111377,
                    -1.3181094792727548,
                    -0.5431720011192254,
                    1.815241739389694,
                    -0.7576426619813174,
                    1.45766091919451,
                    0.293723162248859,
                    0.5018200090158911,
                    2.067368536307526,
                    1.5229499137955473,
                    0.7002535858237158,
                    0.6460970421850777,
                    0.8429202917220454,
                    0.08339318240474378,
                    1.1628393160599615,
                    2.090185249835577,
                    1.3421590259771825,
                    0.8127869975628719,
                    0.2569573254439017,
                    0.2137867085110537
                ],
                [
                    0.17908309535756314,
                    0.12520581835368197,
                    -1.069188137102615,
                    0.9314798426741747,
                    -2.1498215730494876,
                    -1.5307000150996193,
                    0.3997666676939093,
                    -1.4369254964022045,
                    0.48081846591043803,
                    -0.11738870388094315,
                    -0.5580563632360576,
                    0.23275228131772346,
                    0.8780132499112023,
                    -0.20130492997058447,
                    -0.6394436150421913,
                    1.6692372426803461,
                    -0.45460019347627356,
                    -1.0613431203484998,
                    -0.44481826733136876,
                    -1.0540150644781343,
                    0.7061770673227623,
                    -0.1927491875370585,
                    -1.8025785331173159,
                    0.039389497964644804,
                    -1.1677450143222872,
                    -0.40516191406440605,
                    1.9884976244457493,
                    0.05117931404479805,
                    1.2870820005938892,
                    -1.04774574422216,
                    -0.710999899636277,
                    0.5326985206368309,
                    -0.20116132688668437,
                    0.15555741200492165,
                    0.3309540648911209,
                    -0.7803959818023432,
                    1.0065656698569605,
                    1.412987982173974,
                    0.7421909835617359,
                    1.3247837434341927,
                    -0.8634456550608195,
                    -1.3917986486466158,
                    2.8181010944441565,
                    -1.484209857269608,
                    1.6262023130312104,
                    -2.4502430967870947,
                    0.14253163924604179,
                    1.1039003273327879,
                    -1.2700599627060214,
                    -1.9524539475689318
                ],
                [
                    2.901406527026492,
                    -1.0267925165169511,
                    1.8681088621717994,
                    -0.5990278544722838,
                    0.18334881550140458,
                    2.2615080337254705,
                    -0.3998384203582331,
                    1.369459092224783,
                    0.23084124830035405,
                    -0.4157698002804506,
                    0.295666848357849,
                    -0.6786820094240945,
                    -0.30008495265092,
                    0.3444012060802646,
                    0.10004661402963151,
                    2.045573107667091,
                    -0.4594953757868904,
                    -2.1541707006695225,
                    -0.7692618720214954,
                    -1.4339393902981554,
                    -1.0161648833080215,
                    -0.693656506983287,
                    0.19579341708176412,
                    -0.6636001913888181,
                    0.1291844044377896,
                    0.41523667155813515,
                    0.5133244700888686,
                    1.5670284172501892,
                    0.4254189379596891,
                    1.73774818372444,
                    -0.7637018196401537,
                    -0.024197152246609413,
                    0.07310521994239658,
                    -0.8058531405486478,
                    0.7415834014462902,
                    0.8685273403273592,
                    -0.5111428334480574,
                    1.789623266365149,
                    -2.3736405805337846,
                    2.216388374627155,
                    -1.6715829108595817,
                    0.40269282578972077,
                    -0.9659996594269716,
                    0.9702353161831563,
                    0.005639049323381336,
                    -0.5545256548718678,
                    0.5613527447620036,
                    0.8938841384259961,
                    0.7906196059566692,
                    1.0978470504593552
                ],
                [
                    -0.025609711310219885,
                    -0.9784477101993565,
                    -0.17696000577339346,
                    -0.030699514829783704,
                    -1.2147236343101504,
                    2.3027691082914417,
                    -1.3202306031575461,
                    0.7724160335842983,
                    -1.7320614011086288,
                    0.38272626617563643,
                    1.3304147773244739,
                    -1.5865767366728958,
                    0.03401453248678797,
                    0.30544568128023997,
                    1.7838652686283578,
                    -0.503219631530819,
                    0.9783133186715145,
                    0.09073837309285562,
                    0.9646396786195749,
                    0.3431968682409588,
                    -0.7411431503765823,
                    0.2762848230772627,
                    0.8078609988704375,
                    1.8206458677400605,
                    0.9243119786164301,
                    0.1572286855123539,
                    1.0228728284391784,
                    -0.44626788966828473,
                    0.059103535184712445,
                    0.8456111926290639,
                    1.7952105102269593,
                    0.2980295638073748,
                    -0.6622359306310085,
                    -0.016799818207666958,
                    0.3872973431008825,
                    -1.2328822924439338,
                    0.28559997882231375,
                    0.6181885965477807,
                    0.7048670554529096,
                    -1.0624586427384768,
                    0.20675070246634816,
                    -0.23134831616570914,
                    -0.20855138217428892,
                    -0.47997092233251887,
                    -0.11069394542466629,
                    1.1861023223891003,
                    -0.20586588790435623,
                    0.18044773721194735,
                    0.031394526614558466,
                    0.3774732007562802
                ],
                [
                    -2.359247468270944,
                    -2.9365277248275428,
                    1.7737247367717957,
                    0.20992769502522535,
                    0.2614457264493094,
                    0.10913872985139492,
                    0.21873078050242717,
                    -0.5571773315573356,
                    -0.8297715150321241,
                    -2.032886567046031,
                    -1.1086732421515584,
                    0.8449975192328236,
                    2.2753991414634336,
                    -0.032311677056159616,
                    0.6107160171768838,
                    1.1550671857905153,
                    -0.9319762308276796,
                    1.9946667191000031,
                    -1.545881404765511,
                    -0.08804070975887869,
                    1.5190231799053573,
                    -1.5658320317986498,
                    1.1090888974070199,
                    -0.5538816873839741,
                    0.3514079235307479,
                    -0.19550967955227685,
                    -0.2810424531022951,
                    -0.16236816605309848,
                    -0.28303721630159406,
                    2.1057393166553653,
                    0.36140681333052815,
                    -0.3238542592021819,
                    1.3846936392631608,
                    1.091973043217013,
                    -1.7012873623248552,
                    -2.179417939955628,
                    -0.4439672641487822,
                    0.42032239538979255,
                    0.2568293420100196,
                    -1.6415031132772098,
                    -0.6161630477093283,
                    0.5353354409802323,
                    0.9185242328739754,
                    -0.7585085515844266,
                    1.0085532808407351,
                    -2.3251517396500616,
                    -0.4800438523887878,
                    -0.6040255416465262,
                    -1.0667686418292057,
                    0.5314025123027449
                ],
                [
                    0.19357705285351937,
                    -0.6612329992346493,
                    0.2575719022155646,
                    0.2976571245036862,
                    0.3736298792694327,
                    0.40862278462531176,
                    0.03191134847397358,
                    -0.9963711748948735,
                    1.8351535880000334,
                    0.35257713256158213,
                    0.5219885002828849,
                    0.31612177904419253,
                    0.4371224456286918,
                    0.20473027580132733,
                    2.1253695834540074,
                    0.23616639467291237,
                    -0.5469279477119269,
                    0.17936255623776323,
                    1.408686682662204,
                    0.3981923073120648,
                    -0.7906679397611557,
                    -1.3518652545341718,
                    -0.8639941246250225,
                    0.043253785829938836,
                    -1.2870627524446046,
                    -0.8332766190499944,
                    -0.20709858680565485,
                    -1.2523642285530834,
                    -0.5319191717039841,
                    -1.4090994328114148,
                    -0.399900626152765,
                    2.014423545502431,
                    0.08948220071517934,
                    -1.5967239812813991,
                    0.3559100335649435,
                    2.238870057552793,
                    -0.6485359106525648,
                    -0.7244294232514034,
                    -0.816501620727331,
                    -0.14288545342563236,
                    0.48446426891177646,
                    0.9934791742469055,
                    -0.970561701567914,
                    -0.06251607444127405,
                    0.4304510124892994,
                    -0.026928838070888347,
                    -0.7195085223045492,
                    1.308083443313977,
                    -0.9235114788565211,
                    0.21147871197238471
                ],
                [
                    1.1400944588022015,
                    -1.2862927228766194,
                    0.5704863568603787,
                    0.7042478448101072,
                    0.4877293279278107,
                    -0.5232047476163697,
                    -0.39742225393019415,
                    1.1882612588573138,
                    0.99659525082662,
                    -0.4902856829859718,
                    1.065186478417618,
                    0.5284684578179842,
                    0.47139776802500355,
                    0.37120634488258125,
                    0.17451557405567233,
                    1.4492351617154782,
                    0.6634941863561983,
                    -1.7482611284740133,
                    0.7923434363221573,
                    -1.3634648242503935,
                    0.39294432851661615,
                    -0.7378788943153836,
                    0.35425449062428,
                    -2.164211159075156,
                    1.0002823278378987,
                    1.2844570472425711,
                    -1.5306571040709558,
                    0.6710731516265602,
                    -1.1196670655397791,
                    -1.7825803045589508,
                    -0.5645418644911664,
                    -0.6154270610751746,
                    -0.22723080054034323,
                    -0.0805070917552572,
                    0.7108494875432566,
                    -0.07736828872796721,
                    0.2895563675492971,
                    -0.8044110857928197,
                    1.2537986526856133,
                    -0.10214563741977561,
                    -1.773841374590576,
                    -1.071958719417239,
                    -0.34088836497542474,
                    -1.3390435145598467,
                    -0.8784599672276798,
                    -0.44553843719301967,
                    -1.512098071612709,
                    -1.8400521949709288,
                    -1.1732730281240378,
                    0.690293206947225
                ],
                [
                    -0.7836535178742177,
                    -1.5848872012782143,
                    0.33750123306413315,
                    -0.05806292560777979,
                    0.7254183930674456,
                    -0.021774943079376583,
                    2.4110519825640275,
                    2.000646232710318,
                    -0.5162778130380173,
                    -1.6908269126570268,
                    0.9714690093192373,
                    -1.512253228043674,
                    -2.08574432239641,
                    0.14705011188945846,
                    1.3453500401946452,
                    -1.643571280666026,
                    -0.9446627060806534,
                    0.32196273131141745,
                    0.4745297516467867,
                    1.0177422763693162,
                    -0.08604744147661342,
                    0.8579462841924063,
                    1.8163145419377953,
                    0.21111154011975589,
                    -0.6582595029986523,
                    0.3417177170585139,
                    1.588646178594176,
                    -0.7367460752662943,
                    -0.6002893417454456,
                    2.540567727617005,
                    -0.1886822376181974,
                    0.033658212394671455,
                    -0.24297070680381677,
                    -0.8610414473158141,
                    2.2042184986365005,
                    1.6307129208880429,
                    1.728227632994324,
                    0.15861157105093565,
                    -0.1437631732275322,
                    -2.196749272969961,
                    1.1184029436030716,
                    0.9981723153931213,
                    0.7449808429903005,
                    0.8377600343697528,
                    -0.6579697053838416,
                    -0.9196151033398959,
                    1.2017166644084694,
                    2.0443711110844514,
                    0.29331385057991005,
                    -1.3894578496988257
                ],
                [
                    1.0783288220692495,
                    -0.8448693570733851,
                    -0.47462404714155954,
                    1.2443349915782895,
                    -1.953141292653472,
                    -0.8182136649919355,
                    0.4730612785686796,
                    -1.12924538592073,
                    1.3303091221410037,
                    -0.4740382377245813,
                    -0.6378424342509841,
                    1.550881777504587,
                    -1.6637851926308542,
                    -0.8263359653634464,
                    -1.4792771574579644,
                    1.9071129044922321,
                    3.725893186101335,
                    0.735907407272808,
                    -0.17106950512000188,
                    0.9241424830761995,
                    -0.2722625868416595,
                    0.8772203276132089,
                    0.8106311763582965,
                    0.5677502094915233,
                    -1.0252147111691914,
                    -0.291632484045212,
                    -2.7183123364603006,
                    -0.8548002336539717,
                    -0.3457437520153082,
                    -0.8293361651515095,
                    0.3969844144439622,
                    1.959976059324979,
                    -0.7242652619455126,
                    0.3497629720178819,
                    1.5226479588622635,
                    -2.4762102436596427,
                    0.37260399303473263,
                    0.41979599971136167,
                    1.6771708214994756,
                    -0.011160038680017813,
                    -0.16691020591169028,
                    -0.47060399232596634,
                    0.3660936896843569,
                    -1.0342584537424122,
                    0.15686777264102264,
                    0.6816575359192901,
                    2.387302216259504,
                    -2.1768969222793553,
                    1.3498961972641945,
                    0.007929305750124644
                ],
                [
                    -2.504461200867953,
                    0.5210341775329879,
                    0.30210079068647056,
                    -0.30071660538570444,
                    0.6747451081622489,
                    -0.07686456941553546,
                    2.042454199329753,
                    0.697594570665254,
                    -0.44499027535358265,
                    -1.4696729690479449,
                    -1.9193357996786717,
                    0.31281409190908877,
                    -1.1080780434728443,
                    0.5536405330127688,
                    1.0250354708643807,
                    -0.2820866451603733,
                    0.28984855916426355,
                    -2.2274617151031553,
                    1.1516359133732486,
                    -0.8418617984423337,
                    0.5113475262756013,
                    -1.3170255940866316,
                    0.9949436194543,
                    -1.2362278258751787,
                    0.3849098911825877,
                    0.6854188165988117,
                    1.0896141929081915,
                    -0.25617501297910655,
                    -0.02546794369163527,
                    -1.096801903038441,
                    -1.8578499881799222,
                    0.5176790547618272,
                    -0.11005511277240485,
                    -0.31049449966676135,
                    -0.09583180122807777,
                    1.6733524758979097,
                    -0.3554822744732845,
                    -0.4393837832768264,
                    -2.329706359128184,
                    0.15788613198102897,
                    0.8588449955615186,
                    -1.4969108179823236,
                    0.5149544290273687,
                    0.9567608979728062,
                    -2.309691119120494,
                    -1.0912554350782417,
                    0.8941187986746831,
                    -0.3550326466821208,
                    -0.15689141861726086,
                    -1.3936818321645732
                ],
                [
                    -0.8199351650381189,
                    1.3906961951650711,
                    -0.883705642284528,
                    -0.6757115135585351,
                    -1.1961646042361782,
                    -1.2505203324938006,
                    1.1579281199918925,
                    -0.9343805980417081,
                    -1.0640601657617388,
                    -0.0913236314462846,
                    0.6178133458105948,
                    0.5029410868168682,
                    0.3994248334025476,
                    -1.5914070989173559,
                    0.3336327974904402,
                    -0.2990308221769947,
                    -0.6678726628752037,
                    0.893023557114745,
                    -2.511683020152438,
                    0.3389980416758408,
                    0.3124391882257498,
                    1.1009733786134144,
                    -1.5756444650222485,
                    1.7677170290004918,
                    1.2605561500736,
                    -0.1459708268587244,
                    -1.3855076325243973,
                    -0.39398945309250893,
                    -0.23714037027396795,
                    -2.6889662285958433,
                    0.6112657975906671,
                    0.15555655363459017,
                    -0.8413149705821407,
                    0.3791403166403728,
                    0.054821034567867445,
                    0.09800950935843952,
                    -0.5623026914237563,
                    1.7291122298436432,
                    1.695306126994928,
                    1.0262685505764886,
                    0.09350836690575401,
                    -0.5204383081844204,
                    0.2753903963892385,
                    0.5088452130305275,
                    0.37877577380950894,
                    -1.2980480567733352,
                    0.6387182407798302,
                    1.114186337755239,
                    1.2449767943316987,
                    1.5114495125154486
                ],
                [
                    1.4764373871059049,
                    -0.5514883689401635,
                    0.37448457916921474,
                    -1.378731584562356,
                    -0.7797119427287948,
                    -0.4570181340793195,
                    1.4734764705143695,
                    1.3208743426059373,
                    0.5171094458853015,
                    -1.5855538055948921,
                    -0.35790733401502994,
                    -0.07331478838992445,
                    0.4369365206400443,
                    0.22100259172766096,
                    1.1789385226836542,
                    1.409341360898756,
                    0.13934517611657488,
                    -0.4404016072559998,
                    -0.46381330123576103,
                    -0.4451996136423798,
                    2.259421367062163,
                    0.5226007548352924,
                    -1.3590755447716312,
                    0.7742389945643915,
                    0.0012663580861690948,
                    0.250521590364115,
                    1.1072058525245267,
                    0.6843373847869348,
                    -0.03756909481806913,
                    0.892652768726812,
                    -0.9589690670154172,
                    -2.5989105241701633,
                    -0.5568540723238709,
                    0.271789491164304,
                    -0.6859089639574272,
                    1.3142343975843203,
                    0.38859787726207645,
                    -1.5228032486277778,
                    -0.2745146065012185,
                    -0.3574083417247073,
                    1.3316548937405766,
                    1.6638567864808833,
                    1.11129099646749,
                    -1.0621751584753836,
                    0.8484251031507262,
                    0.6283124351119099,
                    -1.0876976905775178,
                    -2.216850583040303,
                    -0.5366908846755133,
                    -0.8958181284473508
                ],
                [
                    0.35073390197783066,
                    0.2908378599678953,
                    -1.3738431114168062,
                    -0.7229418169456566,
                    -0.04282355683653144,
                    0.4980113048459406,
                    -1.2796208436624905,
                    1.6879285119208496,
                    -1.0404927409149614,
                    0.010066631522438273,
                    -0.6450956952106601,
                    -0.6780532269352455,
                    0.6294851808805837,
                    1.342579410170149,
                    -0.5659917075632468,
                    0.527455493244039,
                    0.0007520366385211572,
                    1.3402731175397387,
                    1.4738556625393004,
                    -0.13410095426642857,
                    0.6890297622146967,
                    -1.3782776738249842,
                    -0.6483636548376471,
                    0.13161960880019039,
                    0.31980224537528107,
                    1.9458164769433268,
                    -0.5975686520742408,
                    -0.6735300267919371,
                    1.0676202504490981,
                    -1.4990942548157218,
                    -0.8113906512067538,
                    -0.26154834628307366,
                    1.0681687022657258,
                    1.2187642107281367,
                    0.8243572230207459,
                    1.4440327321605115,
                    0.8147694452081798,
                    -0.25741287015791225,
                    -0.8750521428376157,
                    0.7014331491643637,
                    2.011327038172911,
                    -0.7571217217661503,
                    0.5859571066409555,
                    0.6438620270732459,
                    0.6852512260520296,
                    -0.21730257767551525,
                    0.8016996587693571,
                    -0.0003144345005377906,
                    -0.6247980598850092,
                    1.5074170918278775
                ],
                [
                    -3.2620253466866487,
                    -0.9613111138686266,
                    -0.6823784040243944,
                    0.33929492772168135,
                    0.5227172540800284,
                    0.3372004793354226,
                    0.5123786131490877,
                    -1.5018901997081917,
                    -0.152842693633794,
                    0.31691727214569204,
                    2.0706317022458762,
                    0.3271433253494212,
                    -1.5881575565152692,
                    0.7083115621265192,
                    1.7851143541623942,
                    -0.6762861264693875,
                    -1.589342438142758,
                    -0.8739680800118701,
                    1.5541576583125025,
                    0.5756970417328382,
                    1.3088035796203612,
                    -0.7034518738056452,
                    -0.13705401108095605,
                    -2.5191883156515282,
                    0.8070076013396755,
                    -1.7408278827920658,
                    1.7321163262937718,
                    0.1688203998243698,
                    1.6010430408885568,
                    0.7003024861937603,
                    0.19309115094924048,
                    0.14688341449482265,
                    -0.8660769836223338,
                    0.18067159183632403,
                    2.0930066846636013,
                    -0.6319225103358709,
                    -0.850878644539189,
                    -2.116161331768267,
                    0.6040009025576618,
                    -0.6645429526754923,
                    0.8618308132181283,
                    0.4603183343484106,
                    -0.24085039767048097,
                    0.0277795634231206,
                    1.1879955803880526,
                    1.3925442843084206,
                    0.7453997454849375,
                    -0.32596208868131665,
                    -1.1093375173196587,
                    -1.087105720607215
                ]
            ],
            "function": "sigmoid"
        },
        {
            "input_size": 50,
            "output_size": 30,
            "weights": [
                [
                    -0.504902844093714,
                    0.09495106141532342,
                    -1.3094229323557687,
                    0.7487033399936825,
                    0.9829430416828555,
                    -1.4747630430556296,
                    -0.020707473743956914,
                    -0.1391519981146438,
                    -0.8981776416014534,
                    -0.2734352639881204,
                    0.8653890923621566,
                    -0.700012813555481,
                    -0.6897340534514241,
                    1.9029546007549767,
                    -2.061186172795831,
                    0.4505728765528951,
                    2.12747195013447,
                    -0.29665519467232554,
                    2.122769261773915,
                    -1.881841679342453,
                    1.3017366308656646,
                    0.7999123943354903,
                    -0.012792029926299329,
                    -0.35229682918743643,
                    -1.0268054634395714,
                    1.7988835998252721,
                    0.3820989322088007,
                    0.21248296163175734,
                    0.8088150860653189,
                    0.5361008010596308
                ],
                [
                    -0.8561004047180532,
                    0.302043438830783,
                    -0.38917694908763173,
                    -1.0007824018786766,
                    1.494206223061045,
                    -0.9411502836670383,
                    1.0086993980550738,
                    -0.7914519547500376,
                    0.5582698307849367,
                    -1.2924632543744194,
                    0.25194325495580816,
                    0.5524174328900164,
                    -1.5116477655527936,
                    0.9156663581348232,
                    -0.8208135222181518,
                    0.7657217467416508,
                    0.02114562991926143,
                    1.3055292695577685,
                    -0.5362484785233702,
                    -1.669201621907682,
                    1.0807555770318842,
                    -1.1542732093197314,
                    -1.0913446456252947,
                    0.4365676314943637,
                    0.09544769563790728,
                    -0.5179444764425762,
                    -2.04147703570219,
                    -1.1497165132651956,
                    1.940869950409091,
                    -0.2162908950200863
                ],
                [
                    -1.0604891106932073,
                    1.2926836456110933,
                    1.9317794312657188,
                    -1.450528961491392,
                    -3.2715722135353533,
                    1.4048577736915222,
                    0.7210884898517889,
                    2.5757412313660604,
                    1.6393987643133798,
                    -0.7594056988026618,
                    2.057086655769442,
                    0.6423727634297111,
                    -1.0729252748048954,
                    0.4631607148473101,
                    -0.12789859291994823,
                    0.9887856033656897,
                    0.3231432941541356,
                    -0.013887923023957815,
                    0.290733638103526,
                    -1.6333599854086807,
                    -0.8910631348060737,
                    1.5848126488836038,
                    -0.6663829191725508,
                    -0.4508830475077364,
                    -1.6714045679464684,
                    0.6751622398842128,
                    0.5757761502522004,
                    1.1183635292896914,
                    0.11030053383824537,
                    1.4730598668379022
                ],
                [
                    1.6560841740158074,
                    -1.501424695141995,
                    -0.20915180001810404,
                    -0.4698010496351194,
                    0.31327619842479254,
                    1.2640331676313428,
                    -0.23832396997279792,
                    0.08549630783939208,
                    0.9113350395623167,
                    0.4535673376316572,
                    0.7550326227293115,
                    1.7800568020886918,
                    -1.0154962761759059,
                    0.8937882112968643,
                    0.032270769583953376,
                    2.20562953945539,
                    0.7193343365236928,
                    -0.15437929456199653,
                    -2.6364531740285813,
                    1.370564646608725,
                    0.8813343710000504,
                    -1.6154842514093706,
                    0.14555799620505164,
                    0.25145778206912106,
                    1.4995743729792455,
                    -1.2815092819278198,
                    -0.11304763972402622,
                    -0.7645840128458609,
                    1.0367038865731064,
                    -1.052077852763007
                ],
                [
                    -1.096171594039083,
                    -0.368934958829118,
                    -1.295168476081343,
                    -1.3683604751702352,
                    1.2684548946229792,
                    0.6911174277265815,
                    -0.8008249651062302,
                    -0.6275935873759688,
                    2.2961140838749063,
                    1.8611437518573755,
                    0.11438029692088021,
                    -0.06690666328460465,
                    -0.2701686204794511,
                    0.7658282975045616,
                    2.0602998351195994,
                    -0.5397161814952612,
                    2.800161547550759,
                    -0.9200011724827459,
                    -0.2526424793801715,
                    0.7992892590825725,
                    -0.004064659435717049,
                    1.2701241652774942,
                    2.9378692568345817,
                    0.7171813309595124,
                    2.480619896612398,
                    -0.3593124963029495,
                    -1.1355046890980256,
                    1.0084088025233822,
                    0.517823055074396,
                    -1.097687682533487
                ],
                [
                    1.707134835605325,
                    0.6282077534625905,
                    -0.7861999673203641,
                    0.3004542206981295,
                    -0.467642382818394,
                    -1.3492337232305167,
                    0.7624063208987165,
                    -0.9267312027565805,
                    -0.8429673433643137,
                    -0.2770415271065919,
                    -3.4188566619390555,
                    0.0914933041832739,
                    -0.2988793070564045,
                    -1.6433081992358218,
                    -0.16781496498228146,
                    -1.1332913206128494,
                    -1.043216580799072,
                    1.245536126256703,
                    -0.48743321585152244,
                    0.3150342222112158,
                    -0.30209191936767305,
                    -2.088974370395086,
                    0.39913830384994664,
                    1.344458741217183,
                    -0.5051059021721017,
                    -0.7632197689740403,
                    1.375559228819578,
                    2.1438656195380212,
                    0.9930248181054541,
                    0.7510171161514299
                ],
                [
                    -0.1411828582299774,
                    -0.5342532406569219,
                    4.26294560798001,
                    -0.8640924772640448,
                    0.6073838974075909,
                    -0.4656485895982308,
                    2.13720572131873,
                    1.4422866485249868,
                    0.823086435867215,
                    -0.35190578197618627,
                    1.6748749035894674,
                    0.19993685422597543,
                    1.9003822457325819,
                    0.3113771562184973,
                    0.6334001006246406,
                    0.3438386643137593,
                    0.4614966661395733,
                    -0.3125587448406571,
                    0.26579366648797764,
                    0.5214500177904878,
                    -0.1487880611909821,
                    0.05536801906560006,
                    0.9083073374627512,
                    0.5277203340720606,
                    0.9820302431640007,
                    -1.116725349383355,
                    1.1576747302774395,
                    0.21554829492274005,
                    -1.083587645933778,
                    1.2054642293686215
                ],
                [
                    0.762648537509029,
                    -2.4691784117073396,
                    0.31853725523886633,
                    1.7736844283805917,
                    -1.788680651417151,
                    0.6073457771140021,
                    -0.8715411364418383,
                    1.7750682221757874,
                    -0.5277843901790665,
                    1.666201599510393,
                    -1.2590618658164678,
                    0.8471584025864962,
                    -0.21135142058444104,
                    0.3242621828998066,
                    1.2296250940459952,
                    -0.15234274333219822,
                    1.5537766912894762,
                    -0.15266258250737405,
                    -1.2293543087479375,
                    -0.05629662274636401,
                    1.218409980647358,
                    1.8703653856706157,
                    -0.45994709301834036,
                    1.4025597926263,
                    1.6403533297517983,
                    2.202486835042062,
                    -0.7424729907965081,
                    0.8450911782374911,
                    -0.1897707445371686,
                    1.1349124906666272
                ],
                [
                    -0.5307267953230892,
                    0.1334570562845973,
                    -0.24237047760964434,
                    -0.16261445423442786,
                    -0.4178922182404434,
                    -0.21464972252741374,
                    0.6117669722348171,
                    0.46779165994539046,
                    -0.40449431657307894,
                    -2.152198871858177,
                    2.3494067985860663,
                    -0.844127868842971,
                    -0.3519797017749233,
                    0.0902665536206898,
                    -0.7811349561379123,
                    0.29775620668781744,
                    0.4095689279430472,
                    0.46485250453355775,
                    -0.48738420134792115,
                    -0.30333660261088846,
                    0.2254195088581647,
                    0.4159269971791326,
                    0.4393557897679712,
                    -1.22854477632111,
                    -1.5953587964396712,
                    0.11918536954151362,
                    0.6175836383807841,
                    -0.6282944979208817,
                    -2.3019397240034523,
                    -0.044338445440230426
                ],
                [
                    -0.032661250241904125,
                    -0.8959249163469889,
                    0.5507074517368256,
                    -0.4581309809637621,
                    0.7614030062956115,
                    -0.04412524668159216,
                    0.13526354359642023,
                    0.9324393038174811,
                    -0.7992177001466305,
                    1.3297818993121295,
                    -0.6603909357631765,
                    0.13861027752151203,
                    0.715852650564437,
                    0.43930453260385954,
                    -0.6253160967252772,
                    1.2919717512392401,
                    -0.6434189626665251,
                    0.09632716357481946,
                    -0.44437118090223166,
                    0.6755465337645445,
                    -0.6062197137038308,
                    1.292599671143465,
                    -3.2852120688807678,
                    -1.5165864357500651,
                    -0.5362123998001617,
                    -0.692860303506325,
                    -0.9048448273557361,
                    2.0243567103244784,
                    -1.6955830042125755,
                    -0.6950903521454546
                ],
                [
                    -1.9181866742768536,
                    0.8258433018558736,
                    0.24202919023835498,
                    0.9023553673834118,
                    1.980579766789577,
                    1.4344095737223745,
                    0.9074261052080179,
                    0.3084283727033957,
                    -0.1384804265881604,
                    1.1141711946921602,
                    0.23468836639497745,
                    0.4811377235680132,
                    1.139033594054799,
                    -1.4753779703514478,
                    -1.6802932649279034,
                    -0.6246322836300968,
                    -0.8633689159360294,
                    -0.15451402409436232,
                    1.0597260872240983,
                    0.4057817922721286,
                    -0.9072826439554168,
                    -1.1886705203068508,
                    1.1039762649192706,
                    -1.014342718053184,
                    -0.8513013628457508,
                    -0.3888532103237719,
                    -1.5939469994229791,
                    -1.274587989255899,
                    0.355691718299142,
                    0.4261493292278414
                ],
                [
                    0.6217752735112622,
                    0.15574021331747248,
                    0.4374734070246342,
                    -2.158452207195432,
                    -2.9037044203719975,
                    -0.648510065811834,
                    1.5502566579665455,
                    -2.062911905638752,
                    1.4232278053836167,
                    -1.572258925314999,
                    0.43158252420994997,
                    -0.4739013524055363,
                    2.8745579646920527,
                    -1.7382084809880842,
                    -0.7750717371112396,
                    1.2007336046801826,
                    0.07170870387776171,
                    1.4910411924023932,
                    -0.6783458557495883,
                    -1.1601492388073318,
                    -0.1082677645887948,
                    2.014917207794184,
                    0.3570063529844259,
                    0.4981710780232671,
                    0.01594102586443438,
                    -0.5469399326432874,
                    0.8095591439943375,
                    -0.16277501741733935,
                    1.6053834647391803,
                    -0.17542695109517248
                ],
                [
                    0.7466537660575935,
                    0.20718884843593105,
                    1.2598747874885157,
                    0.6538991548108395,
                    1.7478096091027693,
                    -0.3644281088489615,
                    -1.484328182993333,
                    0.3094376828285299,
                    -0.4864796844308361,
                    2.245981978476163,
                    -0.8617685278727589,
                    -0.005230447345051206,
                    -1.8654170777069006,
                    1.7860858960077302,
                    -0.0027434105406838466,
                    -1.1464048941008886,
                    1.1168785565198893,
                    1.3959323965475983,
                    1.028110202254373,
                    -0.7399392446186743,
                    -1.5611962910619546,
                    0.3929586163547414,
                    -0.6038902706383137,
                    -1.5573755062201342,
                    0.9095514966602921,
                    -0.2556019754366324,
                    -0.39799474255136624,
                    -0.4641715331873524,
                    0.9396050494238636,
                    -1.7351036594546205
                ],
                [
                    -0.3551974416289642,
                    -0.03554489173534538,
                    -2.318525762206489,
                    1.808345859278521,
                    -1.9055879569307215,
                    -0.15103415731163114,
                    -0.20236180900355955,
                    1.500147547500847,
                    1.7229726601738846,
                    -0.4524170147953376,
                    1.2731899479466025,
                    0.9732656122011513,
                    0.5834907084370033,
                    -2.917807222521196,
                    1.906969072591986,
                    -0.34287651521894497,
                    -0.12377558300291268,
                    -0.24496953611243888,
                    0.7981632280081188,
                    -0.9734223319365607,
                    -0.2021396318506853,
                    -0.21074542410973013,
                    3.051894079356905,
                    0.9623975351060586,
                    2.370054139725289,
                    0.2858975548161611,
                    -1.2625791082204014,
                    -0.77288308571577,
                    1.2859475529597935,
                    1.0515869814945042
                ],
                [
                    -0.6775128697715211,
                    0.28744538061100505,
                    -0.16408509780840044,
                    0.4169442115520418,
                    0.7052904904744574,
                    -0.5310070433023307,
                    -1.1777114472948456,
                    -0.7018506300861105,
                    0.3730830282037016,
                    2.2106989855179346,
                    -0.5708715033927716,
                    -1.0720657872753772,
                    0.20483558030479482,
                    -1.5311071966542948,
                    0.22924923854698248,
                    -0.05342760135688635,
                    -1.1473401783035977,
                    -0.8788291512718093,
                    -1.8593162407329231,
                    -0.799065377730811,
                    -0.05838627865361178,
                    -0.687096076506602,
                    -0.11542540481245733,
                    -0.6560365012077445,
                    -0.9592266911315173,
                    -0.2672336081908974,
                    0.4543502679950314,
                    0.4060259460645492,
                    -0.692830681986982,
                    -0.3098075931298367
                ],
                [
                    0.2027576365987807,
                    0.2990334482523383,
                    0.39476351929272324,
                    -0.8863142870054171,
                    1.068459769775215,
                    0.13635259228633984,
                    -0.08705447788036366,
                    0.4539870583698278,
                    -0.42026906584204066,
                    0.38184361667077016,
                    -1.3589720109603174,
                    1.5268047086122585,
                    -0.8155434357676726,
                    0.4300761242047016,
                    1.0687462445552847,
                    0.5895563746380833,
                    -0.2432427057909633,
                    -0.5524206128397973,
                    -0.2185455118580267,
                    -1.5013774065676877,
                    0.31251035316393244,
                    0.12267214816948308,
                    0.3917805675476766,
                    -2.805445131352252,
                    -0.6230023412425362,
                    -0.2969872453751785,
                    -0.8799964779565249,
                    0.022203129987969146,
                    0.5511369043350993,
                    -1.1170531142772877
                ],
                [
                    -0.6456400870110327,
                    0.5708191108000973,
                    -1.2304534029521281,
                    -1.7106557778689822,
                    -0.9173688070246521,
                    2.458235220386041,
                    -0.2788300352739338,
                    0.4698647163357907,
                    -1.6766499071894811,
                    -0.8961598118660867,
                    0.4859521962724567,
                    0.6378793441727028,
                    1.814475045996898,
                    -2.205534069491336,
                    0.20182956705723587,
                    -0.6787592743820235,
                    -0.34520459666633224,
                    0.4280182798989567,
                    0.32536442539428767,
                    -1.3128417265571777,
                    0.3718665466445854,
                    1.3542985151036764,
                    -1.055653047325972,
                    0.38202948221890826,
                    0.05783415504306029,
                    1.9979781158984784,
                    0.176517123770345,
                    0.8224664140256882,
                    -0.12417218643534736,
                    -0.014018202713960464
                ],
                [
                    3.247282285320647,
                    -0.8521145628607081,
                    -0.39853149574300933,
                    -0.7551211548841145,
                    0.8201728706738989,
                    -0.06919338829600877,
                    -0.6851608741680562,
                    2.1195014732524813,
                    -0.7731242662689103,
                    0.19743790065771208,
                    0.6736510925788461,
                    0.7767023257795546,
                    2.0344831453545242,
                    0.6490273643859058,
                    1.2388261666526206,
                    1.2828702777529963,
                    -0.13678961710341264,
                    2.567672470737023,
                    -0.6327521612846482,
                    -1.5214802608240552,
                    1.5671237975738144,
                    1.0824070838780935,
                    -0.5407678633929833,
                    1.8158277396560085,
                    0.33325735278667856,
                    1.0142417835764685,
                    -0.5811193672220025,
                    -0.4475148489081568,
                    -0.44720641444392684,
                    0.06533518730047404
                ],
                [
                    -0.1851889816710756,
                    -0.42503717900892046,
                    -0.11247527742520788,
                    0.46105964743626765,
                    1.3975057225640404,
                    0.7000484963102255,
                    -0.9083560312718794,
                    0.601431292479316,
                    -1.0895268589239044,
                    2.0022118596741083,
                    0.4304119869631988,
                    -1.1860992211655341,
                    -0.0740846848139575,
                    -1.3147842186297931,
                    0.043991805771271715,
                    -0.3710696975494873,
                    1.7197482725687392,
                    0.6536409158850235,
                    -0.9453144380693488,
                    0.019652430877421755,
                    1.3417411494737859,
                    0.44717391286203023,
                    -2.378731638053827,
                    1.044306874032578,
                    1.6862233100985589,
                    -2.5028086661152518,
                    -0.4646663279097711,
                    1.9471388993956253,
                    0.1985873908827595,
                    -0.6009100181308508
                ],
                [
                    -0.0591920650258867,
                    -2.5413124806810408,
                    -1.5671166812019524,
                    0.9375204432381462,
                    -0.8029855523789584,
                    -0.7173985422420552,
                    -0.9299333976174855,
                    1.2797067064329148,
                    0.5533235964140707,
                    -0.3437842879903001,
                    0.9906098031267083,
                    0.9588605500277736,
                    -1.0854222906957873,
                    1.5030301900039056,
                    -1.0291630972385946,
                    -1.6587480095420333,
                    -0.05341806859530753,
                    1.9643894647954236,
                    -2.0779319766287383,
                    -1.0437638042673316,
                    -0.5673449734886087,
                    -0.6848914902792234,
                    0.3061635370242467,
                    0.7711757064585033,
                    -1.189292785932564,
                    -0.47258816484639554,
                    -1.2559097611268855,
                    -0.8577838615157215,
                    -0.1553743881162185,
                    0.8959303643617178
                ],
                [
                    -0.8298055999801124,
                    0.5224636184511255,
                    0.16504271818174865,
                    -0.17491207738051956,
                    0.2920691822372649,
                    -0.532334855210482,
                    0.23910711476082172,
                    0.7521618118347349,
                    1.0207718004907118,
                    -1.6319831833901501,
                    1.2669404586828887,
                    0.18332263213367464,
                    -0.905634980290584,
                    0.5611966941466646,
                    0.68838889070393,
                    2.234298741526604,
                    -1.758152353205362,
                    1.5128177334634039,
                    1.9306249408138472,
                    0.12287135029545798,
                    2.3576653141700183,
                    1.1045473124902152,
                    2.1431610776812846,
                    0.3398717572097996,
                    1.6587831215607336,
                    0.11787699666277071,
                    -1.2666585735736735,
                    -0.059510311624913007,
                    1.3262641432800075,
                    0.6780515382850636
                ],
                [
                    0.6789336915787103,
                    0.1671851963535501,
                    2.0333655659386958,
                    -2.086326597929179,
                    0.7168255491475247,
                    1.1687954702918102,
                    0.3559979810059162,
                    -0.6829123273331517,
                    -0.7179998549039598,
                    -0.5535472022284409,
                    0.6511981472946595,
                    -2.5518953806372697,
                    -1.393931874541304,
                    0.9123917491483264,
                    -1.9376646057266593,
                    -0.4253257433729982,
                    -1.6129794335415164,
                    1.1579977727286161,
                    0.3640637749895625,
                    -1.9238013183301632,
                    0.9322516048584844,
                    -1.2840200974626286,
                    -1.312925951513943,
                    -0.13972262710455108,
                    -0.5861822878327552,
                    0.5392085258386894,
                    0.6451519880897213,
                    0.8822496830624732,
                    -0.004675682995487837,
                    1.1282343160673785
                ],
                [
                    -1.7984002505845176,
                    -1.0615899220160123,
                    0.52108155988679,
                    -0.6363631152571085,
                    1.8636534682150905,
                    -0.17162819999907591,
                    -0.6514299798204389,
                    0.22338387529224804,
                    -0.8671421567214163,
                    -0.9757312636471296,
                    -0.05616492376240186,
                    -1.2000540355048195,
                    -0.05174932420716212,
                    -0.6171142064439515,
                    0.9812061406172871,
                    -1.6571356619989217,
                    0.05327708564659019,
                    -0.5229136111957308,
                    -0.2912793954909627,
                    -1.6683749078928218,
                    0.8373143834235276,
                    -0.21543833891318487,
                    2.796877816697953,
                    0.9247125309127064,
                    0.6232407423617827,
                    1.6277569531331366,
                    1.758428424471372,
                    -1.2176821595009504,
                    1.8420844242104724,
                    -2.4340284861037516
                ],
                [
                    -0.062424651031101175,
                    -0.7495096732722123,
                    -0.2693961149714216,
                    0.024202018620232194,
                    -0.10425463397092717,
                    0.24588900993380947,
                    -1.3696447640895841,
                    1.1736957188470047,
                    0.5187160056096787,
                    -1.3372619225321123,
                    0.599413238899401,
                    1.2202965206692902,
                    -1.37577624353696,
                    -1.1733536986480484,
                    0.7586119187232062,
                    1.6070008942732226,
                    -0.2929127349955792,
                    1.020150576058441,
                    0.5240624342057888,
                    -1.1936205286206998,
                    0.269933493834132,
                    -0.4174267120225621,
                    0.1392816818237977,
                    -0.07926213570493446,
                    -1.6744863652275812,
                    -0.4530527378826485,
                    0.0938431073085774,
                    0.5268022442601745,
                    0.11604821285285176,
                    -0.7242299379180839
                ],
                [
                    -2.209271077577328,
                    -1.3468522539816292,
                    0.7144001828497426,
                    0.5399973339150996,
                    1.8026224200797025,
                    1.04206060570426,
                    0.6657183777127497,
                    -0.7571376196643106,
                    -0.44718082121073705,
                    1.0455055879243946,
                    0.448860303175305,
                    -1.6617821737982024,
                    0.023099498543746343,
                    0.5264160572840312,
                    -1.8633148402871464,
                    -1.5656652681562635,
                    0.8065112943562543,
                    0.6932241252994918,
                    -0.3498340277508585,
                    0.1474913279810103,
                    -1.836119630566344,
                    -1.0070184270020481,
                    -1.649411700594867,
                    -0.9793129283185952,
                    0.17715398856861458,
                    1.0806863056812552,
                    -0.1447194211927103,
                    2.49034132989866,
                    1.8508074786463764,
                    -0.4751049526373176
                ],
                [
                    -3.990581261106407,
                    2.246877805955226,
                    1.4886078325509873,
                    0.46265940321002835,
                    0.67523843068774,
                    -0.6384635460736467,
                    0.9932519555310587,
                    -0.49851908660937166,
                    -0.9430364245313657,
                    -0.38225424141186193,
                    -0.24716712949849323,
                    0.6920264880792817,
                    -1.2703755378194286,
                    -1.3886905197621713,
                    -0.6759915590511905,
                    1.3182930410205287,
                    -0.6070234240908662,
                    -0.7554519588840385,
                    0.5789278274946458,
                    1.5235309646526893,
                    -1.0784330451014141,
                    -1.3469528451139035,
                    3.535749307619304,
                    1.046793341905574,
                    0.4527093270425236,
                    -0.30356376535109736,
                    0.6381636163612262,
                    0.5144498098925019,
                    2.8244189320625006,
                    0.3030706879653891
                ],
                [
                    0.2284240141053897,
                    0.4360142899413446,
                    -0.8904329409631746,
                    1.4717862495519267,
                    0.1806910620292613,
                    -0.31540158779292515,
                    0.8955249002359333,
                    1.5904238768817207,
                    0.2381853407438653,
                    1.2047722263216476,
                    0.3543834438373322,
                    0.1821664508582732,
                    0.12019437864342433,
                    -0.04578994069601097,
                    1.9182776271547823,
                    -0.293383313432496,
                    -0.4259502703161601,
                    -0.4053943026330967,
                    -1.5267667223009165,
                    0.9138661096799522,
                    0.5896388434268475,
                    0.7047551301655287,
                    -1.2213928038077102,
                    0.2444222029969211,
                    2.263911100804315,
                    2.32914174490702,
                    -0.008261946535308177,
                    -0.0621599776726713,
                    0.44427921923637964,
                    0.025969397941075438
                ],
                [
                    -0.07256002899874395,
                    0.6198267409527244,
                    -0.3430405412609245,
                    1.6143382549520202,
                    -1.5801985464108912,
                    0.5031818766610128,
                    -0.2884900032608114,
                    -1.7095656944443423,
                    0.7415291249929594,
                    1.956110758719142,
                    0.4611455051369793,
                    -1.8215387469168325,
                    0.18772311934437802,
                    1.1031277527940224,
                    -2.2244455330707855,
                    -1.1007507831679761,
                    -1.1779108022918798,
                    -0.2420935485360562,
                    0.1889195930537851,
                    -1.1308898147141606,
                    -1.683054875456312,
                    -1.5080544633310804,
                    0.739813548749922,
                    0.3753985920458454,
                    0.923294118492094,
                    -1.1010823905528402,
                    -0.7213019676477287,
                    -0.8514983382969626,
                    0.9528477258057942,
                    0.9499028387968219
                ],
                [
                    -0.46290973306774913,
                    0.7182475787463843,
                    0.9374876677596787,
                    -0.10639499032239944,
                    0.4456007308463904,
                    -0.971648395028689,
                    -1.866422785367358,
                    1.2836003156332452,
                    -2.2476903390771112,
                    0.07675868526129062,
                    1.6539657178897957,
                    0.19320309330190574,
                    0.8644108252217477,
                    0.041510796500066734,
                    0.8827577942623331,
                    -0.7164978869704368,
                    -0.5486772084009299,
                    -0.37387753294651604,
                    -0.36088045122813095,
                    -0.33314136469702416,
                    -1.351365652078573,
                    1.4862004416767725,
                    -0.30350834788895226,
                    -2.0280304320141864,
                    1.8450888630049262,
                    0.7959714692637276,
                    0.48512987252639156,
                    0.9386272068569723,
                    1.6264805572978092,
                    1.6600198259449364
                ],
                [
                    -2.034966999494067,
                    0.791165048292752,
                    -1.208856361837842,
                    -1.7007559374787473,
                    -2.138600709417428,
                    0.25428723474463233,
                    0.23911272989037674,
                    -0.9212054262159188,
                    0.6595592075732643,
                    1.2331885374181202,
                    -0.6034923736280275,
                    -1.1307877478982817,
                    -0.576414420106884,
                    -1.256830850771625,
                    -0.46429159392158653,
                    -0.6404370538437248,
                    -0.2581683159147277,
                    -0.25617297191288796,
                    -0.721828495921297,
                    0.4855591233811999,
                    -1.2799763483773179,
                    -0.9379995918210237,
                    -0.9902444887517586,
                    -0.033434122583380285,
                    1.6085333030446027,
                    0.2338487333202614,
                    -1.1756339286375572,
                    -1.3990423146530702,
                    -0.08301545832549193,
                    0.9556942592182761
                ],
                [
                    -0.4673767773715005,
                    -1.5974099448361205,
                    -1.3405079170383964,
                    0.35876691755313844,
                    -0.46588370948997754,
                    -2.4934845815023543,
                    1.3674848242680102,
                    0.12162685232127804,
                    -1.3715178498843499,
                    -0.7701318562532137,
                    0.9918844659096089,
                    0.4312354214738174,
                    -0.9185470696350098,
                    0.12035774836942491,
                    -0.6684247945347376,
                    -0.22661666432459499,
                    -2.0294278303685407,
                    -0.997935727096913,
                    0.5774972953551644,
                    0.0041336858047210665,
                    -1.0474778284167605,
                    -0.1966140193791179,
                    -0.2686839083633773,
                    0.8468998008230152,
                    -0.7269134255844701,
                    0.24807729338510867,
                    0.011384300836722133,
                    0.27159741961632206,
                    0.46084738194054825,
                    0.06895230485420092
                ],
                [
                    -0.1233867229552907,
                    0.3913649914375016,
                    -0.2523198410956308,
                    -0.2998701741958201,
                    -1.1886853926870333,
                    -2.803513234363185,
                    -0.8615546907516265,
                    -1.003105861714551,
                    -0.9062903423048021,
                    0.75434343451421,
                    -0.9703797081248567,
                    -0.6534359190846036,
                    -1.1619835609631066,
                    -0.9098258451649822,
                    -0.19249723486963569,
                    0.12024258293176701,
                    -1.0829746727383014,
                    -0.7809576878212863,
                    0.9219636308589119,
                    -0.880003088015575,
                    -0.0025033062333782146,
                    -0.2335679101898982,
                    -0.1970766199794041,
                    -1.1037369931195296,
                    0.04618677508680951,
                    1.9291475570247274,
                    -0.6928245354073411,
                    -0.41921524236271984,
                    -0.06440462866870651,
                    0.6307197355451465
                ],
                [
                    0.3085446210090434,
                    0.8739215632390074,
                    -0.15680070602473614,
                    -0.5925166401252434,
                    -1.113514766260434,
                    -0.19936379165493714,
                    1.088649053699763,
                    -1.7858360531312785,
                    1.6138822014044552,
                    0.2131454415374764,
                    -1.0083824513135056,
                    -0.0592416731671815,
                    -0.858019272385587,
                    1.2376021727133852,
                    -2.089833306855572,
                    -0.17762613483421189,
                    0.7477028216031055,
                    -0.2680855593095807,
                    0.07705067178464493,
                    -0.1319313079759517,
                    -1.5874701415728765,
                    -1.3140288274614806,
                    -0.3285652426882491,
                    0.5929862613125118,
                    -0.6735649454725268,
                    -0.13727835067775873,
                    -0.7861649492816332,
                    0.6964853601462624,
                    0.4062749148449578,
                    0.5673665479652557
                ],
                [
                    -0.47610619440480034,
                    0.5955914079206915,
                    1.146761302071486,
                    1.035257479165428,
                    0.03709194290379745,
                    1.4865324416128032,
                    0.19608447496197778,
                    0.3823497060661156,
                    1.1513816301614543,
                    -0.3905409323103302,
                    -0.05617502252752095,
                    0.575190087995116,
                    1.320733303348323,
                    -0.2152415140693619,
                    -0.07173622308335464,
                    -1.5964770753522566,
                    -2.076488719467481,
                    -0.8436593806299519,
                    -0.3625485177056306,
                    -1.1795886982626296,
                    -0.22879178303920955,
                    -0.6863049742943356,
                    -0.19431114613286968,
                    1.2436760003284277,
                    0.33829340122991874,
                    0.7859256677639307,
                    0.37476506822399175,
                    -1.0046916148482066,
                    2.108550250707925,
                    0.3096503381115952
                ],
                [
                    0.256931404144287,
                    0.48240042821606044,
                    -1.810055799989748,
                    -0.15864662832967436,
                    1.4509323460598167,
                    -0.543634877906469,
                    -3.229473382299357,
                    0.9774923558339432,
                    -0.9157344356378521,
                    0.607911893915356,
                    0.09732382041973908,
                    -1.191454396580376,
                    -1.452868553045712,
                    -1.1077185337695776,
                    1.5847094827262618,
                    1.0457697008520042,
                    0.1912695968329367,
                    2.828560119666127,
                    1.1848934922604029,
                    -1.5543077392057392,
                    0.5134811904270254,
                    2.2530643230458707,
                    -1.6852740523301832,
                    0.0529767972575495,
                    0.2035353247563508,
                    0.30280303959539434,
                    0.144441171101979,
                    -1.1889682011761384,
                    0.11920022562982288,
                    -1.7990099185050104
                ],
                [
                    0.5170626612907578,
                    -0.8822308304600702,
                    -0.759594919778986,
                    1.7129852501436205,
                    3.1486859787152746,
                    0.2896362796121137,
                    1.2563171692802746,
                    0.9515674657376976,
                    0.7175551398645964,
                    -1.3923657353825194,
                    -0.41291293875335217,
                    -1.3614408587657558,
                    -0.6530409942076327,
                    0.6482521724767876,
                    0.8393048641988962,
                    -1.151406790452762,
                    0.975299340974594,
                    -1.017544890567621,
                    2.1625966130867895,
                    0.20681281282955633,
                    -0.4939388631028601,
                    -0.9920986864817319,
                    -0.5768291580870045,
                    -0.2681433769760007,
                    -0.009528824154943773,
                    0.7602963408917387,
                    -1.894561424017836,
                    -2.1069768199185357,
                    -0.1600428984553144,
                    -1.323748934044952
                ],
                [
                    -1.5149829946405056,
                    1.3267390046233472,
                    0.2618289802975726,
                    1.8512133312963146,
                    -1.4941922251514819,
                    0.6572336730922005,
                    1.4327207004310318,
                    0.2539373289697881,
                    1.0791457304142675,
                    -0.020574034465160023,
                    -1.117327876835629,
                    -2.8444835925336833,
                    0.11535370415645657,
                    -1.5646370415107964,
                    -0.9251521325825809,
                    -0.3321798791178283,
                    -0.40094338834276305,
                    1.9610809900084412,
                    1.0395094516967687,
                    0.9296345939156441,
                    1.0002722781013664,
                    -1.346232789227665,
                    0.6738495975842757,
                    0.04166128262816492,
                    -1.00992115753045,
                    0.5980282390828473,
                    -0.027497398990081558,
                    0.15099207222950922,
                    2.0013507297258246,
                    0.023519212461551493
                ],
                [
                    0.4358549733384764,
                    0.18808397579103092,
                    -0.662100278439463,
                    -0.14005301234853798,
                    0.27549326508958255,
                    -1.7271402037618633,
                    -1.5479141037118,
                    -0.27418324718114545,
                    -1.3710018489248301,
                    0.23906786556019133,
                    0.6357706520561529,
                    -0.5938018980912061,
                    1.3906379695733473,
                    1.9360315327446167,
                    0.5632416642398449,
                    1.7355299129618518,
                    -0.8058161747601222,
                    0.8904790537740377,
                    1.253384406687051,
                    -0.5369541955921678,
                    -1.6171090235948262,
                    -0.0700172676048556,
                    0.11430567036260353,
                    -0.7369062312573403,
                    -1.9906938190669057,
                    0.3759056303266327,
                    -0.4450838025632576,
                    0.5173592586148815,
                    0.5783710690574353,
                    1.9774268595106537
                ],
                [
                    -0.23018261226959102,
                    -0.9166279030260612,
                    -0.544564716719389,
                    -1.21630932621915,
                    -0.00909638338300939,
                    0.17628396241525962,
                    -2.13011704135221,
                    0.7070149019079599,
                    -0.9410309139808294,
                    1.630265046014107,
                    1.2420149889356713,
                    0.3748647803768831,
                    1.685697481732978,
                    -0.5249808293344449,
                    -0.4763200491601039,
                    0.938749089598485,
                    -0.10136505745809492,
                    0.9109341412852129,
                    0.17092788152683847,
                    1.3699688029855341,
                    0.5581609590466634,
                    -1.7691059397329176,
                    -0.07935687754760352,
                    -1.9258158826107081,
                    1.005711483023814,
                    2.6613619152123142,
                    -0.6343258481032112,
                    -0.3654666886479724,
                    -0.10644567453881718,
                    -1.4534874061770797
                ],
                [
                    1.3886383648684135,
                    -0.03495645380641571,
                    1.7582260736303983,
                    1.5066824411622148,
                    -0.7569713488404379,
                    -2.005211474507755,
                    0.7828725379432576,
                    -0.7415242490670059,
                    -0.5766508090712236,
                    -0.7255020546479979,
                    0.4524115988333846,
                    1.3589258744775967,
                    -0.8566963407553335,
                    0.9761122232853442,
                    -0.5571776393148101,
                    0.37677321452736007,
                    -1.214062091026185,
                    0.7604202654814615,
                    2.3109310620583567,
                    1.11327642430253,
                    0.14270683447017518,
                    0.7114671591369058,
                    1.2906318062167736,
                    -1.0748101110389277,
                    -0.9160874588306572,
                    0.4717496263955151,
                    1.0906872460423398,
                    -0.047291999249563205,
                    0.21949639687258182,
                    -0.3281045259290264
                ],
                [
                    -1.7477547232044595,
                    -0.6018806552064417,
                    0.9973443848902078,
                    -0.8413302473808405,
                    -0.9009980375901439,
                    2.1266203789113374,
                    0.5144306937567025,
                    0.3030631370370026,
                    0.5421547741667722,
                    1.168392907112047,
                    0.9034970312102297,
                    0.8803901594058171,
                    0.3105000660485373,
                    0.9232520374807616,
                    0.43335966530025916,
                    -0.21990789641926708,
                    1.9175214749206022,
                    -1.077739196350979,
                    -0.3210325220723823,
                    0.43037803199046537,
                    0.14471039110273426,
                    -0.22038330642815648,
                    1.4240267218231275,
                    0.865240980348258,
                    0.3584593667753739,
                    1.992271859562699,
                    0.05908318222081232,
                    1.3037134197747566,
                    -1.4391707059982297,
                    0.46874491779953315
                ],
                [
                    0.8118188622757972,
                    0.4254774419345105,
                    -0.10519660874914388,
                    0.5978182828958437,
                    1.138113376184078,
                    0.4005194038534724,
                    0.6547282132213988,
                    0.07675114461621721,
                    2.1311772796795916,
                    1.0951133025949384,
                    -1.939799014360067,
                    -2.010238442357909,
                    -0.42966079819206654,
                    0.7820493164872274,
                    -0.4974820350584339,
                    1.0865867335540635,
                    1.1140747935519058,
                    -1.4486268308123085,
                    0.5332097376005701,
                    -0.22254266314031773,
                    0.6160456553356827,
                    -0.27248587286190407,
                    0.9917931741956602,
                    -1.4843461581711899,
                    -0.6891464832751623,
                    0.25680254429882754,
                    -0.8721885631129684,
                    -0.7865460700593869,
                    -0.4525922209763245,
                    -0.5107192060767387
                ],
                [
                    0.15491688753091276,
                    -0.7105577682037263,
                    2.8468243398777955,
                    0.8184409214071214,
                    0.1686842290332442,
                    0.07923679895216067,
                    2.4312273124896335,
                    0.11245042864271787,
                    -0.4887292986467354,
                    -0.6227230780966683,
                    -0.09074879732027086,
                    0.5301927195138437,
                    0.6002774159527061,
                    2.1340063085686825,
                    1.5050894882587356,
                    -1.02604407272611,
                    1.0797749049508023,
                    -0.47440546489634594,
                    -1.56862346015363,
                    -0.39999101076607174,
                    -0.827476166349421,
                    1.8044210814369182,
                    0.8134294369011938,
                    0.3783950614775812,
                    1.7450103880187542,
                    0.3821216413408811,
                    0.1551252172045508,
                    -1.1634269902138183,
                    -0.3500825794621951,
                    -0.22790497765453888
                ],
                [
                    -0.7582588506360166,
                    0.21176215013537963,
                    1.8210883624265568,
                    1.312921868708255,
                    0.7546591053668055,
                    0.39774048364575904,
                    0.14625452815788897,
                    -0.16976259681111772,
                    -0.10451997332447906,
                    -0.5634101663612328,
                    -0.42303597216665806,
                    1.4921067402397723,
                    -1.2910701209412907,
                    -0.8672495460166252,
                    1.8418684793580973,
                    0.5451106096650967,
                    1.6137657218199022,
                    1.1004130119477626,
                    0.2577913474974043,
                    -0.5008481591366286,
                    0.634239222386725,
                    -0.9828519625565006,
                    -1.1933018474246737,
                    0.3863618422829528,
                    -0.632081418294944,
                    1.076069938484917,
                    -0.32420338053496817,
                    -1.6079440187886538,
                    -0.5368604455967706,
                    -0.22011114560528303
                ],
                [
                    0.23608487079502155,
                    0.9362230024156346,
                    1.079048662998412,
                    0.7810981193081015,
                    0.6620066944630981,
                    0.9207208330182136,
                    -1.8889195020555807,
                    0.27499279927518433,
                    0.11948613374034099,
                    -1.4642058061638756,
                    -0.09795422469293605,
                    -0.7893425227403378,
                    -0.5434550934115635,
                    -0.602173678204844,
                    -2.025401534594246,
                    0.2932720493656072,
                    -1.5468984216979107,
                    1.2597457726815682,
                    1.6841362313330595,
                    2.898884337751665,
                    1.4791457673959219,
                    0.2551619385282795,
                    -1.3720982496260261,
                    0.6450762756065644,
                    -2.15497330939895,
                    -1.1780781754920528,
                    -0.5343569975242145,
                    2.1554317827724607,
                    -1.2333337832983537,
                    -1.8837018757511166
                ],
                [
                    -0.10127794118367688,
                    -1.454175260902231,
                    0.10270982860545472,
                    -0.8836207326785805,
                    -1.0384358434923873,
                    0.4820394814135346,
                    -0.14552201916376012,
                    0.2087459736232887,
                    0.17220815463215705,
                    0.5207604154977852,
                    -0.665397153026543,
                    2.2415398088463254,
                    0.6270006931070852,
                    -0.11595784559495974,
                    -0.6786768212512972,
                    1.1274697966094969,
                    -1.8230265451920662,
                    1.0002997647269765,
                    0.8106135915528415,
                    -0.8313891994934466,
                    -0.3638551750668127,
                    -1.7863532702110192,
                    -0.8900549227453146,
                    0.12071835907516024,
                    -0.022133654748887517,
                    -0.5461597975190617,
                    1.4180073820954662,
                    0.9243700635778869,
                    0.31823981133037127,
                    -1.3781095406124584
                ],
                [
                    0.2836463096482711,
                    -0.645054819341782,
                    0.7604935276786826,
                    2.3482249003903517,
                    1.145443883361311,
                    1.7477439221972977,
                    1.0334254041392146,
                    2.206451293670365,
                    1.941594372685681,
                    -2.0848609353467866,
                    0.9195764317041092,
                    0.800396696774567,
                    -0.9929736793307908,
                    0.2727143346699566,
                    -2.256762597407982,
                    -1.6929452809185328,
                    -0.44241598187448744,
                    0.8908591351450235,
                    -0.4890879726220365,
                    -0.2390973996028842,
                    0.8800684727494766,
                    2.8040398220206804,
                    -0.19898035207080988,
                    0.2762660967579768,
                    1.7598065428390854,
                    -1.851622890193822,
                    0.13321619146162034,
                    -2.4195843858049315,
                    0.5245972276336617,
                    -0.3955962737038553
                ],
                [
                    -1.0788638684021423,
                    -0.28122644869827174,
                    -0.5500965040580961,
                    -0.9455227106114784,
                    1.092278823569995,
                    -1.2527436484142558,
                    2.175598820720019,
                    -0.03289157066798,
                    -0.5613064659834069,
                    0.8343408400825777,
                    0.8393736676920768,
                    -2.1327889965565046,
                    -0.04905481024962857,
                    1.7049582641253493,
                    1.042077389952444,
                    0.36963520412311757,
                    0.5074728063226125,
                    0.3585194286127019,
                    1.0402262299515135,
                    -0.7323859088642144,
                    0.2666685782261533,
                    -1.2916304934836995,
                    -1.9499990121681732,
                    -0.8270882588572813,
                    -0.95758472075234,
                    0.1724298815715736,
                    0.5340324653741432,
                    -1.032685787512083,
                    0.37421092388266836,
                    -0.34428101802881167
                ],
                [
                    -0.6370233763047428,
                    -0.3249621780158261,
                    -1.2893466480937175,
                    0.4213363226023991,
                    0.5061558393432963,
                    -2.0946289858627787,
                    3.6479569345352827,
                    0.4669070936060382,
                    -0.5304183421229639,
                    0.12345705932072668,
                    -0.009271510105041056,
                    -0.09144032382561737,
                    1.474109578140746,
                    1.9740230495150324,
                    0.7083976603482092,
                    0.44308086777768174,
                    0.8429725869550199,
                    1.1671912203109687,
                    -0.36799280283488284,
                    0.12982622750758913,
                    0.2649153381453465,
                    -0.5901245666467118,
                    -0.17704513670653715,
                    1.472055224947477,
                    1.0184526644300829,
                    -0.8463135327596544,
                    1.6857977464257463,
                    1.0644846848329432,
                    -0.5660990553117743,
                    1.8731532828064137
                ],
                [
                    0.542521191668608,
                    0.217699677745534,
                    -0.779298258175347,
                    -1.6409333124235488,
                    -1.6861136793295788,
                    -0.10177917974215174,
                    -0.6707615322126333,
                    1.1988753084690942,
                    -1.1819212363358405,
                    0.5624232387873509,
                    -0.012675346849660554,
                    0.2038279633321953,
                    1.1742538828639593,
                    2.5754062714020036,
                    0.8036081360538809,
                    0.18151368546034582,
                    2.565297055491178,
                    -0.37864241854153335,
                    0.6254113638088438,
                    -0.6378745291039116,
                    0.5037941945572142,
                    -0.7393203045479224,
                    -0.8350619032276182,
                    0.8182555210550821,
                    -0.6842227800680168,
                    0.1850193724618623,
                    0.9821006640339371,
                    -0.4305684860411381,
                    -0.5100536762505707,
                    -0.9777600263041389
                ]
            ],
            "function": "sigmoid"
        },
        {
            "input_size": 30,
            "output_size": 8,
            "weights": [
                [
                    0.5691391292732665,
                    -2.1838496839909234,
                    0.4544022824757213,
                    -0.6930359945257393,
                    0.5340490292454967,
                    1.6557166436768789,
                    2.617351490718197,
                    0.7254086836241054
                ],
                [
                    0.12036368539965192,
                    -0.9008030181921113,
                    1.147726162851869,
                    2.1107148951594006,
                    1.263170705523201,
                    -0.3427599893323445,
                    -1.0014341999666725,
                    -1.3889815490999349
                ],
                [
                    -0.6398897802523853,
                    -0.4913535818341611,
                    1.355597371851234,
                    1.3291399737751735,
                    0.5091816611108257,
                    0.9334601460053079,
                    0.9235305904980968,
                    -0.9791526421061953
                ],
                [
                    1.2424755317014164,
                    -0.7695112867375725,
                    -0.10848093519800908,
                    0.3088590976741128,
                    0.9181855750496208,
                    0.46880706064376354,
                    1.0608079305291376,
                    -0.9612116444036493
                ],
                [
                    -0.16341514801823095,
                    1.5303499404366865,
                    -0.28210082705654205,
                    1.131190781949674,
                    -0.38779415231469366,
                    0.7331791018239194,
                    0.7378351865641647,
                    -1.703807923154143
                ],
                [
                    -0.16120637317535808,
                    1.3008384916045461,
                    -1.0949834534183942,
                    1.9570085975526998,
                    1.274864940265787,
                    -0.600782520729646,
                    -0.45285582738039676,
                    2.1882762679377796
                ],
                [
                    0.826460201865925,
                    -0.6050598781811162,
                    1.8722402775017872,
                    0.10827600908455644,
                    0.46929080815388957,
                    -1.2505118788595169,
                    -0.7366021701852078,
                    -1.1492635176224213
                ],
                [
                    1.0843745947583712,
                    -0.04565580232415191,
                    1.319049774381497,
                    -2.1036396077258077,
                    2.014271051552322,
                    1.2179335391031476,
                    -0.560169407664875,
                    -0.3129065605636719
                ],
                [
                    0.6355640017114856,
                    -0.052544242443859274,
                    -2.7251125782904118,
                    1.7392141172914393,
                    1.375038224127073,
                    0.037709307374293684,
                    0.7559719780758418,
                    0.9499248416648948
                ],
                [
                    2.452024356499301,
                    -0.9379063431537026,
                    0.15784233525085162,
                    -0.7925327289368509,
                    1.346794705292878,
                    -0.21996390430548857,
                    0.13332694600789877,
                    -0.9088250753347821
                ],
                [
                    -0.2697137481950263,
                    -1.1781143698912062,
                    -0.7624570034368802,
                    -0.32480668306934823,
                    -0.41392853607887226,
                    1.2786943356973972,
                    1.1691470617101762,
                    -0.24650702620665582
                ],
                [
                    2.019515211428751,
                    1.4877114671336893,
                    -0.8943686890878655,
                    -0.00346093544820103,
                    0.784308043741863,
                    1.041012357222284,
                    -1.3441503439922184,
                    -0.6900908027146704
                ],
                [
                    -1.2964043817936604,
                    2.551242146082404,
                    -1.6310037549196064,
                    -0.8314086358573185,
                    -1.3969097123555294,
                    1.2460276856972126,
                    -0.050893494921061634,
                    -0.16847122903679354
                ],
                [
                    1.5264955879284494,
                    -1.918432745126282,
                    -0.40935858439103745,
                    -2.629270486601205,
                    0.34683313483152167,
                    -0.7621067841911671,
                    0.8012735606292233,
                    -0.7312559724084003
                ],
                [
                    1.1383767195237517,
                    -0.2766126532643697,
                    -0.4727760015775724,
                    1.541363125025947,
                    -0.027597825816369263,
                    0.5180042281609866,
                    0.7471886813447893,
                    0.18918478469009503
                ],
                [
                    0.27576281611569764,
                    -1.8050555571814342,
                    0.5084427487079044,
                    -1.9378779740255123,
                    0.0012199548237563588,
                    -0.7865022430389983,
                    -2.6073715918300704,
                    1.4266435130364348
                ],
                [
                    0.34491666999328224,
                    -0.8705211271839997,
                    -0.035405852914405775,
