{
    "name": "UniformBrain",
    "layers": [
        {
            "input_size": 15,
            "output_size": 50,
            "weights": [
                [
                    0.09132849023481415,
                    2.3097630779838494,
                    1.4930407073460197,
                    0.5441129773429288,
                    -0.4557903752206965,
                    2.272361717604924,
                    -1.006567256615321,
                    -0.37694942525662206,
                    0.9567108245360735,
                    0.8336268153084321,
                    -0.25141350844204524,
                    -0.2080903038908158,
                    0.759628638025088,
                    -0.8495831115027848,
                    -1.63549777026788,
                    1.740668882769376,
                    -0.0745344584116659,
                    -0.859894015643709,
                    1.7146583013593744,
                    -0.5176423250072961,
                    0.19583741604987287,
                    0.23991750285215593,
                    -1.474829362637066,
                    -0.36763281223578304,
                    -0.5742066590871276,
                    -0.6624038400306057,
                    -1.6099098185416783,
                    1.0202968915735287,
                    1.4435072566413385,
                    1.0816615865389152,
                    0.41748519854764965,
                    1.4703015505213042,
                    -1.453965910085362,
                    0.2742389282507706,
                    -2.026561052944541,
                    -1.4549205489842005,
                    -0.5977080910498866,
                    0.13498742939174077,
                    -0.20713646146080011,
                    -2.195217697474018,
                    0.7128093404781539,
                    -0.8351720883629863,
                    1.8163076588135667,
                    -1.5141857147129592,
                    0.32542310619214365,
                    1.144351993258474,
                    0.7185137534748753,
                    -0.4411145010895307,
                    -0.7681950405410125,
                    1.6586028689018348
                ],
                [
                    -1.9368016976328881,
                    -0.03844860949256857,
                    -1.2520095512465617,
                    -0.44435677342838686,
                    -0.1670223074170948,
                    -0.6214240885037139,
                    -0.4986491218900432,
                    2.582384977789423,
                    -1.9572061955675646,
                    -1.661959273323484,
                    -1.161859888661576,
                    0.10915376485296263,
                    1.1000423233476266,
                    -1.1909685814537432,
                    -1.30211371883186,
                    -0.05457842573902055,
                    -0.11344364190253461,
                    -0.09185868501982994,
                    0.2687748914666117,
                    0.41373561288155347,
                    1.13282545037111,
                    0.26524449643702497,
                    0.5305236226725619,
                    -1.1657922667186242,
                    -2.1587677813421173,
                    -0.8515253642803732,
                    0.22561826689323838,
                    1.9535778175892182,
                    1.229052214454842,
                    0.42794490142585384,
                    1.0098049359548873,
                    -0.3644066724266527,
                    -0.5151277399762137,
                    0.06797611563615785,
                    1.3303947765800148,
                    -1.5679454728079605,
                    -1.471110504836682,
                    -0.1919871623339796,
                    -0.9047319203244553,
                    -0.8307210038163126,
                    0.5618583312527456,
                    -0.3294228774182557,
                    -0.15800347184865615,
                    1.0682192874905314,
                    1.9294017378777666,
                    0.27274993232983963,
                    -1.1704332310136745,
                    -0.7523666911899556,
                    0.26590508540369445,
                    -1.446459762917952
                ],
                [
                    1.5288191953344883,
                    0.19690064553116884,
                    1.2740940744234943,
                    1.5823220700539764,
                    -0.024444813831088614,
                    0.3877915248330525,
                    1.7686380084655213,
                    -2.7420478941410424,
                    1.2603299444683425,
                    2.598176532770904,
                    0.16041433598629518,
                    -0.9321357610138993,
                    0.7780553154277203,
                    0.556508147723587,
                    -0.45806847262864203,
                    -0.9719286028851702,
                    -0.72233850178135,
                    0.04756192139042345,
                    -0.8983510565591549,
                    0.4311810495546059,
                    -0.8124452203368969,
                    -1.5561870039046277,
                    -0.38693889973092727,
                    0.2228037177040536,
                    -0.7715290009371909,
                    -1.9393889167613982,
                    -1.0971745432523772,
                    0.4497306641009855,
                    -0.7007042140884014,
                    0.25446184902164165,
                    -1.2472982368162764,
                    0.7627419898557276,
                    1.0514635173122946,
                    -1.9945080541820486,
                    -0.36544423839969287,
                    -0.03355251613002323,
                    -0.7388109484667078,
                    0.7452114293485668,
                    0.7971850267605054,
                    -1.5015193831650666,
                    -2.183148005504201,
                    1.0613321938674576,
                    0.30789651082178005,
                    1.3165441599927443,
                    0.20405189580651173,
                    0.16150285580014712,
                    -0.006908981436856873,
                    0.19051741863380825,
                    -0.6160813046614233,
                    0.005822522160038301
                ],
                [
                    -2.7754668590419893,
                    0.8917977246540852,
                    -0.11055565916722124,
                    -0.9156505046821599,
                    1.193191569123969,
                    -0.39702444386733216,
                    -0.5804540119309379,
                    -0.5166950343236831,
                    -1.3742485393221124,
                    0.19920545942103846,
                    -0.06697118700577626,
                    1.6426257003742712,
                    -0.6706735891727356,
                    -1.8400073939036647,
                    -0.22455933798204442,
                    -0.5035807458055508,
                    -0.36614206752774725,
                    -0.9174607952239084,
                    -2.1330136373879665,
                    -0.3207649032679235,
                    0.8264400413502717,
                    -0.9652122432163931,
                    -0.329601912120965,
                    -1.1929312858243566,
                    -1.2851230785626577,
                    -0.1444844407648383,
                    0.2610272329447462,
                    0.5430134751278393,
                    -0.2779848159335605,
                    -2.074700730189223,
                    0.8222127794832056,
                    -2.576615685899474,
                    0.19869890973301196,
                    -0.005029645031050495,
                    1.2743398618990343,
                    -0.6436782356617755,
                    -1.7733685383335291,
                    -1.2485497438089062,
                    0.0833156231427648,
                    -2.3437620331005036,
                    -1.2873771701559609,
                    -0.8705134632684322,
                    0.012894999682852765,
                    0.6260657219318375,
                    -0.25194540330502335,
                    -0.9942887770534573,
                    0.18613372601255018,
                    1.294107889224416,
                    0.0818331414945393,
                    1.150721815203431
                ],
                [
                    -1.0184780771298736,
                    -0.5706187986366252,
                    0.4342982198023031,
                    -1.315515468804293,
                    -0.4640235740658803,
                    -0.49848930438300404,
                    1.2791448541499852,
                    -1.598270650450384,
                    -0.43130291549086575,
                    0.6015821433410437,
                    -0.34917911926934403,
                    0.3122467891139867,
                    -0.5662432304652909,
                    0.5076359048576718,
                    -1.332747457034198,
                    -1.151732395806422,
                    0.8540343123725774,
                    -1.0216899836874855,
                    0.0012863918543783992,
                    1.1101114835764372,
                    -0.7649286346576148,
                    -0.9319727752245639,
                    -0.4677999601642704,
                    0.7811064693042642,
                    0.9953497457945865,
                    0.05251022294675095,
                    -0.7538752913873616,
                    0.4516942789974193,
                    -1.391369547445917,
                    0.0974753577133855,
                    0.584658765784796,
                    -0.03574308362821884,
                    1.1704466535752356,
                    0.21505591088164305,
                    -1.2092062804914847,
                    1.2180011858662123,
                    -0.8081561733128064,
                    0.0682369342673372,
                    -0.1255102970378469,
                    -1.670110656545125,
                    -0.6370446252656009,
                    -0.577287660102559,
                    0.3990288578044765,
                    -0.0491480322713838,
                    -0.23884231856095317,
                    -0.36439888978444646,
                    -1.1573636311148028,
                    -1.1863469477750948,
                    0.07939923942102481,
                    -0.2890320809325843
                ],
                [
                    -0.4592247977534533,
                    1.65626554364262,
                    1.3339765396377188,
                    1.4108837350905028,
                    0.8852170511070546,
                    -0.590418007485144,
                    0.6362044756420097,
                    1.5164948587363658,
                    -0.21109322064721373,
                    0.459070193710297,
                    -1.6697392572262384,
                    0.7964169776435076,
                    -1.1420580350136962,
                    -0.9216009712847241,
                    -2.631325379400748,
                    0.8648427372677293,
                    0.4080345670254396,
                    0.41954345253127623,
                    -0.8983521060436953,
                    0.9114627598113548,
                    -0.011544356517084742,
                    0.027306169841519727,
                    -0.360602401507479,
                    -1.2052364249613003,
                    0.06327555615250419,
                    -2.2203658515007607,
                    1.2854684180791522,
                    0.562831682394134,
                    -1.79669930674117,
                    -1.3314999719147669,
                    1.0470604081953336,
                    -0.5293046362424243,
                    0.05361928844415948,
                    0.7285108285880081,
                    0.34635619587555416,
                    -0.10676186183693329,
                    -1.4153759766783909,
                    0.6134725798478853,
                    -0.9456194108813012,
                    -0.9937359110297626,
                    -0.419176520105382,
                    0.38856038211279686,
                    0.6182731568192166,
                    0.09185838459301576,
                    0.8010935129182646,
                    0.013318986438584887,
                    1.3416879637380934,
                    -1.4231407662161577,
                    2.3381474800232698,
                    0.727332633654222
                ],
                [
                    0.6800454322784838,
                    1.415467735477715,
                    -2.042379838634021,
                    0.47530243298704833,
                    -0.8154902617467243,
                    1.3141854237170583,
                    -0.2876685007394473,
                    -0.6186770622897875,
                    -0.7572253802074811,
                    0.9487653879572411,
                    1.5668506527179316,
                    -0.7332617058262041,
                    -0.5877602338709798,
                    -0.5813642451695961,
                    0.3118968264115738,
                    0.8375509936588029,
                    -1.7789664571530495,
                    -0.8054865170091272,
                    1.703778911587753,
                    2.0416969147822437,
                    1.1656736751224193,
                    0.9176609929455419,
                    1.264528418264113,
                    0.8834684835487779,
                    -0.2322466260745223,
                    1.4256877293785968,
                    0.7663910926059994,
                    -0.6589574490689155,
                    -0.5641058885307912,
                    0.7749581520058939,
                    -0.05139512880326043,
                    0.6073238765538755,
                    -0.06273108960359741,
                    -1.5374172260218588,
                    -0.20980103738582812,
                    -0.6510119892225894,
                    -0.1224941361295074,
                    -0.0662589618395995,
                    1.0958670243661233,
                    -2.0552189919205146,
                    0.9490371283959457,
                    0.4965169805357916,
                    1.3285570345231952,
                    0.6747507809308948,
                    1.4148683049052928,
                    -1.0477970274663078,
                    1.136244037637991,
                    -0.4384200681430058,
                    0.39446250482391,
                    -2.431127175101946
                ],
                [
                    -0.52314437803866,
                    0.044521492046326466,
                    -1.2500227708002765,
                    0.8826754305937817,
                    -0.24057250671661862,
                    0.21662058449551144,
                    1.1960350372147919,
                    -1.978462994973925,
                    -0.7665411771442787,
                    -0.9149107071568144,
                    0.2735104250917936,
                    0.8152605401517383,
                    0.4320590183039069,
                    0.44901316166195215,
                    0.42117467352101895,
                    1.2285893377269554,
                    -0.7255228695489782,
                    -0.7704990527132395,
                    -1.8153109753340368,
                    -0.32402484206070475,
                    -0.7729039706894414,
                    1.8077676486655685,
                    -0.7088886336672765,
                    -0.036592886407754446,
                    -0.43856318690731233,
                    0.47142812424771086,
                    -0.30842865101040695,
                    -0.2187058494760084,
                    -0.20343166765853596,
                    2.171714310669966,
                    -0.014373345178962962,
                    0.7771175588305195,
                    2.463907805375651,
                    -0.7348998254198398,
                    0.8359932520991515,
                    -0.9153954082280967,
                    2.092793911186497,
                    0.800403842804536,
                    -1.634269847881555,
                    2.136682411199161,
                    -1.1360237127551376,
                    1.0203266341416288,
                    0.06633723720999161,
                    1.9794913746448015,
                    0.7283552106420799,
                    1.074255480228979,
                    -0.49482971143826304,
                    0.7384033183489795,
                    -2.151645806950115,
                    0.6008330917499535
                ],
                [
                    1.232805733094807,
                    -0.655475350863235,
                    -0.32661706870638085,
                    -1.421396111539213,
                    0.25114944227187136,
                    -1.0918620309386935,
                    -1.2616517822895648,
                    0.5010294427154474,
                    0.6083436506701436,
                    -0.6879383696107089,
                    1.247820322009761,
                    -1.152263643752434,
                    -0.6560281454474559,
                    -0.5118020319868924,
                    -1.435255837865025,
                    -0.7261315667377108,
                    0.3368094543689354,
                    -0.37663510635410985,
                    -0.9562624608534515,
                    -1.0207957024838101,
                    0.8999060240391489,
                    -0.8790617548307899,
                    0.3936631610021335,
                    -2.246269525165145,
                    0.4560220005605986,
                    0.5540553092481042,
                    -0.7824377719804739,
                    -0.8194104417773315,
                    -0.8936499781882699,
                    -0.8616956491866378,
                    0.6481808897820146,
                    0.053958454678039114,
                    -1.2167578808458122,
                    -0.4792058970843762,
                    -0.043482491762695724,
                    2.1995127106890604,
                    0.4168084141731404,
                    -0.16527416561693195,
                    -1.2091620777075354,
                    0.9472802512926262,
                    0.5713459511830469,
                    0.007708428436192065,
                    -0.81744830875618,
                    1.764191168836156,
                    -1.2632612395871239,
                    0.47792784283343076,
                    2.638244296753688,
                    0.36504051845516605,
                    -1.5358088310193352,
                    -2.2715380932313214
                ],
                [
                    0.39022711989557995,
                    -0.36054193312772304,
                    0.4822649919816485,
                    -1.0020977155357156,
                    -1.676829251972775,
                    -1.6222901831504692,
                    0.7539018569679133,
                    -0.890057320072539,
                    -1.5525644215330576,
                    -1.0740382498852883,
                    -1.2057681300858185,
                    -0.9715369240766635,
                    -0.9483609510159373,
                    -0.76332688203232,
                    0.462836536091444,
                    0.11212231664576602,
                    -0.9729621548083164,
                    -0.4310517020298301,
                    1.0957279506824962,
                    -0.45908074071342087,
                    0.9489525513474592,
                    0.01206474951598616,
                    -1.2364921665305841,
                    0.21247286295146608,
                    1.6956287830723404,
                    0.35611965095276377,
                    -0.9371251151987163,
                    -0.41888519565193616,
                    -0.5951541108349269,
                    1.6820073414480903,
                    0.5280338989896541,
                    -0.26753816544128983,
                    -1.81850613916442,
                    1.1311605262613327,
                    -0.6264376034711832,
                    -0.9151098870765908,
                    0.2419381825967745,
                    -0.2713471349985564,
                    -0.8614537920157679,
                    -1.9349849780005135,
                    1.8168575904852426,
                    -0.19503001541848958,
                    -0.14541292175555837,
                    2.0553631491479925,
                    -1.1769970589419185,
                    0.5143206590508606,
                    0.3642757701829159,
                    -0.6711204244605171,
                    1.2548751256748623,
                    0.16697016389413671
                ],
                [
                    0.7907237337357443,
                    0.30914487430570525,
                    -0.5276627193336402,
                    0.6996867932839554,
                    0.05658518977510109,
                    -1.250225763129419,
                    0.7201335066621634,
                    0.4807875476662122,
                    -0.8807019859327306,
                    0.22569817283495375,
                    0.2337225909159783,
                    -0.3990777263012389,
                    -1.2447111305319458,
                    0.36565086773409244,
                    -1.9367103426479455,
                    0.8013461282821999,
                    -1.3097626837711949,
                    -0.5120311356566638,
                    -0.8667170895440485,
                    1.3224874102856734,
                    -1.0452355333504355,
                    -1.184104016428018,
                    -1.2172115086150512,
                    0.1322168460549514,
                    -1.1942819433418204,
                    0.6577868716262105,
                    -1.516311899359503,
                    0.042831147725801655,
                    1.8285883551935327,
                    0.7207561283744737,
                    -0.3521925160515278,
                    0.9966734009196107,
                    -0.5664021249087243,
                    -0.7547644024299778,
                    -0.9681422790833323,
                    0.4534565638922212,
                    0.63478415813055,
                    3.1132159176736023,
                    0.7118966255786794,
                    -0.27746372008179904,
                    -1.6693559638334925,
                    1.0686761246163918,
                    0.4495162872856361,
                    -0.6599461192347499,
                    1.1515772578552326,
                    0.3066319952283651,
                    -0.5816701815504298,
                    0.14873456661470885,
                    -1.3847766467319957,
                    0.8488902277917989
                ],
                [
                    0.5866127770798708,
                    -0.15921450824998198,
                    1.0454563010847946,
                    -0.38775711320727246,
                    -0.18854922882920008,
                    0.3838807813702042,
                    -0.18759808087890337,
                    2.9170648242004438,
                    -0.3797532579644222,
                    0.7114188496197802,
                    -0.7221374417997617,
                    0.42071308217930814,
                    -0.5000131359656571,
                    -0.12046968093834579,
                    0.05697068268289274,
                    2.625931032158474,
                    0.7007371398790102,
                    -1.1664577761390436,
                    -0.5330796020383249,
                    -3.1820153947695657,
                    -1.8461520591277845,
                    -0.20539277104653503,
                    -1.5963847860622253,
                    2.1019759615563998,
                    0.8967508010247404,
                    -0.1364433690070599,
                    -2.15331237690978,
                    0.29926820349198036,
                    0.0509685259495422,
                    -0.49641872667407094,
                    -1.0949876682286637,
                    0.3459014184984379,
                    -0.4363830142655911,
                    0.45814716114013054,
                    -0.9880324637215451,
                    -0.6819094709783278,
                    -0.22571850719907366,
                    -0.30084835673515486,
                    -0.7213720332341116,
                    0.9815824934441877,
                    -1.323199682076215,
                    3.3308342366149097,
                    -1.8208377033502332,
                    0.3992303605909894,
                    1.595351016423847,
                    -0.3103059341873279,
                    -1.168903969502781,
                    -0.3334188417531234,
                    -0.1671062803314593,
                    0.16436228574696043
                ],
                [
                    2.2640783500952657,
                    -0.3605489550847012,
                    1.7958620312762847,
                    -1.7994074586758884,
                    -2.107433604034724,
                    0.079317139999522,
                    0.6772760935870968,
                    0.22016433559632292,
                    -1.0209878201103815,
                    -1.0645581221484288,
                    -0.3188129979640753,
                    -1.2681542165930084,
                    -1.0770160708644776,
                    0.9160055563423902,
                    1.8647140366830037,
                    -1.4883067557564293,
                    1.0980074031111804,
                    -1.6219350676926423,
                    0.7516271548591277,
                    0.939970039575502,
                    -0.19166099726752225,
                    -0.7044332719804169,
                    -1.7267389618601066,
                    1.8346857586252723,
                    0.6269447476017365,
                    0.16899943566277079,
                    0.7725251900620214,
                    0.3255346543394252,
                    0.07930107358279824,
                    0.7090310099986639,
                    0.013465960333523614,
                    0.054439635912079544,
                    -1.3868838968542032,
                    -2.4584652369637654,
                    -0.9078976929890221,
                    -0.0035787299115636606,
                    -0.16996424925611386,
                    -0.11333898351926835,
                    -0.3074414257715088,
                    -1.4400821879925039,
                    -0.20694803541681694,
                    0.11652018994186485,
                    0.07053508778457074,
                    -2.0213359425577053,
                    -0.6613908659887041,
                    -0.7973862486608829,
                    -0.44864379760863077,
                    -0.24771972989843066,
                    0.5570270565905336,
                    0.11862555127458514
                ],
                [
                    2.2791419271229003,
                    2.4422487360237497,
                    -1.2627498804865862,
                    -2.751567603307,
                    -0.5831069931749309,
                    -0.4000205816646906,
                    0.15773889403791422,
                    0.5578007892578482,
                    -0.21010191777475734,
                    -1.3129699727794917,
                    1.2087270099132688,
                    -1.4807924305328228,
                    -0.5184381071607866,
                    1.4572747716248602,
                    1.2048638685009458,
                    1.8638444987365979,
                    -2.126042212163356,
                    -0.536483086664346,
                    1.231637003702056,
                    0.6352233255327819,
                    -0.7404756365705053,
                    -1.21633022225014,
                    -0.09259560583624764,
                    0.9143775638349038,
                    1.0781602736131144,
                    0.13749270622539742,
                    -1.6613134929651543,
                    -1.257922208778919,
                    0.5584587529753848,
                    -1.3133106590632466,
                    -0.06651495770500912,
                    0.11628760035362021,
                    -1.2531722527618432,
                    1.5669015148234042,
                    -1.2532225467284674,
                    1.5658186476628964,
                    1.108280186699263,
                    -2.1313789458277808,
                    -0.9167487126203259,
                    -0.3753995808818283,
                    -0.09602343256649933,
                    2.672880862159756,
                    0.4885462073520131,
                    -2.0242128700113255,
                    1.0097190896601667,
                    0.23989844447265138,
                    0.30502448329590554,
                    -1.0059146583581011,
                    -0.2534529607435593,
                    -0.013679821373385206
                ],
                [
                    1.2774645796489488,
                    0.02713095034617785,
                    -0.47123368439937274,
                    0.8443028211501341,
                    0.2437193428473897,
                    -0.14725781798563226,
                    -1.383783610375293,
                    0.6648044212402253,
                    0.4944341291778297,
                    -1.6141159395498066,
                    -0.20076398553756436,
                    -0.37699532158170873,
                    -0.606700057739995,
                    0.10061869088876735,
                    1.605897671295685,
                    0.23526479798808675,
                    -0.731736541625118,
                    -0.21804936680132517,
                    0.140026187641567,
                    0.06390821298045236,
                    -0.14457525771897328,
                    -1.8280100727649593,
                    -1.773211006262242,
                    -0.5032591689678552,
                    -0.8474290609527073,
                    -0.15329854501783777,
                    -0.30999985814793307,
                    -0.020948221343787723,
                    0.36786423225877163,
                    -1.7911958740440266,
                    -2.4079856299866322,
                    0.24288813568671658,
                    1.3413127074348392,
                    0.9812949574671104,
                    0.16199792391861056,
                    0.29005006760185953,
                    0.0860571452162388,
                    0.9276156979924376,
                    -0.005742237823193046,
                    0.918337839634709,
                    0.7174396331753031,
                    1.011151359766735,
                    -2.83741209149294,
                    0.9364157810896698,
                    -0.7168870838486212,
                    0.16403657070382005,
                    0.9938042952649655,
                    2.4249426126806735,
                    1.6465880958818169,
                    1.163282018162496
                ]
            ],
            "function": "sigmoid"
        },
        {
            "input_size": 50,
            "output_size": 30,
            "weights": [
                [
                    2.188258601980124,
                    -1.070370063069657,
                    -0.7862999608713614,
                    0.34425913444087575,
                    0.5555448094689853,
                    0.6507767790636192,
                    -0.9846371827096351,
                    0.86949247361541,
                    -0.5395291306315972,
                    0.6344531169095406,
                    -0.00762518316028539,
                    -0.006052383463023267,
                    -0.14731591656073867,
                    -1.0178120174537908,
                    0.14974235651623868,
                    0.3110219874539975,
                    -1.0366416396966047,
                    0.47504846161109393,
                    0.27202209697579555,
                    -0.3409878385281195,
                    -0.16487607813955488,
                    1.5913725633587767,
                    -0.2127124515365581,
                    -0.15457489055340612,
                    1.878321124455541,
                    -0.8902047908775776,
                    -0.47812922990569673,
                    -0.5069601076405863,
                    -0.5095004531072261,
                    -0.8152260938653024
                ],
                [
                    0.7727675819631427,
                    -0.17518023792431642,
                    -0.8650130428976289,
                    1.0928432192729287,
                    -0.2840649747035442,
                    -1.9550756263019555,
                    -0.03161222453127206,
                    -1.6339120130750082,
                    0.3324279491906932,
                    -0.18571497858410502,
                    0.001477157238006505,
                    -1.3830324609821216,
                    0.5586030636444829,
                    -0.4577090786585134,
                    0.402430238303132,
                    -0.504412251572366,
                    -1.0882164074304181,
                    -0.22090450554370492,
                    -1.3904085241072304,
                    -2.200641020236212,
                    0.9462464053038313,
                    -1.9727954184733008,
                    0.22384616466678953,
                    -0.2650696601795319,
                    -1.002422576384279,
                    -1.30014844822752,
                    -0.6895048634058403,
                    0.6724375847912274,
                    -2.750519199858528,
                    -0.7139315726062085
                ],
                [
                    0.3745102723306604,
                    0.7106244306704743,
                    -1.587254518594181,
                    -0.7143137622010052,
                    0.843573801416046,
                    -0.8389216081257977,
                    -0.34341222561089946,
                    -2.4123740600642747,
                    0.06764232269839898,
                    -0.0936939099072157,
                    -1.473649931069897,
                    -1.0009324415841176,
                    -1.5260038920482775,
                    1.3281878983194277,
                    1.346736473753327,
                    -1.229535893728942,
                    1.8556195126569062,
                    0.7748395836323512,
                    -2.2094739508918266,
                    0.2943750493853767,
                    0.13557061863313388,
                    1.2983712776968763,
                    0.1223800472811727,
                    1.7825648318639602,
                    0.9525443381006377,
                    0.42511395273991426,
                    -0.39569156666221206,
                    -0.6474118777863659,
                    0.3587476467178049,
                    -1.3034436753888512
                ],
                [
                    -0.8872014885614553,
                    -0.6482347222785778,
                    -0.31328227106295625,
                    1.259585537639723,
                    0.44284865235934984,
                    -0.7980199033443955,
                    -1.4897573417474024,
                    0.14563866001109949,
                    -0.0810249540739846,
                    0.9502106256373676,
                    0.302021854172958,
                    -0.5303453178202183,
                    0.35965844558094323,
                    -1.7334858846709913,
                    -0.007243248551158744,
                    -0.6154948994550227,
                    1.39135691817242,
                    -0.7791634394882838,
                    -0.493019296378953,
                    -1.224929573623735,
                    -1.7219934018684742,
                    -0.32006673934683905,
                    1.768990503724899,
                    -0.1364291334323157,
                    -2.110004184449371,
                    -1.733178862444174,
                    0.8925960956941216,
                    0.20443416542323295,
                    1.9570183018322473,
                    -1.9561041432352948
                ],
                [
                    -1.3443148569787158,
                    -0.09343945305299826,
                    0.2873648281533623,
                    2.932258464423549,
                    -1.0970562882634938,
                    -0.42107565384252843,
                    -0.6304599862508469,
                    0.6788165549588233,
                    -1.7172591411449272,
                    -2.0518514624997737,
                    -1.811943458816135,
                    -0.8040213604965808,
                    2.33608440106356,
                    0.42907556266369196,
                    -1.1543047955223766,
                    0.3360234548208084,
                    -0.8792369715384165,
                    1.1633639482578992,
                    1.011461921041698,
                    0.9323924653832358,
                    0.22011883165933033,
                    -0.5000277287781165,
                    2.4440756616932275,
                    1.1918350293253488,
                    -1.8778570875146858,
                    0.599447914928221,
                    -0.33674052755109896,
                    0.5879638466935238,
                    -0.4287021119601957,
                    0.43765675311438373
                ],
                [
                    2.9939466178970995,
                    -0.27030154872404444,
                    -0.5418431170928689,
                    1.630684684508869,
                    -0.26761189487200343,
                    0.014874630657109936,
                    -0.07089595768705859,
                    -1.1010986968055323,
                    1.6987486989016354,
                    -0.1486663166250246,
                    1.1990290939523505,
                    -0.8067266029560705,
                    0.13024189728112118,
                    1.7549625321775155,
                    1.315485154811531,
                    -0.3661070824195675,
                    -1.2733186888750936,
                    0.5373130127847328,
                    0.253274525964637,
                    -0.29477955682040724,
                    0.959455099913777,
                    -2.33813933182665,
                    0.8102249919582393,
                    1.543569423670875,
                    -0.05527242937469369,
                    -0.7003275167210482,
                    1.7487291172102077,
                    -0.2677398047184579,
                    0.801223602115169,
                    0.37291936473721676
                ],
                [
                    -0.5820655258138238,
                    -0.11393076404237916,
                    -0.35568077343996063,
                    -1.049499938358811,
                    1.2222750927750716,
                    0.11417341929366304,
                    0.37539884164784965,
                    -0.5972856088525464,
                    -0.7601329152234234,
                    0.8301111270065052,
                    -0.7423838963502472,
                    1.8859388115581255,
                    0.35805230047434483,
                    -0.26513870172591825,
                    -0.9081583154989459,
                    1.1310743536664016,
                    -0.31032462941296646,
                    -0.8144351907207885,
                    -0.576048455894869,
                    -0.6561648368460286,
                    -0.14612171672431018,
                    -0.4428501242918468,
                    -0.4925573114810605,
                    -0.41731132509865954,
                    -0.5233093727030367,
                    -0.16845695419196877,
                    0.7095405185179031,
                    -0.11821118842763984,
                    -2.8546042975151598,
                    -0.35081409869176383
                ],
                [
                    -0.620571421740666,
                    -0.22558843409917365,
                    0.7391409975945208,
                    -1.3611340189972128,
                    -0.9485234761437776,
                    2.701824754357519,
                    -2.6658131363623148,
                    -2.427841313346839,
                    -0.8485895162325471,
                    0.3646383789676524,
                    0.020919317800801612,
                    0.2034114090769234,
                    -0.6024978148964911,
                    0.04070477280543847,
                    1.2184613538390685,
                    -0.7290520930301154,
                    -0.7853326513771028,
                    0.26759208055967815,
                    1.026864729321284,
                    0.558148440964691,
                    0.6025260212829543,
                    0.34677444158857434,
                    -0.3526077686952909,
                    -0.241819218896722,
                    -0.7417061276680686,
                    0.30073432719799503,
                    0.46015922085639716,
                    -1.0055553159634878,
                    0.638510739859034,
                    0.3460450104724578
                ],
                [
                    0.7951364051686599,
                    -0.445084333233948,
                    1.7091351787458413,
                    1.9131642552772081,
                    0.42426371311092836,
                    -0.9100901642488506,
                    -0.33486547167139274,
                    -2.3154321104834352,
                    -0.8845489392194507,
                    0.19603443178120794,
                    1.8031493156362728,
                    2.2705958455301976,
                    -0.8814515346396612,
                    0.9052074796140995,
                    0.4967188493630383,
                    0.861532469606046,
                    -0.23120596783979586,
                    -1.0056601683665096,
                    -0.13110822315473084,
                    0.9931311349257158,
                    0.30631999285530775,
                    -1.5930002518262718,
                    -0.10810697417079418,
                    -0.11988423976719641,
                    0.3010213899734346,
                    -2.815430417593806,
                    1.0596510698242683,
                    1.8082559295412413,
                    -0.35141075420648027,
                    1.0947816510389483
                ],
                [
                    0.6247574807555986,
                    2.0375330820554125,
                    -0.660248969734393,
                    0.19277573651471927,
                    -0.013350609132080471,
                    0.480176365997796,
                    -0.059251136853850056,
                    -0.6141980043734949,
                    -0.3055996238955162,
                    0.8711722419704931,
                    2.2754180417778724,
                    1.6865816450442237,
                    0.3937034203246805,
                    1.4074539325284174,
                    0.5000588805425671,
                    0.4902263265482288,
                    2.4827177679025536,
                    1.3943521280468036,
                    1.771091611618682,
                    1.0715669610480487,
                    -0.42315397178298536,
                    -0.8344580035481951,
                    1.0269421128029215,
                    -0.5328664321826961,
                    0.32572163756548533,
                    -0.003878180774969958,
                    -0.3455098560373946,
                    0.9681741388357971,
                    -0.9249551532351856,
                    2.165183441007825
                ],
                [
                    -0.3314608841494437,
                    0.6226045557144999,
                    1.6399915260035876,
                    1.7359902834177514,
                    1.4266244661047027,
                    0.3181335587155751,
                    1.0519559326247527,
                    0.5583174765381251,
                    0.48308595679120514,
                    -0.15454287186549648,
                    1.4627670055124304,
                    -0.8004899351930093,
                    2.2323080748893362,
                    -1.9708374627355567,
                    0.5621239116688671,
                    2.1391842974755626,
                    -1.027856292435435,
                    -1.2478956251844482,
                    0.6241857925581392,
                    -0.51054588058182,
                    0.6366863831380989,
                    1.1655029237970855,
                    -1.3296106003163004,
                    0.41312691738748003,
                    2.9641858569018433,
                    -0.7789948339516066,
                    0.4613254676773655,
                    0.4503947258185123,
                    -0.7525598271841223,
                    -0.810476768477193
                ],
                [
                    0.4051792415250084,
                    -0.41087242753879644,
                    0.1647721678103259,
                    0.21439764390765637,
                    -0.8732792814796833,
                    0.42310499552624226,
                    -0.6671240882822977,
                    1.083882511205416,
                    1.9785054075219748,
                    -0.21329131998013856,
                    -0.4483591231331253,
                    0.9627031544932552,
                    0.6156026119232919,
                    0.08777476850082956,
                    0.12827925237132026,
                    -0.6100125796949482,
                    1.4565464724135608,
                    0.4330644551174119,
                    2.2164851468037137,
                    -1.250521514560469,
                    -1.3146492468433728,
                    0.3727672230918187,
                    0.7807674181704851,
                    -0.8331400404123857,
                    -0.7548113678075318,
                    -0.3030055503683294,
                    0.0593321187400417,
                    -1.2689166572000412,
                    1.2131404837209032,
                    -0.8571127647336669
                ],
                [
                    -0.49740379822305075,
                    0.7613123986423577,
                    0.34132125571784955,
                    1.461524730243148,
                    0.6927992380786637,
                    -0.8718502375770922,
                    1.0584401136407233,
                    -0.2078232796328333,
                    -0.11728510101530618,
                    0.2794058133692703,
                    -0.3038795695005036,
                    0.7365912533072563,
                    -0.6109683475213491,
                    0.8425867167172529,
                    1.1567974893015052,
                    0.2051232159775005,
                    -0.7073116557176193,
                    1.0186559544010403,
                    0.45974986663351197,
                    -2.1535248684890864,
                    0.8191296543652281,
                    0.0037920056210711123,
                    -1.9279388345289978,
                    -0.36325467990708177,
                    0.8993563090119812,
                    -1.457449868359106,
                    -0.8032943980163663,
                    0.6829376636214963,
                    0.9915540606914638,
                    0.7207840902024816
                ],
                [
                    -0.455932913383113,
                    -0.5309836961414827,
                    0.6206051979960242,
                    -1.2170975453222126,
                    0.572739378859151,
                    0.31287801749056826,
                    1.1010372393624985,
                    -2.1417592323006924,
                    -1.340049128927512,
                    0.2506704696494161,
                    0.8438849639569129,
                    0.4985449661776522,
                    0.6167306661896409,
                    -0.40948251458276547,
                    -2.582234878291096,
                    -0.04312222036204229,
                    0.1252791313809383,
                    -0.5320018480451056,
                    -0.2966783835687563,
                    -0.06193299441052806,
                    -0.12976616218001857,
                    0.9108251125940983,
                    2.897449517796782,
                    -0.235817047243499,
                    0.805819701487134,
                    0.5836010183845292,
                    2.5557800524319405,
                    0.011088269929543083,
                    0.10784258939893365,
                    -1.0286750034829273
                ],
                [
                    -0.6900489320497932,
                    -0.07242310104817294,
                    -1.6623922675898883,
                    0.971796088705899,
                    0.6146217927163898,
                    0.9125080643414867,
                    1.0187451098267961,
                    -0.614122858023972,
                    1.1048579677432728,
                    0.030359591240795406,
                    0.8962645049170237,
                    -2.0141427366522495,
                    -1.831963975532006,
                    -0.37176731654386924,
                    -0.9140992252698893,
                    1.060327899395685,
                    -0.8410807124298161,
                    0.9663657551015082,
                    0.1677423706536452,
                    0.7867277574447146,
                    0.7111690321922707,
                    0.6144002223407643,
                    0.04590128351391558,
                    0.2306233949452227,
                    -2.010049373087003,
                    0.4529114291239025,
                    0.3441921931187603,
                    0.40225003981790564,
                    0.8665161894189507,
                    1.6319998895684593
                ],
                [
                    0.8064304864872373,
                    -0.8815347466013057,
                    -0.027126196290521015,
                    0.6816298211729558,
                    1.4525783624971023,
                    -0.4393078922361889,
                    -0.5845227379117718,
                    1.8267141210081022,
                    -1.5688286401225715,
                    -0.6734304974533829,
                    1.5287754039366042,
                    -1.6009885767732843,
                    -1.2387817530523115,
                    -1.2780997828693825,
                    -0.7459237984853114,
                    0.7557552612975618,
                    -0.7391902519954755,
                    -0.9908819619733834,
                    -2.08160324789371,
                    0.07921677339934209,
                    -0.7096279818368225,
                    -1.323050157493553,
                    -0.09851123046845556,
                    1.7106152195079005,
                    0.05665220372569174,
                    -0.7240812286310496,
                    -0.41140600779033965,
                    -0.3764454334484739,
                    -1.185496748869135,
                    -1.0110999236303015
                ],
                [
                    -0.5106908713900835,
                    0.3683601989785989,
                    0.4872858634769166,
                    -0.0695400411159703,
                    -0.031012352593690562,
                    -0.10263741059012278,
                    -0.7212429043646529,
                    -0.699809863273643,
                    -0.6424940340645086,
                    0.2519082396246392,
                    0.30428570539304883,
                    0.9208095260756751,
                    -0.2389292736061745,
                    0.07159022763303556,
                    0.7149753702113968,
                    0.5242133786618366,
                    -0.6060664063708747,
                    2.7647554437777533,
                    1.12440697215872,
                    -0.37729548690695774,
                    0.19271142579413136,
                    -0.37995362197717064,
                    0.05483360608621221,
                    -0.809808076615315,
                    -0.12211501338734622,
                    -1.347635494144277,
                    -2.15934393073282,
                    -0.9580365716049811,
                    1.5015422154244726,
                    -0.7375937142356561
                ],
                [
                    -0.5789960694421666,
                    -2.330693753623395,
                    -0.6755277837251126,
                    0.7882107119241013,
                    0.07025153926498434,
                    -1.043672764582208,
                    -0.1786878548110791,
                    0.04879499668488431,
                    1.587684903392129,
                    -0.19638329900523557,
                    -1.4914722067720292,
                    -0.3086500639883567,
                    -0.36906929297135455,
                    -0.08005637746694844,
                    0.8686163897188915,
                    -3.5071306177293913,
                    0.9591412976763135,
                    0.6634560566660864,
                    -0.3071275328774097,
                    0.5375625167669441,
                    -0.0384001710129162,
                    0.3926752458171177,
                    -1.61995880813897,
                    -1.4190947751797838,
                    0.6388173217437693,
                    -0.91992106890766,
                    1.1094466668495362,
                    -1.052859509597652,
                    -0.29907299414405153,
                    -0.6316243993114545
                ],
                [
                    0.6937174604522706,
                    -0.10726078090741384,
                    -0.6335266585921298,
                    -0.1004531984003366,
                    -0.9405485482987443,
                    0.673521362045916,
                    1.1451912556882797,
                    1.3238970053305292,
                    0.035295484284661706,
                    -0.32633662039352707,
                    0.5926486411953427,
                    -0.12921269230354082,
                    -1.3265956982300726,
                    1.2543693471244437,
                    1.3425988173965697,
                    -0.5100892721394077,
                    -0.3444089026220857,
                    -1.3020795277683879,
                    -1.649241779136361,
                    -0.6304100950636586,
                    0.4839404628014874,
                    1.2212353768567095,
                    1.4957004775712555,
                    -0.750438310585057,
                    -0.4458703184933772,
                    -2.7316624389444297,
                    0.9474856896742613,
                    0.9781055357690722,
                    0.15179170534269804,
                    0.8352599581954996
                ],
                [
                    -0.5589386652219706,
                    0.2692708777484354,
                    0.6497542086197371,
                    0.3650397609766061,
                    -0.16181359456109207,
                    -0.40733295814465076,
                    0.16327892876837308,
                    2.2978811089717315,
                    -1.100974962089897,
                    -1.7563299016959733,
                    0.1008757760194236,
                    -0.4186368625830504,
                    -0.18393390241228824,
                    -1.7033484307317075,
                    0.4948776291028213,
                    -0.16856097837677894,
                    -1.886987162184193,
                    0.3695534533534197,
                    -1.6027606523152695,
                    -0.5557676189225988,
                    -2.575476459076184,
                    -0.1443850339609868,
                    1.3486024556099945,
                    -0.0015764032684470464,
                    -0.4925740584702864,
                    -1.951138878481869,
                    0.537042148808936,
                    0.376370436176211,
                    -1.0074719430643118,
                    -0.5104360382067031
                ],
                [
                    -1.2047238356078518,
                    -0.15656356369984728,
                    -0.4908827232914228,
                    -0.4795614185688659,
                    -0.3862369665048934,
                    -1.072962742002421,
                    0.6842324753413609,
                    -2.138550338759641,
                    -1.075324732841138,
                    0.2785085824544995,
                    0.638717833752951,
                    -0.8245786725477087,
                    0.14317750819014718,
                    -0.8344233964580323,
                    0.15461344614797873,
                    2.5831771684941023,
                    -0.9981744080748054,
                    0.5327742870274202,
                    0.8646124923262197,
                    1.3352736492942217,
                    -0.5778981167864917,
                    -0.649878191101292,
                    -0.17690786672889158,
                    -0.13606183873982564,
                    -0.07077916231735797,
                    0.24985691210075783,
                    -1.3844950235720936,
                    -0.2850313428947895,
                    0.4996085944201065,
                    1.16924516332928
                ],
                [
                    0.6250801649106649,
                    -0.8128811933073246,
                    1.3102467802799043,
                    0.9315176051975637,
                    -2.231849141643532,
                    0.7749923481798433,
                    -0.034977478252483776,
                    -0.4015884368962366,
                    -0.7741158081269003,
                    0.8490144602531426,
                    -1.737845846807267,
                    -2.4678434504925653,
                    0.009405575674730902,
                    -0.05476210477924745,
                    1.2003705252767827,
                    0.7610621127959664,
                    0.4055847236974583,
                    0.9168529367296122,
                    1.0853686319714602,
                    1.1759198632313417,
                    2.027774747596296,
                    -1.0445704512642517,
                    -0.9172979224281462,
                    -1.6361787804386456,
                    -0.15456267755993722,
                    1.5915364225776603,
                    0.5646624439275667,
                    0.06112830651537139,
                    0.9770555145737871,
                    -1.1697277453062198
                ],
                [
                    -0.532212214609707,
                    -0.09440306911418336,
                    0.19497988042195702,
                    2.091704324511435,
                    2.6238556976831586,
                    2.256964663204124,
                    -0.29120836542013717,
                    1.0937082649478105,
                    0.9331529091204368,
                    1.1040189405920269,
                    1.2760168340160616,
                    -0.6638170487571652,
                    -1.4863558752699135,
                    -0.47386028674757696,
                    -1.0850489843807556,
                    -0.7842443267134118,
                    -0.32538471988882733,
                    -1.0150672114425838,
                    -0.32007613116051786,
                    1.0681693389662008,
                    -0.5534278681416053,
                    0.10604982889550973,
                    1.108726190433914,
                    0.8366001794189655,
                    0.8243386195386468,
                    -0.30101698852372855,
                    -2.912615530800841,
                    0.35200990541482546,
                    -0.1866672936052784,
                    -2.3343099673702454
                ],
                [
                    1.2543502077638164,
                    -0.13843034886869396,
                    -0.15280927148564669,
                    -0.6235701832000915,
                    1.3372910855259783,
                    -0.1703837864017461,
                    -1.3224241345945609,
                    1.8308043081667447,
                    -1.2893253036437913,
                    -0.6655080743202382,
                    0.1391816704780499,
                    -0.6752347101835923,
                    -2.551381742626754,
                    1.534230174855104,
                    0.44019207630513235,
                    -1.4920394779498694,
                    -1.7533202370590626,
                    1.8692444327426554,
                    0.7912577744526642,
                    -0.05700874577005023,
                    -0.927141139708593,
                    -1.49317213005876,
                    0.6557946241239015,
                    0.1487402650287714,
                    2.0409910227343646,
                    0.587535262283148,
                    1.6562270631794838,
                    -0.8135626350777323,
                    -0.09770189154461781,
                    0.0712887967163858
                ],
                [
                    -0.60178681359427,
                    -0.06607715953445278,
                    0.9797204410167043,
                    1.848470022068422,
                    0.05625099360308075,
                    1.2211790412222305,
                    -0.9122710840387885,
                    0.09125278214474875,
                    2.1905369357931965,
                    0.5736376004159338,
                    -1.798168652818484,
                    1.3158054655179268,
                    -0.6662638244972157,
                    -0.5395216465791348,
                    0.15384301232012423,
                    0.34854999721957514,
                    -0.4620052547199744,
                    0.5610256844161938,
                    -0.4489054383197002,
                    1.2292137647990995,
                    -0.7394315577445502,
                    0.6867275401438586,
                    -1.2149233666863786,
                    -1.5792468138822757,
                    0.23919448432966287,
                    0.4788252824969648,
                    0.21337680246677812,
                    0.8348625726088498,
                    0.2747004142590036,
                    0.24217469927775798
                ],
                [
                    -0.12393325832393114,
                    -0.14538751756854934,
                    -0.3863692822107967,
                    -0.2145538770889509,
                    0.21567506936243577,
                    -0.009908603325750137,
                    1.1486239059727332,
                    -0.4057721115859698,
                    -0.9315304032675379,
                    -0.46883317785098544,
                    0.892590639695779,
                    0.08165863791142078,
                    -0.4490733265609307,
                    0.5633629037575884,
                    0.08021629313906035,
                    -0.369730693387686,
                    0.8932694431513661,
                    -0.8811127200477906,
                    -1.266423634868409,
                    0.08980024000184927,
                    0.2019613544618884,
                    0.5059678205206635,
                    0.33076071024541975,
                    -1.367164563617745,
                    -0.49473371584928016,
                    -0.8667377345460836,
                    -1.8189184737193773,
                    -1.2762602041906166,
                    -0.2600172459816553,
                    1.1164752032389227
                ],
                [
                    -0.8348069218663418,
                    -0.3323788887983618,
                    -0.5782003476343942,
                    -1.2704991840261008,
                    1.2650154717281676,
                    -1.1701602557663757,
                    -0.17502181122722898,
                    1.2968869539649324,
                    -0.6640604796922496,
                    -0.22329375823808995,
                    0.9917784817935544,
                    -0.4208743041007862,
                    0.33148514875015633,
                    -0.488064824513498,
                    0.7546678795761285,
                    -0.04956516323281575,
                    -0.8196392508093764,
                    -0.6739528007290265,
                    -0.27868354494522646,
                    1.376085816380578,
                    1.7251478151751538,
                    -1.3859929431476699,
                    0.5656704156739113,
                    1.6192143518061204,
                    -1.1902004958707708,
                    1.5098350035967443,
                    -0.03946896008740021,
                    1.0084663491119228,
                    0.14574693649118076,
                    -1.011833192796544
                ],
                [
                    0.3520515068938057,
                    -1.0093067146384413,
                    -0.5718538451510392,
                    -0.6552586034641048,
                    -1.4277000159545274,
                    1.809232987116343,
                    0.9390750151595171,
                    0.32278040287258747,
                    1.4166318724757048,
                    -0.005892036411215138,
                    0.866023112992602,
                    -0.40212297195665514,
                    1.1193430579800066,
                    0.2576616850186156,
                    -0.6748144294988221,
                    -0.8963280261213455,
                    1.239169703799928,
                    0.5583129281946144,
                    -1.0314294592316338,
                    0.16002847538545478,
                    0.4274591397529931,
                    0.8253959263375673,
                    -0.40306425917724986,
                    -0.027731459944785056,
                    -0.4074769651060749,
                    -0.33513771931168673,
                    -1.1748943295783076,
                    -1.799556210946421,
                    0.08817064105743486,
                    1.182524917839211
                ],
                [
                    -1.2403851993795882,
                    0.4537131597861206,
                    0.07246518893267914,
                    0.5604959038173384,
                    -0.38224167295184286,
                    0.3162175688120124,
                    1.384815557457087,
                    0.5440894656076166,
                    -1.4695715271746168,
                    -1.4158899798382691,
                    -1.325320239035643,
                    0.16549467720461378,
                    -1.0760583205075702,
                    -0.3063124417082381,
                    1.3428041184111124,
                    1.9758614639695693,
                    -1.6910401099156724,
                    0.6328454767702272,
                    0.23937431051244845,
                    0.45629243460353086,
                    1.311289920812141,
                    0.4215746129347113,
                    -0.3796849366280654,
                    0.2841744043826974,
                    0.03333885991637872,
                    0.6124974466245559,
                    0.5143703263446475,
                    0.20544349914974508,
                    0.6300218248143629,
                    -0.010257915179056203
                ],
                [
                    1.3811000614913338,
                    2.7287745809456716,
                    1.6010152657194372,
                    -0.07424396350432536,
                    1.2182853374979365,
                    1.4357100143259651,
                    0.4082489167903596,
                    -0.3373622846016936,
                    1.7833976103665896,
                    0.9377460183878269,
                    -0.6177521459981795,
                    -0.9429244180633566,
                    1.8450873357193414,
                    0.6950732755914008,
                    -0.5717400816053212,
                    -0.08811478786841848,
                    0.2576084612510105,
                    0.9206352053245328,
                    -1.9430714668009037,
                    -1.1989053756017614,
                    1.766881282429843,
                    -0.07437206512987925,
                    -0.19593900032811043,
                    0.9856705272098376,
                    -0.7561144955994018,
                    0.09827939191181413,
                    1.0842979270485817,
                    -1.1628284035189742,
                    0.3076269449079677,
                    -2.781162170938671
                ],
                [
                    -0.6012898737143406,
                    -0.6103133555090725,
                    0.3392818076073598,
                    -1.1104693871645466,
                    2.4518293147618215,
                    0.06539808412652065,
                    -0.7756178240870563,
                    -0.5924757441032712,
                    1.212961594110858,
                    -0.5204113301951067,
                    0.6456978861594682,
                    -0.14878917239983938,
                    -0.21945834732919572,
                    1.0712850170365724,
                    0.1033685187310917,
                    0.2599320060819452,
                    0.7065690646976163,
                    0.4142544388113249,
                    0.1375318619232265,
                    -0.3531147584897153,
                    0.730124780777071,
                    -2.283422158633603,
                    0.4624094492611638,
                    -1.7380760169535403,
                    -0.1291133818670071,
                    0.7484874448396347,
                    -2.5057396251163633,
                    -0.7950717523701338,
                    -1.8263668602778371,
                    0.5925305602827248
                ],
                [
                    0.37024162269595523,
                    -0.3768812911594127,
                    -0.27311936608049203,
                    -0.5472191459660448,
                    1.9021745364057145,
                    1.8926637657843821,
                    0.3618562836193905,
                    -0.4337089886295866,
                    -0.907022424638394,
                    0.34592518823746443,
                    -0.6156882626448077,
                    0.5146444984775953,
                    2.2741200846876364,
                    -1.2393908347636424,
                    -0.7987981759522985,
                    -0.4768098041965524,
                    -0.3872851093043036,
                    1.2070826311626142,
                    1.0640081255594027,
                    0.29143258487431717,
                    -1.245617330005694,
                    -0.41008256795427317,
                    0.23672376503145526,
                    0.7797118660472365,
                    0.599484507283049,
                    -1.6649409732562925,
                    -0.03172388850817989,
                    -0.3694977944907435,
                    -0.5419526618909491,
                    1.2609688396785534
                ],
                [
                    -1.3493318330702626,
                    -0.9519569547519611,
                    -1.9609884611880066,
                    -1.7257589560295707,
                    0.15864834196226263,
                    -1.7976006536448506,
                    -2.3626405818686385,
                    -0.26153964014440806,
                    -1.758216791306229,
                    1.158152278861305,
                    0.8931813575367363,
                    1.4605732957409083,
                    0.9453834383106507,
                    0.8089741109944338,
                    -1.0100284834347584,
                    0.803501275292744,
                    -1.313675577002919,
                    -0.1669280248568525,
                    0.14848453410214266,
                    -0.24368198188213674,
                    0.03919783375657776,
                    0.5237327718579302,
                    -1.5638286983818588,
                    -0.5015169348714901,
                    -1.9728524090968336,
                    -0.6911137954054688,
                    0.549975299737601,
                    -1.3002604708444063,
                    1.5337223197482077,
                    1.9617425300271414
                ],
                [
                    0.5597292591742179,
                    0.9358722913015362,
                    0.5910681531528976,
                    -0.19616085197800465,
                    2.423576470978294,
                    0.9867269420630204,
                    0.2450547873563495,
                    -0.09200939820786044,
                    0.6936798004148857,
                    -0.3377094187079749,
                    -0.13756303781941526,
                    -0.5417247928851797,
                    -0.5460380766204131,
                    1.9282267208463806,
                    -0.00011046056856299502,
                    0.5867321116052162,
                    -0.4161767000480046,
                    0.4359987915608696,
                    -0.0552347085442607,
                    -0.6606046956661347,
                    0.15836632127818945,
                    -1.1508144978191885,
                    0.7297949781574505,
                    0.398260107834743,
                    -1.4105692438907353,
                    -0.07991432439542943,
                    -0.7966416887760471,
                    -1.047427383328921,
                    -1.685256020365097,
                    -1.0617645046663207
                ],
                [
                    -0.2937651625503082,
                    -1.8426729890001037,
                    -0.8163618189325651,
                    -1.9606443022725075,
                    -0.44854048604417107,
                    -2.6422647590088792,
                    1.867236126818908,
                    1.7175773411859447,
                    2.277537471227416,
                    0.2780791590981482,
                    0.2106238728057752,
                    0.5598803195763782,
                    -1.6922956482602611,
                    0.4242744878041549,
                    0.4211435408222447,
                    2.0126407710342735,
                    0.34874273653150517,
                    1.1593897387816472,
                    1.1147522380408703,
                    -0.7251374300381128,
                    0.1620456886787881,
                    -0.40487827319757697,
                    -0.1643140491257793,
                    1.0272471322669896,
                    0.031702333418256234,
                    -0.005877716901415003,
                    -1.0671312204795707,
                    -1.2631848343012573,
                    -0.7487625006744807,
                    0.1968433306315744
                ],
                [
                    0.1620228654045869,
                    -1.0119159926679957,
                    0.27538163276289784,
                    1.0593493958082698,
                    -0.41758483672935304,
                    -0.1650438534982554,
                    0.5710629202837838,
                    -0.02234473017936292,
                    1.9436665330835565,
                    -0.6245505618976025,
                    -0.04106071758429285,
                    1.241317779305973,
                    2.1762189580304243,
                    1.0178377917980812,
                    -0.11165040189613482,
                    0.19016092113955463,
                    0.17858280768636234,
                    -0.46693939112574906,
                    1.728537474475407,
                    -2.459172997187167,
                    1.5406827992428258,
                    1.103156549437377,
                    0.10770687583841757,
                    1.4250932405776322,
                    0.8339035093663387,
                    0.14571207798727986,
                    -1.0189445428187796,
                    0.4127670939252527,
                    0.4059244754255538,
                    1.033309728341066
                ],
                [
                    1.7942072296261478,
                    0.4715339207692603,
                    0.8975801076998815,
                    0.6203223048246784,
                    -1.2145469767926056,
                    1.2089396145120512,
                    1.6621196394762312,
                    -1.1222950218672838,
                    -0.6195061080899202,
                    0.9400174471214976,
                    0.1397755056871537,
                    -0.7199951711743042,
                    -1.9884115238858906,
                    -0.6592461417885798,
                    -0.1456625037643666,
                    -0.13258337580686347,
                    -0.5808922582909908,
                    0.02813564338725752,
                    1.2090905617297554,
                    1.5138739189876116,
                    -1.0026708582978063,
                    -2.034668677986809,
                    1.0099500113942725,
                    -0.26494997485472643,
                    0.4004830019535229,
                    -0.011167114360991607,
                    1.526455031777034,
                    2.2800416487402573,
                    1.9356450198473394,
                    -0.2341918971942007
                ],
                [
                    -0.01566083626172657,
                    -0.09636145565725172,
                    2.13551860008333,
                    -1.3213254558404985,
                    0.4253830971951835,
                    -1.440528352446297,
                    0.17104334167727547,
                    -0.5597773138992894,
                    -0.01734959656073258,
                    -0.6120085209874602,
                    0.15234597956169013,
                    0.3700930862851428,
                    -2.4398242228024354,
                    -0.1938351459027801,
                    0.07679734787214523,
                    1.2430896820528234,
                    0.6271913932275297,
                    0.8441413175895849,
                    0.8817993926092679,
                    1.0098341748134496,
                    1.3908607545665892,
                    -0.05659734368327342,
                    2.196625634953335,
                    1.2261200859886414,
                    1.3756753550072602,
                    -1.6556544939449371,
                    -0.05912662549402986,
                    -0.2951183003410268,
                    0.8050489962356775,
                    -0.32355524346981934
                ],
                [
                    2.917683069706825,
                    -0.24145153307878278,
                    0.7681287838852565,
                    -1.3571327874736687,
                    0.5003932923569356,
                    -0.3737930992568083,
                    0.12212831773229266,
                    -0.38317178593439327,
                    -0.40046031513915414,
                    -0.33616914811689175,
                    0.4729876157729232,
                    -1.074825885538849,
                    2.224579650790908,
                    0.21689591193594937,
                    -0.83731543675657,
                    0.3163188569564822,
                    1.1929839125203647,
                    -0.18807191644896015,
                    -0.7056223796688474,
                    -0.30205817347700353,
                    -1.308088362942861,
                    0.24144329031877776,
                    0.5638955752148606,
                    0.3430127774980885,
                    0.21465657089024506,
                    1.9502112293710798,
                    0.623750788399401,
                    -0.2212299310414244,
                    -1.2291709751499216,
                    0.3744278600590688
                ],
                [
                    -0.19357611850001177,
                    0.24823523265551142,
                    -0.4673902081982504,
                    -0.6476180336731513,
                    2.6482578791974802,
                    0.0557201950095072,
                    -1.2783831786439313,
                    0.5378576667761131,
                    -0.9694094011982558,
                    -0.8803743908030837,
                    0.42335769378824983,
                    0.06123246052912115,
                    0.3217285626181577,
                    -0.5411756869572607,
                    0.32317968040993916,
                    -0.6160122658582727,
                    -0.1284741239702731,
                    0.848276107743579,
                    -0.0564847958639087,
                    0.905292208056834,
                    1.4900545268974132,
                    0.19120237631651033,
                    1.9636253882204722,
                    -1.3795045020952459,
                    -1.24564282999485,
                    -0.06258321829965532,
                    0.8092377240989865,
                    0.10145775776346375,
                    0.7045910750495237,
                    0.390175858644893
                ],
                [
                    0.7262187811522182,
                    -0.36133851679343704,
                    1.2197644079028125,
                    0.5392426870581721,
                    -0.13888946107999453,
                    -0.9035565809922169,
                    -0.5970876926360216,
                    2.1001208212507723,
                    0.4545046263368721,
                    -0.9077533085349143,
                    0.7765243579796371,
                    1.1554355909740677,
                    1.4564835383805206,
                    0.32647101286192315,
                    1.9991045216839969,
                    -0.8733938906135428,
                    0.9176668956942607,
                    -2.386528682386062,
                    -1.474786701509016,
                    -1.5443597080953564,
                    -0.24345026534504313,
                    2.5820638149584036,
                    0.05004930084602277,
                    0.1393167901749253,
                    1.0156249864620024,
                    -0.4114604598282178,
                    1.0710056105139825,
                    -0.3241100628604673,
                    -0.3316882155222288,
                    0.9001440148598042
                ],
                [
                    0.2822323707580863,
                    -0.5417080312074534,
                    -0.3746914512090487,
                    -1.4874104186683774,
                    -0.13627794463721982,
                    0.77589761034852,
                    0.03960855941667715,
                    1.4096636837010499,
                    -1.2726637230495303,
                    -1.0446824648596689,
                    -0.09491762350385992,
                    -2.1957822835974152,
                    0.4722739525995847,
                    -1.4678052978926905,
                    -1.483072654368843,
                    -0.13329922305189587,
                    -0.720876442937144,
                    2.121014980969563,
                    -1.660248070780082,
                    -0.9815359384522925,
                    -0.8950587121886675,
                    -0.8635547606944936,
                    1.4015747073083618,
                    -0.4412645204919296,
                    1.9372800748387693,
                    -2.2874931433955026,
                    1.0783869960926586,
                    -0.7335734197162654,
                    1.174095489936459,
                    -0.44612455594362216
                ],
                [
                    -0.509339852254151,
                    0.094270621899819,
                    -0.14477370474241008,
                    0.8122657299004613,
                    1.0725936136308414,
                    1.577048085136315,
                    -1.5356033288876128,
                    0.47950267823358994,
                    1.2365901424580659,
                    -0.9858523368203685,
                    -0.8283815626562641,
                    0.01588425211199859,
                    0.9014474893824598,
                    0.1835629479584672,
                    -0.47091151391726016,
                    1.64120604056241,
                    0.7266080994561457,
                    0.6409397683513465,
                    2.2167619681509874,
                    2.0183436933977617,
                    0.5745413988372715,
                    -0.22069071242115368,
                    -0.7129056287675298,
                    1.3912599459715465,
                    0.720465273291636,
                    -0.2194238321477917,
                    -0.6846365671721893,
                    -1.2642801259615013,
                    -1.470562668157365,
                    1.5062778416398384
                ],
                [
                    -0.034636501936144905,
                    -0.43212743028044404,
                    1.1919226424770837,
                    -0.48884685818954515,
                    -0.06263434408419127,
                    0.12125381716648907,
                    -0.7721782012472348,
                    1.0668615768850171,
                    -0.4762340281353787,
                    1.0146470182795464,
                    1.0532840847039722,
                    0.17219036739513616,
                    1.0846394674546764,
                    -0.7507484115162844,
                    0.5270904707403219,
                    0.289230248593802,
                    0.7306580529587263,
                    0.3732540529158324,
                    1.1554880815764772,
                    1.46287700939005,
                    1.4083986146094583,
                    0.35072428107048903,
                    -0.7629194873073578,
                    0.3042923653427124,
                    1.682723200523762,
                    0.28773643822438605,
                    -0.2926093365913429,
                    -0.024241704423124788,
                    -0.8239254535151549,
                    -0.1078703030636545
                ],
                [
                    -0.41023035248437256,
                    1.360221962661989,
                    -1.166884613045868,
                    -1.5696113816658097,
                    0.3474589164077644,
                    0.376716623728121,
                    0.08063441755566642,
                    0.2397013359762344,
                    1.8001957644355764,
                    0.24712143110451554,
                    -0.6482041854975105,
                    -0.7434814233164531,
                    -0.9350630298806626,
                    0.019865317814880035,
                    -1.2189832831358327,
                    0.794951791499238,
                    0.01521720207326649,
                    1.1752765334666602,
                    -0.0829505244735998,
                    -0.3106686755491992,
                    -1.1928395853048532,
                    -0.5188264336524602,
                    -0.3504141535457419,
                    -0.751450082827163,
                    -1.49533293419699,
                    0.6317103555904748,
                    -0.04664524553444649,
                    -2.3947245304203233,
                    1.3325061033491306,
                    -0.06741289120147395
                ],
                [
                    -1.4530891150383412,
                    -1.0569461410006322,
                    -1.9738229577072435,
                    1.686723699267314,
                    -0.4282025976663648,
                    -0.41407134692293746,
                    0.17224885669588125,
                    0.7535176009273786,
                    0.754631391510084,
                    -0.11520045490930314,
                    -0.4949470268727582,
                    1.691583672517496,
                    -0.004396045498529455,
                    -0.06289960670408286,
                    -1.207677803694887,
                    -1.3105852095630535,
                    0.11508112700848619,
                    -0.8805973828521634,
                    -2.2566389786764516,
                    -0.5191803101509205,
                    0.19250407540638476,
                    -0.8072298112265521,
                    -1.832213357822404,
                    0.07239325052157473,
                    1.062119759212396,
                    -0.7966010776189865,
                    0.9497080063060693,
                    0.14614268055191285,
                    0.7728305265171562,
                    0.12473023364286849
                ],
                [
                    0.5337107800621955,
                    0.17248390785245604,
                    -0.22092059732206537,
                    -0.82782568178335,
                    2.0970726605499643,
                    -0.8410700537635339,
                    -2.909334337955402,
                    0.06222006267642485,
                    -0.24727694020866153,
                    -0.8687681426447845,
                    1.3826016344163894,
                    1.0720307382536036,
                    -0.03856492875670134,
                    -0.7766641069827203,
                    0.012005136105212267,
                    -1.0738958085244947,
                    -0.950941921461909,
                    1.2344630768644993,
                    1.0025161945308834,
                    0.6716273464920965,
                    0.25891405682397356,
                    0.8613833970979474,
                    -0.11451460829628983,
                    -0.7171430854684752,
                    0.17449006754598598,
                    -0.44446335670589865,
                    1.608518395690275,
                    2.0083075370206274,
                    -1.0137423868735738,
                    -0.9492932490319456
                ],
                [
                    1.346173325771223,
                    1.9062005376149682,
                    0.2210707663260537,
                    -0.8546013874133652,
                    0.42378242166147295,
                    1.2054183260799307,
                    -1.1103157074533976,
                    0.6920041861877018,
                    1.155977348475117,
                    -1.5629065084947276,
                    -0.6266008217650942,
                    0.6556603123282735,
                    1.2114572384961113,
                    -0.38540371272809315,
                    -0.5076447551547492,
                    -0.4071733763145271,
                    -1.1959172799302762,
                    -0.6101905012951194,
                    1.1984098285426976,
                    0.7450025611306068,
                    -0.612772114757873,
                    1.2978726710774477,
                    0.44900085324058486,
                    2.0328994639939766,
                    -0.9891949829223348,
                    0.7047339642001462,
                    -0.20380427644459032,
                    0.43824538422165915,
                    -1.0258901623550605,
                    0.5708550091826816
                ],
                [
                    1.3744534208229056,
                    1.852601012828305,
                    -0.15502977279786428,
                    2.3122551777153566,
                    -0.2666933561666547,
                    0.3777225126142861,
                    0.1191746421171122,
                    1.3693651742023298,
                    1.0820150975629104,
                    1.795521386949086,
                    0.22317420850782915,
                    -1.5640083007957881,
                    -0.47623524141092644,
                    0.5194482676176764,
                    2.63384443814351,
                    -0.21378044775484717,
                    1.7225211472460216,
                    -0.04287856450867418,
                    -1.6330949412775038,
                    0.19722545366297878,
                    -0.603224943722116,
                    -1.7132615961504982,
                    -0.5270435346057722,
                    -0.5902227472335764,
                    -1.3530398594623376,
                    -1.178221935232155,
                    -1.0888786065574299,
                    -0.2205007956476665,
                    2.0490099726280464,
                    0.04365748717586566
                ],
                [
                    0.8083431652025664,
                    1.545945530271732,
                    -1.6397454565408258,
                    -0.4497760698816702,
                    0.7712640098870694,
                    0.05835563537164756,
                    -0.3804073048080881,
                    -0.44883844217797775,
                    0.4499553800250509,
                    -0.34656663135151844,
                    -0.2994883983940204,
                    0.4682577287843065,
                    -0.8124727836963369,
                    1.3120294848421425,
                    1.5773441672734658,
                    1.5325287124230278,
                    -1.1793753977692822,
                    -0.1664444366296891,
                    -0.45413387737354205,
                    -0.12718888754409205,
                    -1.7703031900909159,
                    0.46826805858360143,
                    0.4854967778984901,
                    -1.6316239025445058,
                    0.07510852893273394,
                    -0.6138950116809353,
                    1.1065330709198433,
                    0.6106568517197408,
                    -0.6385179905799139,
                    -1.0478832225124397
                ]
            ],
            "function": "sigmoid"
        },
        {
            "input_size": 30,
            "output_size": 8,
            "weights": [
                [
                    1.6564598539680642,
                    0.3448772872538592,
                    -0.28127802584791384,
                    -0.4642096001723936,
                    1.968585251547046,
                    0.5578736446227985,
                    -0.4199927350532226,
                    0.8666591281154264
                ],
                [
                    1.007322230504458,
                    0.5216271139295892,
                    -1.2237103811312358,
                    0.7192609335750073,
                    0.6255626882343641,
                    -0.5571954905615456,
                    0.9472638447084468,
                    1.7298559985730728
                ],
                [
                    1.858052344849163,
                    0.8043882160950995,
                    -0.5670708782931919,
                    0.07783729596542019,
                    2.2172339741707923,
                    0.9637438907081389,
                    -0.7679749982946985,
                    -0.9440623810642257
                ],
                [
                    0.2625363677651425,
                    1.3412101935960106,
                    -1.207123591674686,
                    -0.7235595703982525,
                    1.9364296493841986,
                    -0.9352101274075048,
                    -0.5628939517522519,
                    -1.170948175992033
                ],
                [
                    0.9564113875468756,
                    -2.000775384144839,
                    -1.5494213939028394,
                    1.6482152168043238,
                    -1.374746886062803,
                    -0.6912319973805854,
                    1.0098951376852079,
                    0.3067418624777345
                ],
                [
                    -0.8319791586289997,
                    1.8898182002543562,
                    0.03608056196584154,
                    1.2276386913799946,
                    0.5604679898199677,
                    -1.5539809679160785,
                    1.0422988396409325,
                    0.6700646820770634
                ],
                [
                    -0.7407188635200529,
                    0.8562348803247967,
                    -1.3207389401452958,
                    -0.5137155987769759,
                    2.395908017665614,
                    0.11580447146523697,
                    -0.11398363528459644,
                    0.7918790091573342
                ],
                [
                    0.9369488914839038,
                    -1.5223075023398236,
                    0.18950676015093904,
                    0.7004586642267547,
                    -0.036746308482035195,
                    0.7797797860968707,
                    -0.5184580356141284,
                    -0.5500861209314342
                ],
                [
                    0.5522867885199346,
                    -1.99811044359515,
                    -0.29942220570192835,
                    1.0479664669627644,
                    1.5890617519001844,
                    -1.630526395605229,
                    -0.06865233530400816,
                    -0.8178917935039111
                ],
                [
                    1.3637553330677252,
                    -1.3168261179708334,
                    0.5928591888739114,
                    0.756579558944534,
                    -0.36734967026638865,
                    0.5688254110562413,
                    0.29873576812692215,
                    -0.06904521985770484
                ],
                [
                    -0.793280995075839,
                    0.09029663300660251,
                    -0.9108902340940962,
                    0.3452583563256856,
                    0.31151121165117557,
                    0.6230183229249182,
                    1.3157544907278254,
                    -0.7973766007766231
                ],
                [
                    1.1982149530182904,
                    -0.8365739945283862,
                    -2.0829389972304644,
                    0.03474453099778597,
                    -1.6852164628684763,
                    1.367697371009354,
                    0.45846558397801374,
                    -0.49261447187830776
                ],
                [
                    1.4239407121115804,
                    -2.6839536359334404,
                    1.280725225041921,
                    0.7450280412358871,
                    1.1013781480801133,
                    -0.7091129347070755,
                    -1.5058701626079076,
                    0.09281792835558791
                ],
                [
                    0.122685688574539,
                    -0.6862812313278503,
                    0.0713187791544254,
                    0.18446354775022533,
                    0.9376443631654,
                    -3.3597254011065862,
                    2.2443127824548768,
                    -0.1329361706309124
                ],
                [
                    1.7100030520947278,
                    -1.4288874825801443,
                    -1.9293701272651034,
                    0.13040097257737812,
                    0.9397800365058327,
                    -1.9307436008694387,
                    -0.016769985592090572,
                    -1.7470479396010608
                ],
                [
                    -0.2206715353637563,
                    0.8041217315156187,
                    -1.1819964428685161,
                    2.250413040671328,
                    0.3611680383732784,
                    1.195723625207252,
                    0.0740695603908173,
                    0.6878497343806717
                ],
                [
                    1.0917427841836165,
