{
    "name": "UniformBrain",
    "layers": [
        {
            "input_size": 15,
            "output_size": 50,
            "weights": [
                [
                    1.3605236774286404,
                    0.7818232455887293,
                    0.20822675447776906,
                    -0.10954632955747987,
                    0.6677263969828416,
                    -2.177474364948613,
                    0.35778370693080286,
                    0.8719362725182876,
                    -0.006134924306776909,
                    -0.7096471153616812,
                    -1.4648953033898524,
                    0.2558177260352298,
                    -1.5397248169090552,
                    0.2232982240895961,
                    -0.6480565422449656,
                    -0.18703113180050743,
                    1.7583038614421596,
                    -0.17918990890916797,
                    1.5514456200298905,
                    -0.3334667144191924,
                    -0.16824405953204943,
                    -0.5017037288880949,
                    0.0799001565210618,
                    -0.469176380672083,
                    -0.8184321289317863,
                    0.5996557089806054,
                    -0.0845351603330541,
                    1.3966007857371148,
                    0.2643698350764131,
                    -2.1424498479456084,
                    1.392450838514216,
                    0.31711651519892736,
                    0.6202305576093647,
                    0.8820621959706975,
                    0.30436886443973127,
                    0.31271323609457946,
                    -2.0507283550599142,
                    1.553282506364319,
                    -0.17235737061722037,
                    -0.2939791509760643,
                    0.2570279029438576,
                    0.5760075625764518,
                    0.47089640863648446,
                    2.506761504469036,
                    -0.5092147770172366,
                    0.05882400814143958,
                    0.4970602845647002,
                    0.5617867367080039,
                    -0.16379491470514781,
                    1.1862049253167255
                ],
                [
                    -0.0012752926859628845,
                    0.4111316289461389,
                    1.3982107099360817,
                    -1.1276487649847384,
                    -0.13612720481745985,
                    2.1048456053629008,
                    -1.000433324493583,
                    0.48140350387612557,
                    -0.5307621704262656,
                    0.11255953943800368,
                    0.6585666265658978,
                    -0.5339460842486767,
                    1.0413720728209759,
                    -1.2394192351201259,
                    -1.4027620663183191,
                    0.47648249657082303,
                    1.9908511145530174,
                    1.8940032386249925,
                    0.4487307526248615,
                    -1.0680273751603506,
                    -0.9893718425327707,
                    -1.2729221665895107,
                    0.8568771208688024,
                    0.6982424997346278,
                    0.25449861617948355,
                    -1.5904695161627938,
                    0.9554497440771642,
                    0.5685985210292694,
                    0.7459242032631833,
                    -0.3729338975231147,
                    -0.7280725993354182,
                    -1.0609029312366347,
                    -1.364739395201472,
                    -0.7963278930143024,
                    1.1668557537858995,
                    -0.19236789920301373,
                    -0.06684182858091411,
                    0.9818603537557758,
                    0.812167251548822,
                    -0.9701356969428238,
                    -1.7829877292528153,
                    -0.2536634414773735,
                    0.22246471235687618,
                    -2.8985651692960785,
                    1.3202077208750658,
                    -0.39044011790942695,
                    -0.015497294320523977,
                    -0.7910326856372976,
                    0.399935155588391,
                    0.716142082878485
                ],
                [
                    0.3522697497184427,
                    -0.9214007139149544,
                    -0.9498354433765154,
                    0.35841026237962054,
                    -0.271369492924949,
                    0.7623024231442987,
                    1.0792574544777724,
                    -2.066930187848019,
                    1.2172031716379894,
                    -0.0529432164051418,
                    0.6905429372616373,
                    0.4493647497048374,
                    0.49491550028012876,
                    -1.3868575734576918,
                    0.4969571157340665,
                    -0.9762731857998793,
                    0.6951192514152702,
                    1.5437742589813612,
                    -0.3078753174491062,
                    0.3955370321457735,
                    -0.24216192882122875,
                    -0.479942335235079,
                    0.3843606046373046,
                    -1.5590208558353933,
                    0.9657318474604037,
                    0.9370689599209207,
                    -0.697839553096883,
                    0.15583707441621264,
                    0.5551399001540563,
                    -0.9128188335396255,
                    -0.6517670706642633,
                    0.10310315861720781,
                    -1.1694826064456656,
                    0.6935599232115328,
                    1.4784015671700628,
                    0.9497279062817571,
                    -0.525673160763946,
                    -0.6500244617676143,
                    0.12459067849936953,
                    -1.4367709906614736,
                    0.2811303939751446,
                    -0.21583877347975625,
                    1.096196543507388,
                    0.013508661990441984,
                    0.4150191945602574,
                    -0.24309442743902115,
                    0.10415157567154551,
                    -0.864653366508115,
                    0.2606958937269491,
                    2.548817313599217
                ],
                [
                    0.4295710478173412,
                    1.0565521189876501,
                    -0.5674358456857296,
                    0.7472579877305537,
                    -0.9260898425047865,
                    0.07680285412084051,
                    -0.38837946607659357,
                    -1.398262034324404,
                    -0.4547198742363491,
                    0.12693984372154554,
                    -1.0183546168142323,
                    1.6477148481871726,
                    0.7010069609373543,
                    -0.055174800000802646,
                    -1.3499510821187524,
                    0.9237807659754745,
                    -0.9790857066880878,
                    -0.5808593227145729,
                    -0.7936138052433082,
                    1.2115204607175136,
                    0.2877655477458744,
                    -1.8816449690236576,
                    0.48251043904965846,
                    -0.48623449786705464,
                    -1.654951851183249,
                    -1.2417155264778037,
                    0.5774268231501358,
                    1.7451060634745914,
                    -0.3891446141056452,
                    -0.8742287590970685,
                    -1.090253504109566,
                    -0.11217273402129607,
                    0.5584433049373082,
                    0.8991210185492882,
                    1.245407630185627,
                    -0.4752434753316494,
                    0.7595568536478247,
                    -1.3523291310610157,
                    0.5490399164520079,
                    0.23065033012030217,
                    -0.7721928033162136,
                    0.6713192276338461,
                    0.2077372042554657,
                    0.04147556828231417,
                    -1.7704993154862458,
                    -0.06510454156072377,
                    -0.7550590495387827,
                    0.798999455056075,
                    0.3966294954774462,
                    -0.1893521678360438
                ],
                [
                    1.2472268492690566,
                    1.138072382647755,
                    -1.9698106318376665,
                    -1.8434970385439478,
                    1.2386086857119283,
                    0.5845807097906999,
                    -0.1796679589332194,
                    1.9348226925458423,
                    -0.2006646633023888,
                    -1.5089808588231335,
                    0.11257452817508598,
                    -0.24019337448896047,
                    0.2204910126182728,
                    -0.8728230895137278,
                    1.765826629759577,
                    -0.8306904015915193,
                    -0.45190161546303287,
                    -2.0717922809929914,
                    1.2432920953033957,
                    -1.1859554375861066,
                    -0.6553653489640859,
                    0.23046123787229889,
                    -0.537160356599671,
                    -0.15170097713885924,
                    -0.7515896296579353,
                    -0.6013771531315785,
                    1.070136878610446,
                    1.0516600117495654,
                    2.108349925701607,
                    -1.232115398056752,
                    -0.794929399249616,
                    0.3671521010995596,
                    1.969432433320346,
                    2.104548079611191,
                    -0.7212057178993154,
                    0.493393407672013,
                    0.5787810133384058,
                    -0.7663075861384175,
                    -2.2913096662378334,
                    0.3328148561624496,
                    0.38779854294591215,
                    -0.9224578769241618,
                    -1.5803168710290485,
                    0.4917002006413081,
                    -0.3018138639225729,
                    0.5126068406950113,
                    0.3104855685024593,
                    -2.2132765086307504,
                    0.6238363411544969,
                    -1.8343324457887076
                ],
                [
                    1.6307304502395314,
                    0.7508394954431242,
                    0.34020502364294514,
                    0.8528659749037747,
                    -0.4699200898216739,
                    -0.4174672742470858,
                    -0.7792754647834553,
                    -0.020666953234613095,
                    0.15529943703878296,
                    1.2784454836900514,
                    0.6232365024112548,
                    -1.7135223662738963,
                    -2.067987357712219,
                    1.1601075727271324,
                    -2.116326951033322,
                    1.1907349988415576,
                    -1.7099679718413925,
                    0.23412646848146715,
                    -0.5783014477320698,
                    0.4019972035482012,
                    0.1797255963045023,
                    0.1352298157816269,
                    1.3652265613503833,
                    -1.153510183312714,
                    0.5915000352991036,
                    -0.8053843334689909,
                    1.2847789874591782,
                    -1.9816386982599674,
                    -0.37515399399121996,
                    0.08534076507025652,
                    0.5554322743961684,
                    -0.587506866465055,
                    0.2620953566365568,
                    0.2604128206245438,
                    -2.034572760659909,
                    -0.4956097471944547,
                    0.8821734935177639,
                    -0.39145069796941473,
                    0.6719383688486953,
                    -1.210176301858474,
                    -0.24835533960448536,
                    1.5367512546367232,
                    -1.0470486001890509,
                    0.5733053766147882,
                    -0.545216446885219,
                    1.002341411073979,
                    0.23858903722397806,
                    -0.4223729451757804,
                    0.732754955958659,
                    1.988474104047381
                ],
                [
                    0.6189598322007194,
                    1.15175917677547,
                    -0.3499409368535411,
                    -0.3543061218723014,
                    -1.320318168560034,
                    0.7425312987519863,
                    -1.469832996833278,
                    1.5353087686574747,
                    0.8526597625021874,
                    -1.6580247304424287,
                    0.9858090895411274,
                    0.4700350354728071,
                    -0.6452892530833962,
                    1.4344272113553174,
                    -1.393319079448122,
                    0.3752911559281688,
                    0.6202008088388632,
                    -1.0779066215104494,
                    0.5391512533662619,
                    1.2569750303178282,
                    0.8753598500147982,
                    0.47331407839093714,
                    -0.07762340875678714,
                    -0.4537738306451786,
                    0.9437948458915761,
                    -2.3842303134541885,
                    -0.7036998250950697,
                    -1.2014442948391488,
                    1.094889459611629,
                    0.34987773446879294,
                    -1.4511594343816134,
                    0.7115931754066629,
                    -0.35955531782806976,
                    1.0421156155912197,
                    -1.3860990910445632,
                    -0.9374424819241413,
                    1.191403519475537,
                    0.002456269654114468,
                    -1.8379772234241492,
                    -2.2281831358254567,
                    0.11008861945860238,
                    1.1420382809703482,
                    0.6025119052387757,
                    -0.6822060450911103,
                    -2.4763136557476586,
                    -0.46943351116414533,
                    0.22928524048087184,
                    -2.728551891553605,
                    -0.37520917950718413,
                    0.7114837799411371
                ],
                [
                    0.4182594164541407,
                    0.019091635650223093,
                    -1.0156713945334803,
                    0.9526819753017315,
                    -0.8008560248358257,
                    0.12466703676306444,
                    0.40319192921532343,
                    0.4480093776544178,
                    0.5584675745777931,
                    2.2538363845871063,
                    0.3208529634788272,
                    -0.3146531474388203,
                    0.434907715116224,
                    1.2913698533995108,
                    0.7656255343928221,
                    -0.6003671845837076,
                    0.1623580269080613,
                    -2.689877476381839,
                    -0.05794008338423369,
                    0.39746349854911733,
                    -0.24237840117074394,
                    0.165144926028501,
                    0.9918375345310484,
                    1.763005285098066,
                    0.3794161242439176,
                    -0.0076814179752059675,
                    -0.6404857093231013,
                    -2.068851057802621,
                    -0.0365795900499592,
                    -0.7102236747052433,
                    0.4904107839189163,
                    0.4252716678201309,
                    0.1770487865919399,
                    -0.7672203085335806,
                    1.1061847992270661,
                    0.24750992076530376,
                    0.08576614347978379,
                    -0.3497217090930478,
                    -1.2144492536927851,
                    0.19511426304303556,
                    0.14323054884496078,
                    -0.01304756158781889,
                    -1.051206953209652,
                    0.859727460777227,
                    -1.7015482862692664,
                    0.4546861398979831,
                    0.38987760945965344,
                    -0.29589765960394776,
                    1.1140564886653022,
                    -0.5250312649748592
                ],
                [
                    1.1090256563215766,
                    -0.44798841488753727,
                    0.2811201478012208,
                    1.6746904051060758,
                    -0.0778869428129497,
                    -0.24072371807107273,
                    0.41665099923565696,
                    0.20541434878471965,
                    -0.1510609370416513,
                    0.24726632185897457,
                    1.3811944314958113,
                    -0.07626953133073566,
                    -0.034963163486609466,
                    -0.08048222542928428,
                    1.0449333832177334,
                    0.7012076486473368,
                    0.23165418192507042,
                    -0.5303439218629618,
                    -1.270105528085617,
                    -0.2792278374503485,
                    -1.1456854747217318,
                    0.28132326324107176,
                    -1.9427789256373098,
                    0.9832602372255472,
                    -1.0090660420564568,
                    -0.7934296064385281,
                    -0.2994618900336633,
                    -0.7795202828618172,
                    -1.1839012415984873,
                    -0.23562986154791538,
                    2.299582115139865,
                    1.1003032018790613,
                    0.24997573560241984,
                    1.276694726651865,
                    -0.34168659273729096,
                    -0.2138457067942429,
                    2.1742876447114874,
                    0.075109779054083,
                    -1.5799303248656031,
                    -0.02246580728173667,
                    -0.7665175728316752,
                    -0.9336862572861601,
                    -0.42257643979026155,
                    -0.621233472256558,
                    0.9460231104453889,
                    1.1467622225459921,
                    1.121175419917546,
                    -0.4954518920424764,
                    0.2980926422895206,
                    -0.32173395724109255
                ],
                [
                    -1.8193865330612242,
                    -0.3818095262665445,
                    0.5886102622784092,
                    -0.67537376183204,
                    -1.2047373423655612,
                    -1.0041066047216516,
                    0.03518076650131178,
                    -1.3103325679623876,
                    -1.7929851961991738,
                    -1.4235558593679905,
                    0.927526400053397,
                    0.6188716237175474,
                    0.6755024631796452,
                    1.6902990605934682,
                    0.23363942231353702,
                    0.23678846587293836,
                    1.985605994263444,
                    -0.26724438133561074,
                    1.0988197138794797,
                    -0.8733306595950752,
                    -0.7869753493688002,
                    1.178653291605305,
                    -0.14512551551491928,
                    0.2819162822448916,
                    -0.35926948804764436,
                    -0.06141275123450232,
                    1.9184938005774028,
                    -0.2721267984287865,
                    0.3142736709598939,
                    0.01226127036576008,
                    -2.4031152186782694,
                    -1.8069056264421985,
                    0.7304485773730295,
                    0.14839896192137034,
                    0.01722900443454252,
                    -1.0931104771423525,
                    0.49559022203990466,
                    0.22841012043783016,
                    -0.664957378793268,
                    0.3059522518227288,
                    -0.1926551088174881,
                    -0.41395849192865897,
                    -0.40617119482279296,
                    0.7275625545022474,
                    -0.03464230865864608,
                    0.4096091770989733,
                    0.7832215830740448,
                    -1.38391485200025,
                    -1.136633653859453,
                    1.2400390236824437
                ],
                [
                    -0.1692569326696945,
                    0.5944429908284923,
                    0.6061924453315484,
                    -0.038494457217769305,
                    -0.915177288403326,
                    -1.1524480493065123,
                    -0.06886755554857613,
                    -0.2306797837560199,
                    -1.0261732681037325,
                    -1.8159052988249433,
                    1.993581606315456,
                    -1.1685084823416148,
                    0.3159343382109767,
                    0.047876844958841064,
                    1.2206956478799864,
                    0.30708890270319117,
                    -0.3230814102144894,
                    2.83711185233299,
                    -0.32862014056232675,
                    -0.28107342650544975,
                    0.3212689415272136,
                    1.9732275941283661,
                    0.9957620837404142,
                    -1.0859317387036735,
                    -0.27189028643438806,
                    -0.5518624641447947,
                    1.021877746652259,
                    1.3444965196576941,
                    -0.6503839720730096,
                    -0.13493166170354923,
                    0.9562754950048615,
                    1.1869982051219725,
                    -0.3500537613195168,
                    -0.6425128102516319,
                    1.148986577572039,
                    0.741354441701064,
                    -1.3680906908726624,
                    0.2092075518398323,
                    0.19590933304536295,
                    -0.10454239844914007,
                    0.2939759582304995,
                    -0.1814210771105117,
                    -1.3654077396694018,
                    -0.18893896833235438,
                    0.7444254508703556,
                    2.590275133222596,
                    -0.521957964006581,
                    -0.4117565595625229,
                    -0.35599522222384544,
                    -1.1939670969741638
                ],
                [
                    -2.0368823392527258,
                    -0.12129544234640013,
                    0.1365848305979458,
                    -0.11266024782043141,
                    0.3946648628262137,
                    2.4880340362319937,
                    -0.5642440106682901,
                    0.05487056835618384,
                    0.44032264147179373,
                    -0.2013050261952442,
                    0.8914378570304171,
                    1.3349976196969011,
                    -0.6747735891128857,
                    -1.498137401402041,
                    -1.127073814188016,
                    0.2552694776432607,
                    0.780879877381636,
                    -0.09455721797971409,
                    -2.2455379916241016,
                    -1.9471874253044053,
                    -0.07307822484236873,
                    -2.6308189342995396,
                    -0.07622092291933313,
                    -0.1327363258852168,
                    1.670412824161865,
                    -0.5133383179270672,
                    -0.6181728258420823,
                    1.9196138712640345,
                    -0.40991729109099795,
                    -0.14086921044397463,
                    -0.3698918168448173,
                    0.3085434661897632,
                    -0.16190958983316817,
                    -0.6773630669514079,
                    0.13197730266592492,
                    0.5436673306494781,
                    1.7464037140987803,
                    2.6227759108803865,
                    1.802743630452877,
                    0.2847377862405229,
                    0.2186636347392256,
                    0.30021566116936427,
                    0.7987948171086737,
                    -0.455202847867826,
                    0.7670016910124148,
                    -0.1426104443905052,
                    -0.5437048284704383,
                    -0.8658770886203415,
                    0.0033779677045231438,
                    1.64909245262683
                ],
                [
                    0.23823027701271632,
                    2.005533354364939,
                    -0.3536265335050603,
                    0.14027587610551498,
                    0.13464466539077655,
                    1.862126454319538,
                    -2.0911455409826383,
                    -0.15350465220058762,
                    0.3279691614367642,
                    0.7601196817627252,
                    -0.20600156468250233,
                    -0.008832414717755071,
                    -0.21268580605730875,
                    1.3504560545598592,
                    0.2905057541350794,
                    -1.3653522429701606,
                    -1.3414584828840987,
                    -0.1380447400903146,
                    0.5797338863676812,
                    0.49688915791482235,
                    -0.3038014926314133,
                    -0.7506587070665077,
                    -1.5671148285814203,
                    -0.7926491222056576,
                    0.2341764618889249,
                    0.6871938372495854,
                    -1.9235775672135327,
                    0.3914989752739074,
                    -0.33113208299079294,
                    -0.04146878540123442,
                    -0.2808532952597833,
                    0.339020769718675,
                    -0.244650139916825,
                    0.15903345203302882,
                    0.855281084132649,
                    -1.9597839674852378,
                    -0.14583988610566595,
                    0.9991734601039653,
                    1.1341483792784952,
                    -1.0464157972399035,
                    -0.5470604999829728,
                    0.38379226598788857,
                    1.229962013835375,
                    2.2623324926401485,
                    1.1807880488506668,
                    0.8622199714843317,
                    2.7177805955307366,
                    0.6285171142555035,
                    -0.49447312791268533,
                    -0.22324995121449542
                ],
                [
                    -0.6718881203963624,
                    0.2978596413252098,
                    0.6674159873637588,
                    0.8616235207680127,
                    -0.05954996347917807,
                    0.11898524113843008,
                    -1.403610586463069,
                    0.8956060699115965,
                    1.0509312595713187,
                    0.021099990196735325,
                    -0.30798707332662756,
                    -2.5017554163313918,
                    -0.7488656653882315,
                    0.28646006321338974,
                    -1.4062043373942725,
                    0.7940228515915039,
                    -2.3711648299021277,
                    -0.030174604049830328,
                    -0.4897834038893554,
                    -0.3878959891652606,
                    -0.21931298283360545,
                    -0.3530425381146831,
                    -2.4279493616889516,
                    -0.642240649475044,
                    -0.7178333069725923,
                    -0.2297267032996205,
                    1.0310080564517006,
                    -0.6336423732154739,
                    0.7007214913020187,
                    -0.14704610363128223,
                    -1.0004534982925373,
                    -0.002048840563470017,
                    1.1977050982729045,
                    -1.5284105918146058,
                    -0.7380208328294137,
                    0.565302419020996,
                    0.511283073122926,
                    0.429164720908459,
                    -1.614146176323797,
                    -2.8708257747407586,
                    0.06659089499813807,
                    0.8841157131117815,
                    0.9416144750292027,
                    1.7000822897146477,
                    -0.15641084907251493,
                    -0.3243690234309988,
                    0.1880207852473717,
                    0.8429786924183986,
                    -0.20533884771680128,
                    1.0435947252541495
                ],
                [
                    -0.7763622660625097,
                    0.6993166982762464,
                    1.730486276290188,
                    0.5332977783681805,
                    -1.2138468809054015,
                    1.6236874459235529,
                    0.849685058588073,
                    1.0240445694720606,
                    0.9265386026923877,
                    0.6278288593191161,
                    -0.7848677173006415,
                    -1.1199869894274705,
                    -1.492536501833401,
                    -1.3656243564421993,
                    2.0419060438184498,
                    0.8773161933082698,
                    -0.9290074294147812,
                    -0.8034690553803291,
                    0.010702776330013514,
                    1.1832979982239673,
                    0.2541342881978301,
                    1.4678111532132583,
                    -0.11112858450613403,
                    -0.9846006765817406,
                    0.8666263991472543,
                    -0.4259502677267117,
                    -2.9671389124278775,
                    0.8086731024649579,
                    -0.18599287643714615,
                    -0.8537178011287234,
                    0.14623470708669634,
                    -0.7985554735234336,
                    1.9689726106856769,
                    0.3800302388856196,
                    1.0668016455312512,
                    0.6286545392135715,
                    -0.6815642138165573,
                    1.6028422807835894,
                    1.6731690299575601,
                    -0.214950359566292,
                    0.7893686911659781,
                    -1.3272963869932517,
                    -0.40531364584512103,
                    -0.4725401154949982,
                    1.548539225324174,
                    -0.8274899609514103,
                    -1.3317319515738768,
                    -1.6507381257360119,
                    -0.7258411470047029,
                    -0.6802360498701734
                ]
            ],
            "function": "sigmoid"
        },
        {
            "input_size": 50,
            "output_size": 30,
            "weights": [
                [
                    0.7162386139443722,
                    0.2128406179047803,
                    1.4198689454944151,
                    -1.2486660801671117,
                    -0.3302661462687852,
                    0.2921505634520953,
                    0.680346326170514,
                    -0.12255496165251584,
                    -0.6550440266764447,
                    -0.06010964111608438,
                    1.4652455982171648,
                    0.8177470536526271,
                    0.24449231340035055,
                    -2.0082392664360644,
                    1.4725297217501092,
                    -0.11592313282014927,
                    -0.8751418829583548,
                    -2.11934096832134,
                    -0.653518800676954,
                    0.9048646749590646,
                    2.570683661367575,
                    -0.78582008869232,
                    0.3961892708872933,
                    -0.26101071362281997,
                    0.4402957290621351,
                    0.3929458722295904,
                    -0.614069922278983,
                    -0.44115114856223414,
                    2.4091844318639355,
                    0.5046035215845297
                ],
                [
                    -0.9110378013393253,
                    2.481467770595146,
                    -0.2782054210604055,
                    1.7083064561093058,
                    -0.6384474108825408,
                    -0.048850988771016624,
                    0.8541658260405781,
                    0.6999864539067475,
                    0.8243992913835488,
                    0.33568335458782267,
                    0.13803632563787055,
                    1.0959688325629702,
                    -1.7170448013514905,
                    2.114734651488682,
                    -0.9261531326001349,
                    0.06579647759925798,
                    1.3695930460076762,
                    -0.40209026009374027,
                    0.7181245074872883,
                    -0.433893633865257,
                    1.579896709015969,
                    0.15879392668488934,
                    0.347191250843891,
                    -1.4392920222060333,
                    -0.5576528799538578,
                    0.5739682261947198,
                    -1.680119449064455,
                    -1.654002057472015,
                    0.5848532743808169,
                    3.49263835391974
                ],
                [
                    -1.3856816054655294,
                    -0.38602286732887053,
                    -0.7339909151363356,
                    0.3193268612170997,
                    0.465589603771547,
                    0.27943647145827144,
                    -0.18654466982951556,
                    1.3520573370066566,
                    1.9945586791137349,
                    -0.3040732757526655,
                    -0.16483259529988356,
                    0.30437380806304537,
                    0.3711208061909136,
                    0.7154785442292461,
                    -0.6759039193502852,
                    -0.30408652332003466,
                    -1.2463106288084078,
                    -1.5753010757496397,
                    -0.25695679858473286,
                    -0.06062583723291831,
                    1.388389175244406,
                    1.5956523796923445,
                    1.1923044037381856,
                    -0.2999654758766098,
                    -0.5144898866561485,
                    -0.7936286563264926,
                    -1.1966431670891928,
                    -1.344201883583468,
                    -0.6570905329356155,
                    -0.8292735142308996
                ],
                [
                    -0.646036674535817,
                    -0.7668065801543914,
                    1.265455058650747,
                    1.9915979119951475,
                    0.6499398906043768,
                    -1.0214929993008046,
                    -0.7429010192595277,
                    -0.5285028488691702,
                    0.6762672626352686,
                    -1.0387279102122866,
                    1.3568673588563867,
                    -0.6052101581611582,
                    -2.3220071050653224,
                    -0.043858144705382796,
                    -1.237824983913987,
                    -0.3956380309933845,
                    -1.160876858096989,
                    0.5664179252499659,
                    0.2256505694107827,
                    -0.4769529940443925,
                    0.4580791857796791,
                    -0.8754450107881531,
                    -0.6335643448655683,
                    -0.019304814838413106,
                    0.6905877400887599,
                    -0.11514585394759089,
                    0.2844760586501833,
                    1.5713809129618383,
                    1.3690600597298004,
                    0.4895659113052532
                ],
                [
                    -1.612914253870286,
                    1.4297786117474398,
                    -1.1208526255433662,
                    -1.4935098637514315,
                    -1.413966705849766,
                    1.4886347456292661,
                    0.2569206115738597,
                    -1.312444533816336,
                    0.941470047765733,
                    0.21396416595868403,
                    1.728469782920308,
                    -0.2988255563027953,
                    -0.3848657664571299,
                    0.4757110605918974,
                    -1.208667141277172,
                    0.5481859853265209,
                    0.183862315829355,
                    0.8470725199754687,
                    -0.29065883776217816,
                    -0.16966244860301688,
                    1.0444289121572357,
                    -1.2188803312533198,
                    1.3067838187750296,
                    -1.9790874906885834,
                    -0.8881661159641362,
                    0.3796187676561062,
                    -0.6140360249528791,
                    -0.7304743604247257,
                    -0.24753561620485245,
                    0.5788590971809108
                ],
                [
                    -1.367260947347169,
                    -0.23560790571268472,
                    -0.6871507101051508,
                    0.6410082491350919,
                    0.2995466648913208,
                    -0.02022962950480009,
                    -0.7623920107552733,
                    -0.623674595927413,
                    -0.22099276714609573,
                    -1.0368271881560363,
                    1.1288812396626,
                    -0.06825266860248808,
                    0.3717287474909102,
                    -0.33258728073762045,
                    1.5914985262931078,
                    1.305522720683192,
                    -1.2960239553965995,
                    0.8248701601233377,
                    -1.3642885034653693,
                    -0.4204147247012981,
                    -1.1570988002274212,
                    -1.4982524740224954,
                    -0.39124009538502647,
                    0.7856695974214917,
                    -0.1328910449959409,
                    1.070999131786445,
                    -0.6118293009669411,
                    0.43199011934673676,
                    -0.12274422582885094,
                    0.49265296184912244
                ],
                [
                    0.00039970330601953735,
                    -0.765220062222,
                    1.1450451241561612,
                    -1.0996501546193582,
                    1.4598295774193333,
                    0.5895021557873122,
                    -0.2422378204747624,
                    1.3398845611393464,
                    1.829113560967072,
                    -0.46905217011115635,
                    -0.7660146223715716,
                    0.03773558496330204,
                    1.7215138137154034,
                    0.01762144260181022,
                    1.8170268583353364,
                    -1.714642674670998,
                    2.0299629411897135,
                    0.29376122535982085,
                    1.675608528374986,
                    0.2686486813904078,
                    0.01797518913215021,
                    -1.1124795878405829,
                    -0.7306806105829419,
                    -1.3387066407421906,
                    0.024721280841216546,
                    1.3949397034388475,
                    0.7929925759536143,
                    0.1047645439226301,
                    -0.19600982675056827,
                    -0.12295317390038982
                ],
                [
                    1.1603722253410875,
                    -0.20930506032122492,
                    -1.5297419383153703,
                    -0.4219560190337076,
                    0.0956938991419666,
                    0.12042481031782955,
                    0.49717896184980487,
                    -0.4312303608575092,
                    0.24418086793086505,
                    0.908163434514912,
                    -0.1501340026143205,
                    0.9901189120545939,
                    0.0072407178830691254,
                    1.118028758929262,
                    0.7000546960186373,
                    -0.7018748852678902,
                    -1.0603482989587445,
                    0.7905785748590954,
                    -0.42995924778305683,
                    -0.5692441233111163,
                    -0.6986887389256636,
                    -2.4156373709383123,
                    -1.7029825584911995,
                    -2.1457724442058947,
                    -1.4895765333536966,
                    -0.1426104713566939,
                    0.7048351548609006,
                    -0.2774476811206027,
                    -0.30885184584865144,
                    -0.6381559955721919
                ],
                [
                    -1.8758539107910377,
                    1.8876108513007712,
                    -1.5912743784507977,
                    -1.1428929448015084,
                    -0.5156674785111782,
                    0.22837760956893405,
                    -1.0954925597323664,
                    -0.590318532444281,
                    1.3526254034963503,
                    0.8324979416668649,
                    1.1027486127191022,
                    -0.9928491638909139,
                    0.5964777196367727,
                    -1.792966890760705,
                    0.34562107080425997,
                    0.6852457875891045,
                    1.489477953293633,
                    1.004641457618686,
                    0.5776687749246994,
                    0.9700910279229527,
                    0.5432952064870198,
                    0.6334119183587869,
                    2.255256443758016,
                    1.565872490226353,
                    -0.10200469150386024,
                    -0.11278691268705542,
                    0.24835084674205848,
                    0.13365319680731982,
                    -1.9316400772724553,
                    2.423002366345428
                ],
                [
                    -1.0273608570374482,
                    0.8643660842559139,
                    -0.006004244049192101,
                    -1.2576973565876164,
                    -0.6952105347561847,
                    0.5105444943132871,
                    -0.3496808832394751,
                    -0.17088292604073077,
                    0.8479746377932641,
                    2.017430400251129,
                    -0.9192520262122161,
                    0.7202894018567835,
                    1.0269803255851946,
                    -0.8105668201096362,
                    0.7618299133458166,
                    -0.2401052502057893,
                    -0.9126801409836063,
                    -1.360381156447358,
                    0.0005879269389638883,
                    -0.49273094951341495,
                    -0.96448936871052,
                    -0.4307074407535601,
                    0.862252163260842,
                    0.196061415205999,
                    -0.6167207711071817,
                    -1.4565947794919143,
                    -0.8150146584095778,
                    0.19206331629467083,
                    1.5056643327409605,
                    0.05509930119964307
                ],
                [
                    0.3237791470715435,
                    -0.7409300779223169,
                    1.733609426902737,
                    -0.32950724027656625,
                    0.5523638544687921,
                    -0.3449061330334463,
                    0.3801541157340703,
                    0.9174842004769669,
                    0.21484364248736115,
                    -2.0976310426133726,
                    -2.1100211473739168,
                    -0.468207263569807,
                    0.9454312581756166,
                    0.6427159783433369,
                    -1.0762277725053522,
                    -0.875374344761412,
                    0.07348579634640279,
                    -0.37831411505455137,
                    0.07874698670714317,
                    0.27352765757275854,
                    -1.6284160765148707,
                    -2.3506862309566947,
                    0.6796883035321013,
                    0.006607521952455772,
                    -0.5972334616552577,
                    0.7385200367552082,
                    2.8273083196216895,
                    1.240277457365214,
                    0.5851239191819236,
                    0.8444635859311383
                ],
                [
                    -0.9679942348210395,
                    0.8115358698215155,
                    2.029779296133389,
                    -0.9113633622209132,
                    0.4099066810418182,
                    0.39406744245771774,
                    0.2849344136080527,
                    0.2415427771388317,
                    -0.07918344804245427,
                    -0.3074263252556637,
                    1.6185049747289835,
                    2.05951110988084,
                    -0.1591695882672794,
                    -1.461574032849183,
                    0.24123265513638478,
                    -0.7824153030210315,
                    -1.193813027409772,
                    0.37706770667164546,
                    0.15538393854358784,
                    -1.8364335727851626,
                    0.571901330569018,
                    -0.6271342173855786,
                    -0.2727799000253496,
                    0.04696793447379779,
                    -0.613618821987657,
                    -0.11801645188617294,
                    0.6533373740361844,
                    -0.3033149369722161,
                    0.9502286729071276,
                    -1.1062286913378725
                ],
                [
                    -1.7546299978622704,
                    -0.8937434039899759,
                    0.6998877245747956,
                    -0.5229016242329788,
                    -1.098371529806373,
                    0.5885223063087063,
                    -0.18644748637678127,
                    1.4419207114810249,
                    -1.0496105061863985,
                    -1.32572327616962,
                    -2.443783400671808,
                    -0.8980692875425568,
                    -0.10053461564116523,
                    0.2145614107843803,
                    0.20643335640940058,
                    0.16333828820341884,
                    -0.43986051072122506,
                    -0.9732833740486122,
                    1.0452896144070036,
                    0.9018121715457277,
                    -1.1426507414584535,
                    0.2622239771837272,
                    -0.1842651529858451,
                    -0.23287912198609362,
                    0.48006462169120073,
                    -0.16165082845821416,
                    -1.7762072984481982,
                    -0.7770920848681308,
                    1.7538375026995763,
                    0.23191840846321268
                ],
                [
                    -0.3644969690021468,
                    -0.6591513274910002,
                    0.5646631213041213,
                    2.070634833921724,
                    0.543264543619731,
                    2.220231422922689,
                    -0.23560753940583745,
                    -1.101164771356669,
                    -2.6205037232070816,
                    -0.5566683223967182,
                    0.0871794667988359,
                    -0.5913210218590592,
                    0.5364893469190175,
                    -0.6527132337688564,
                    0.1669174603429793,
                    0.43742088598175316,
                    -0.4947815795167252,
                    1.8144029911612574,
                    -1.2874941642737954,
                    -0.006109155997269827,
                    1.074765288504495,
                    -0.20102059962655205,
                    0.39068515431909523,
                    0.11562260468152599,
                    0.4543220725650811,
                    1.3070653669302188,
                    -1.5231128315282088,
                    0.7769798715762223,
                    -1.4749936883345105,
                    -0.23974707583210314
                ],
                [
                    1.6178712170761158,
                    -0.8608434497912568,
                    -0.9315841468747288,
                    0.37909496844034696,
                    -0.09376013277585277,
                    -0.9395962109950234,
                    -1.8803745523775512,
                    0.09773491577423248,
                    0.15243054455127203,
                    2.1620989442459577,
                    0.7804142362062472,
                    -0.39676948284897545,
                    -0.6271169001519086,
                    -1.1305114762622481,
                    -1.7823436432363116,
                    -1.3168464907407462,
                    0.6324815637711861,
                    -0.504821365046207,
                    -0.21765019971421853,
                    0.2710696405358605,
                    0.5127077734068474,
                    0.7168118763099388,
                    -0.920379679761796,
                    0.1749553882378375,
                    0.5717009858461207,
                    -1.832805112750167,
                    0.43745886610466,
                    -0.33331207182527833,
                    0.1317547754520784,
                    -0.4211149991426227
                ],
                [
                    1.076893259964125,
                    -0.9709198014935686,
                    1.8916985033628932,
                    2.31386383425804,
                    0.32350895714885874,
                    1.8047555724036846,
                    0.2143907841512231,
                    -2.589202028264662,
                    1.8019439670016741,
                    0.010833352088340409,
                    -0.6788575513581327,
                    -1.0306332086785817,
                    1.45772630069109,
                    0.17886557233842065,
                    0.6208337201517357,
                    0.0027771882163431377,
                    -1.6697990083367982,
                    1.2077484734870634,
                    0.2461823151083338,
                    -0.8751555904370982,
                    -1.6515717801230618,
                    1.4553675984122028,
                    -0.4170273802834706,
                    0.9564265848779593,
                    -0.4823771153288304,
                    -0.9458458798667995,
                    -0.910831808657001,
                    1.1205458599834417,
                    0.2336496938703106,
                    0.45329150895849507
                ],
                [
                    -1.679510049903654,
                    0.3937262793951386,
                    -2.3847959097293057,
                    -2.0957543256956095,
                    0.8090656189742211,
                    -0.6999362267294034,
                    -0.6351386324019548,
                    -0.6233995765918249,
                    -1.5279123050700694,
                    1.1801969830896795,
                    -0.6440528516458257,
                    -1.8973971794256752,
                    0.4382262871627942,
                    0.1779629923407532,
                    -0.11032335122583156,
                    -1.389447096414558,
                    1.665648299072492,
                    -0.403751737049591,
                    -0.21026782810569572,
                    0.9333595858711193,
                    1.856381326047926,
                    1.4798364464483589,
                    -0.18743950015297048,
                    -1.2137051487257042,
                    -0.03433099118091927,
                    0.5863212861501954,
                    1.1357909625981417,
                    0.30147674163278126,
                    0.10778460593200406,
                    -1.7304082043220506
                ],
                [
                    -1.265974362816081,
                    -0.4198695794700701,
                    0.002018414877990579,
                    1.1869483133507293,
                    0.20754098210567237,
                    -0.031128197165743665,
                    0.187646789319041,
                    -0.15041839604106763,
                    0.6399768253041465,
                    1.120100616528027,
                    -0.5767743036357577,
                    -2.047056305625261,
                    -2.25018844765758,
                    0.6191306709003854,
                    1.658341737150741,
                    -0.5142284906878448,
                    -1.6414206857485578,
                    1.8566530654624038,
                    -1.543176620951273,
                    0.6280333113242627,
                    0.7376064544674754,
                    0.6462056473817251,
                    -0.1102072633399859,
                    -1.2650071370788774,
                    0.45182922105282847,
                    0.41024360945276295,
                    -0.012359615248229906,
                    0.6072496127808188,
                    -0.5713108012066023,
                    0.7917074932632481
                ],
                [
                    -0.5397253567997868,
                    1.3128535089589939,
                    1.5588813166174582,
                    -0.4925065133701518,
                    1.8899682631174484,
                    -1.3001927794037575,
                    -0.9916900238427279,
                    0.6086816597026447,
                    0.8303761197403118,
                    2.313756272198401,
                    -1.562821971832233,
                    1.0079842925855684,
                    0.763389184993917,
                    -0.35918465869976474,
                    0.4739835008371255,
                    0.5214647563247683,
                    0.49797950579075756,
                    0.23097170368899017,
                    0.7356094246129317,
                    0.22680653830032274,
                    1.0539825158269736,
                    0.7180268458571287,
                    0.41214763418524625,
                    1.7068297517987119,
                    1.314691710686783,
                    0.24389998425890813,
                    -0.07025133572549033,
                    1.0341924958079562,
                    0.8005660786759681,
                    -0.3901225106239381
                ],
                [
                    2.2727862877096654,
                    0.06833216469767507,
                    -1.158544957131021,
                    0.5048603077086489,
                    -0.02947141751997724,
                    0.6168231314634082,
                    0.7611728244177192,
                    0.3169927728812834,
                    1.4580440220294446,
                    -1.2930236967569582,
                    -0.46478048671685046,
                    2.7476736182009063,
                    0.04115824936407636,
                    -0.7450358028768302,
                    -1.1565768039287867,
                    1.4505166983615676,
                    0.36108628606619153,
                    0.7528078550298517,
                    0.8243591935233845,
                    -0.4825453373569236,
                    -0.5419308332720224,
                    -0.9520495845526801,
                    -0.12395261463218984,
                    1.9907258230900504,
                    0.7247881584035045,
                    -1.9068473997894184,
                    0.5022393798283078,
                    -0.5400401303857506,
                    1.0100704503032876,
                    1.8418329702440919
                ],
                [
                    -1.359176053898934,
                    0.15993793426888359,
                    -1.2524766458111547,
                    -0.10345187676581821,
                    -0.6152593366259453,
                    0.12339479600254535,
                    -0.7718890063617977,
                    1.9626110466502729,
                    0.5269266980050559,
                    -1.8305354465275105,
                    0.9827712497509675,
                    2.534839326163007,
                    -0.9833077081143005,
                    1.4729270819729898,
                    1.4450483831289576,
                    -1.1787313147988685,
                    -2.0348888470298436,
                    0.07540526077993104,
                    0.4546732767388053,
                    0.7778807958708747,
                    0.4496686480829475,
                    0.6369775705628095,
                    -0.6494346442321023,
                    2.849505855680977,
                    -0.6463529462731465,
                    0.35328657011697173,
                    0.46002794893519067,
                    -2.3206780331507426,
                    1.1717515821868718,
                    -1.8762635362074662
                ],
                [
                    0.3266272192778351,
                    -0.32174618715855047,
                    -0.7966563005604701,
                    1.5287751898453437,
                    0.3967838522532884,
                    -0.45432174591193664,
                    1.8227982137793788,
                    -0.7910514756087231,
                    -1.4489642376363365,
                    -1.2896709924268364,
                    -0.7991821845324902,
                    -3.0757284475744484,
                    2.4444844157799244,
                    0.9167421012609261,
                    -1.167337190279542,
                    -0.06286705425296399,
                    -1.242573313583416,
                    0.5655659657546601,
                    1.6005463354326177,
                    0.538479075193883,
                    0.41678300586991474,
                    -1.27886251312193,
                    -1.5972861994669194,
                    1.3616932637426797,
                    -0.9809740662461662,
                    1.4472490087715948,
                    0.2715573741153452,
                    0.2779937712293999,
                    0.32994307857090954,
                    -0.6884832616032466
                ],
                [
                    -0.4614769112792053,
                    0.8668465707622652,
                    0.6485942891067219,
                    -0.18102654694433215,
                    -0.18253800933099765,
                    1.0471341113564065,
                    1.3359980047924347,
                    -0.6745766667797781,
                    -1.5348276556886549,
                    -0.14390528262881572,
                    0.1551905774338327,
                    -0.0227890096828436,
                    -0.638741409710308,
                    -0.46679668409230957,
                    -0.26166390419928,
                    -0.015699741968551673,
                    1.9601833579554004,
                    0.7425854098924942,
                    -0.7757449241516667,
                    -0.5132994997453548,
                    -0.8907682626806487,
                    0.607634768725352,
                    -0.32394760313753124,
                    -0.3237313262323658,
                    1.655327537381402,
                    0.011649785859210018,
                    0.9700001877885096,
                    0.3966197298102053,
                    -1.292092408914426,
                    -0.13844766870486228
                ],
                [
                    -0.3251063435733032,
                    -0.19434786664119855,
                    0.2510433022260773,
                    -1.6461064871967537,
                    -0.913323785093032,
                    1.4210429521354426,
                    0.011491261017992239,
                    -2.0926255827732647,
                    -0.0210766730521548,
                    1.135505344509138,
                    0.8524364033730369,
                    -0.7337714275620774,
                    0.4791266539714346,
                    -0.07742535067634726,
                    -2.337149403998068,
                    -0.6900664646507924,
                    0.3362886662951968,
                    -0.40192170440303565,
                    0.36329550878982675,
                    1.2747898335278636,
                    1.4284353049439176,
                    -0.3798421933112314,
                    -0.5331391030073538,
                    0.13022805966680306,
                    0.2221115664390456,
                    1.8960209382151068,
                    -1.0674405528413589,
                    -0.5370604106357275,
                    -0.43362580345907226,
                    -2.462739625589561
                ],
                [
                    -1.1841762021127449,
                    1.3392065201455325,
                    -0.11268080387764275,
                    1.7260558923542282,
                    -1.4932956430948106,
                    0.011770745027532725,
                    1.293327191449849,
                    -0.7704708217802582,
                    0.2803605299594553,
                    1.6591286431103092,
                    -0.4239970475166143,
                    -0.7412810605477955,
                    -1.6081291951026897,
                    0.4492339099613377,
                    -0.7377533889834459,
                    0.26835074179733176,
                    0.2489526309331347,
                    1.3401474468863612,
                    0.12547204055658379,
                    0.5859007930232664,
                    -1.1727315038034682,
                    -0.4853118578827563,
                    -0.3813012757949929,
                    1.3760992368624163,
                    -0.9658931364367669,
                    0.4479062040167,
                    1.347705212704386,
                    -0.07835998650207024,
                    0.3076449030077407,
                    0.44587367274694656
                ],
                [
                    0.17812201856798393,
                    0.45297852700410407,
                    0.7869674525215378,
                    1.0805638277033944,
                    0.8574767332843539,
                    -0.6386780786607926,
                    -0.7152921282343498,
                    0.0904555614487842,
                    0.06281533807973105,
                    0.5066655059552831,
                    -0.7516074464840824,
                    1.5906896940635238,
                    -0.6670901578610967,
                    0.41689714350551926,
                    -0.03399926758564105,
                    1.02150859145473,
                    -0.8718917014178516,
                    -0.7028803990054543,
                    0.44187742307831285,
                    -0.8994759537837369,
                    0.31309723648961874,
                    0.4270229930838669,
                    0.6161540366741902,
                    -0.10681143784823621,
                    -0.4315461471038121,
                    -0.36200678892118776,
                    0.11939096627037779,
                    0.7713109254517414,
                    0.6240149376804898,
                    0.2033023961530106
                ],
                [
                    -0.17534556059260975,
                    -2.3047944758250365,
                    0.38786100252420125,
                    0.24347730037517834,
                    -2.1125998626309648,
                    -0.11864021144689368,
                    -1.340047715353734,
                    -0.5933564477592793,
                    -0.168362294406265,
                    0.6466211998883019,
                    0.6324658392987004,
                    0.42758714431772676,
                    0.9972937701636504,
                    0.7650128128974331,
                    0.02096334735580696,
                    -0.34848560022692604,
                    -0.5336875222964024,
                    0.5042225707574937,
                    0.014637558285930392,
                    1.7610500848778425,
                    1.0409746980565822,
                    0.5279488390286413,
                    0.7001556310643168,
                    -0.47416846189891815,
                    -0.09741969173544485,
                    0.9714965631462508,
                    -2.741144580496337,
                    1.1034636351044753,
                    -0.44546614634167814,
                    -0.9826613833266551
                ],
                [
                    -1.2899932327940389,
                    0.03724557158243,
                    0.28218934614270397,
                    0.901862696537672,
                    -1.5663526610499783,
                    2.190399993271095,
                    0.8400179494322976,
                    1.1247306066834695,
                    0.5268489619214788,
                    -0.2116216693283889,
                    0.5775713386431716,
                    -1.5194624014278566,
                    -0.2507211588410446,
                    0.92550141149954,
                    0.28307267689050425,
                    0.16860306868874442,
                    0.9965779243712057,
                    -0.5691971001321565,
                    0.3154807490767318,
                    -0.35615389172573897,
                    0.800996715316844,
                    0.4300352542287608,
                    0.7054591577671956,
                    -1.3997697822665958,
                    -0.8723132260026367,
                    -1.2968130088591927,
                    0.14258998120264954,
                    -1.9614326930089194,
                    1.3338236252034599,
                    -0.3065279566529856
                ],
                [
                    1.1166231863358205,
                    1.7272140257850706,
                    1.0628658192219524,
                    -1.5992185364327343,
                    -0.21414216911991496,
                    -0.3168140159966749,
                    0.5594696866218157,
                    -0.44341654867315416,
                    0.7675676701037796,
                    -2.514570178806047,
                    -1.6032140748665924,
                    0.534944814788138,
                    0.32174539052060314,
                    1.7225233545937348,
                    1.0409789260682756,
                    1.6198735714130181,
                    -0.12719751509580735,
                    -1.0205775238964847,
                    0.9731358320771561,
                    -0.2875310961078643,
                    2.2024699442437483,
                    2.8839079442666526,
                    -1.7721635511218379,
                    -0.14735664985783073,
                    0.04242653020970045,
                    -0.24289952819107294,
                    0.9133860198951361,
                    0.9133661152145817,
                    -1.714280385549895,
                    -0.9949891271772917
                ],
                [
                    0.8900621905862306,
                    0.1951961602946109,
                    -0.18113342941768762,
                    -0.04963558860316804,
                    0.6792971951344893,
                    -0.3055587805333738,
                    1.0148168040584558,
                    1.050347340870966,
                    -0.9731823856754724,
                    1.1134340975893422,
                    -1.5594576973231546,
                    0.7172181290600494,
                    1.367509247300133,
                    -1.07441260790891,
                    -1.011401507948246,
                    0.19597940378820328,
                    0.8212140677694552,
                    -0.35834687709514756,
                    0.8946917856876185,
                    0.8378024996795401,
                    1.4281695554184772,
                    0.1198601373270875,
                    0.3071865542627963,
                    2.0670013932331215,
                    -1.1754051672852062,
                    0.09687078205782322,
                    0.10684848588439272,
                    -0.40054706788542366,
                    0.26563224145376735,
                    2.0038940077474026
                ],
                [
                    -0.49472005764281446,
                    0.5625842404316725,
                    0.9673011371906155,
                    0.9481078261023703,
                    1.7232865034083429,
                    -0.6902676018521641,
                    -1.7166787280081282,
                    -1.022775596419772,
                    0.7582418779450484,
                    0.09856791263819628,
                    2.0196425818633155,
                    -0.010567540643989182,
                    0.2804902771648672,
                    0.7973645485644395,
                    -1.5468625752586977,
                    0.932633275348411,
                    -0.4245138233639225,
                    1.191919224035151,
                    0.8428179790779777,
                    -0.6427417170948757,
                    -0.40034234661500023,
                    0.21952234976820537,
                    -1.5052016808720452,
                    -0.3999723926776352,
                    0.4356926501971178,
                    0.34954720000914286,
                    1.6819564067488482,
                    -0.13237292682998203,
                    0.24116968537021952,
                    1.2336947280163957
                ],
                [
                    1.6063423083472237,
                    -1.0244812075245642,
                    -0.02989668124561974,
                    -0.020463946702765787,
                    0.28715076749396223,
                    -0.19663347655858004,
                    -0.22016888875826235,
                    -2.8787136004327887,
                    -1.8287493140462585,
                    3.0858448673971806,
                    0.19930861447936932,
                    2.1907479906973597,
                    -1.2299640836250294,
                    0.011323875075863743,
                    -0.4295959261258015,
                    -0.2814277728864143,
                    -1.369364612182956,
                    0.8395841760167522,
                    -1.397440470649646,
                    -0.7458906557656574,
                    -0.7045820567828249,
                    1.141991697675938,
                    -1.6911307917605074,
                    -1.6216892708700805,
                    0.4577215043484289,
                    -0.6472896948205316,
                    -1.4812790641997127,
                    1.3058184424280865,
                    2.0982002652865868,
                    -0.13988621495619444
                ],
                [
                    -0.21639124949915928,
                    0.041659359243115354,
                    -0.7131385906318052,
                    -0.573811371164261,
                    -0.29154260012044586,
                    -0.724094969574149,
                    0.09939185478163406,
                    -0.046536140280242076,
                    -1.1098261633750697,
                    1.9664473863720502,
                    -0.2621920726818969,
                    0.84369747007669,
                    0.40614416371734907,
                    -0.8691879616461601,
                    -1.2150404678900393,
                    0.3784372618461659,
                    -1.4632603264365336,
                    -1.4363302771858393,
                    -1.0855493956505349,
                    0.07061387656369761,
                    0.2023221065399982,
                    -0.7306014572847183,
                    0.3501608978322382,
                    1.1082854365505663,
                    0.26266201050062604,
                    0.9866168669449065,
                    1.2154082180132704,
                    1.229467926835351,
                    1.081817978647055,
                    -0.8523420410099076
                ],
                [
                    0.935024722693704,
                    0.6602392584035004,
                    -0.3475111363396825,
                    1.1022588809302278,
                    -1.9321515585484694,
                    -0.8627002371821636,
                    -1.9809212598153738,
                    -2.120355833837112,
                    -0.7596787408981063,
                    -2.544020256264732,
                    1.4444808861486955,
                    0.728375413783146,
                    -1.2289282180107772,
                    -0.036479834693561086,
                    1.2006595602273065,
                    1.0754334752874062,
                    0.5689281983518172,
                    -0.8799556332804721,
                    0.3902606446979746,
                    -0.8089524333671445,
                    -1.2132527675662794,
                    0.8322919315615436,
                    0.1580841115806223,
                    -0.8508545296434473,
                    -0.028547221113884177,
                    -0.3382656638889264,
                    0.6102250148387705,
                    -0.05038545210421523,
                    0.7036043488288051,
                    1.5667305241085994
                ],
                [
                    -0.3608030881978564,
                    0.1275391899172419,
                    -0.7517397589324128,
                    -1.8094600797185993,
                    -0.1940713140866405,
                    0.1311157142922079,
                    0.5150499373510262,
                    -0.7254470297687973,
                    0.6078235996788008,
                    0.18649668859946997,
                    -0.3609849362048329,
                    -0.8966469124399385,
                    0.7203137616624602,
                    0.49949200938078664,
                    -0.8327132994736138,
                    -1.1278233522602465,
                    0.7441341643119287,
                    -2.077812190169827,
                    1.0199747383636293,
                    0.30627560323332215,
                    0.719793697551403,
                    -0.7635776251989411,
                    -1.324606294841876,
                    0.5905198022294236,
                    -1.9927871897965672,
                    0.8522737865084736,
                    -0.14575889547655768,
                    1.3005613372564717,
                    -2.066884862828708,
                    -0.4732335721193852
                ],
                [
                    0.32705719361281416,
                    0.8998034361893474,
                    1.9112201256269432,
                    1.5579687805846385,
                    0.33601694854288267,
                    -1.0276664544177623,
                    -0.7429630850098436,
                    0.03920490478208,
                    -1.0641429604855042,
                    -0.49047823207097707,
                    0.553476133518574,
                    -0.9007681999249296,
                    0.825461586282988,
                    -0.4911282469116529,
                    0.7866917121841874,
                    1.335576884845932,
                    -0.7516942337988725,
                    -0.9734516453173776,
                    0.5754945722475067,
                    -0.8976512391442782,
                    -0.20440487097086096,
                    0.09245758576357176,
                    0.8339580647647281,
                    0.6324774175775769,
                    0.6171103394936377,
                    0.40782065493225417,
                    -1.0703400604871942,
                    0.5224924305232717,
                    0.8810903084353714,
                    0.7326188448987547
                ],
                [
                    -0.7471001787278073,
                    0.47831513407537846,
                    -0.7009062409964164,
                    -2.1085235535452367,
                    -0.7436006382201314,
                    -0.22105569325081054,
                    -0.12306451189887865,
                    0.9650587876120748,
                    0.013235483819497833,
                    0.4741673026245506,
                    -1.6301936447184013,
                    0.07574942817222766,
                    -0.6661645841982313,
                    0.7652786610217079,
                    -0.04506212909229612,
                    -1.1593100672282968,
                    0.11721775583617734,
                    -0.2903168537971217,
                    0.8942579915624598,
                    -0.6423488074950519,
                    -0.7466629985954314,
                    0.6596571012220896,
                    1.5848018179126828,
                    0.6781540363728729,
                    -0.08324596730169384,
                    0.31402843862244867,
                    -0.5500590455590032,
                    -0.38566744714877904,
                    0.9429717659206402,
                    0.261864618681152
                ],
                [
                    0.8922052301522743,
                    0.587616354278636,
                    -0.04792145532783959,
                    0.600404230083912,
                    0.7816209898689748,
                    -0.3478374326174222,
                    -0.5781631357868484,
                    -1.0392149704503284,
                    1.2417458307318683,
                    0.10886756251744871,
                    0.0727914729456462,
                    -0.636559118534543,
                    0.1544952529559242,
                    1.82803460690151,
                    0.827055657946784,
                    0.601059956468225,
                    -0.5917280354484445,
                    0.07273495400734795,
                    -0.6247089151751245,
                    -1.0520696195186048,
                    -0.6228295098001944,
                    0.47302364492235355,
                    -2.851265279264985,
                    2.129027241698629,
                    1.353686141024909,
                    -1.558176131484315,
                    1.3186489793068341,
                    1.3317509887727004,
                    0.24941430444998197,
                    0.6924200440240926
                ],
                [
                    0.050078068468657054,
                    0.4790619219115246,
                    0.7477096996337854,
                    -1.410943390200607,
                    0.5391715938191117,
                    1.8987680711880275,
                    1.5228404909112034,
                    0.6149429088583692,
                    -0.42580493035432654,
                    -0.293433512305979,
                    2.0768941348551593,
                    -0.037486651284981985,
                    0.28109333637160167,
                    -1.3920541964091906,
                    0.566997945894814,
                    -0.5918043389929847,
                    -0.885703010263774,
                    -0.6882627072328784,
                    0.7932855604412188,
                    -1.1569027699949603,
                    1.364367301154489,
                    -1.2793368472856623,
                    0.8254855434955162,
                    0.39815358875327,
                    0.8016293115511994,
                    0.7918673925117753,
                    0.5662278963528635,
                    0.3568886145743413,
                    1.2911785708559935,
                    -0.5633852591088808
                ],
                [
                    -0.6643101478256985,
                    -1.999696598242394,
                    0.3742981312436622,
                    -1.1016551777767738,
                    1.061651423355209,
                    0.33711878002107587,
                    0.6845281784938131,
                    -1.1994831972756441,
                    0.8354962176161679,
                    -0.7589822608210045,
                    2.2697988471830115,
                    0.6634674890266892,
                    -1.0022220324234559,
                    0.08162380074482614,
                    0.5371273417324545,
                    1.9282442011853538,
                    2.002153177251129,
                    -1.4545440066711177,
                    0.5851592459589412,
                    -0.8866199907518416,
                    0.43289214751918487,
                    0.18805789205585657,
                    1.0391654781579862,
                    -1.854603247490332,
                    -1.0257619080210054,
                    -2.578267405026749,
                    1.0445258671434692,
                    -0.9360778163622337,
                    -1.5688098490651785,
                    -0.9547175374727546
                ],
                [
                    0.14870279532049938,
                    0.5020287331374418,
                    -0.16484766124405736,
                    -0.11902729900770789,
                    0.2334876373857783,
                    -1.9157440072744296,
                    0.22373550207873885,
                    0.45638870088240613,
                    0.11949786253735017,
                    -0.29983056268501573,
                    -0.4382642744795926,
                    -0.009226474494536709,
                    -0.7951356482678923,
                    0.37966579576626674,
                    -1.546206040391326,
                    -0.06366269344710437,
                    1.434218020399423,
                    0.5796133418254978,
                    -0.5251803027589077,
                    -1.4070632817405164,
                    0.08722702478148402,
                    -1.4144825926669258,
                    -0.27798777720151996,
                    -1.3777235087888606,
                    -1.5693723045267332,
                    -1.4302067899292343,
                    -2.614064729398946,
                    -1.4100276378313625,
                    0.22687305511401204,
                    -0.43085364849702534
                ],
                [
                    -1.2687157645131744,
                    2.0493247258693392,
                    1.5172540055169081,
                    -0.67249238774404,
                    2.8004270237370594,
                    0.6333589348771895,
                    2.2996514512851567,
                    -0.5862994812561007,
                    0.1928229457427606,
                    -0.8715251569758475,
                    0.41180378199275125,
                    1.7993257907651035,
                    -1.778123058850168,
                    -0.32032266535463816,
                    1.1876942785970628,
                    0.047709728123362036,
                    -1.8545487975217925,
                    0.44777600189572614,
                    0.8943502045836004,
                    0.2849550744642679,
                    0.9071523897238576,
                    0.1686277603975625,
                    -0.09643063595146645,
                    0.21379326298225199,
                    0.3979436885426797,
                    1.4140068482040038,
                    1.143432775522466,
                    1.3817872849377606,
                    -1.0834024903983168,
                    -1.6304261211511162
                ],
                [
                    0.7918155174320599,
                    -0.07918763436134493,
                    -0.3885770702670449,
                    -0.5265290837431639,
                    -0.28088001316117167,
                    -1.9308624621807056,
                    1.6501650952097817,
                    -0.2047579323629585,
                    -0.4272374611789076,
                    -1.72387853997867,
                    0.5979315730039606,
                    -1.3323469243480002,
                    0.47851165952721725,
                    -0.5912682231552365,
                    0.7854216733978578,
                    0.25287031485305833,
                    2.213755938590311,
                    -2.857786634738148,
                    -0.12367570301067646,
                    -0.1122343172567301,
                    0.21160022781992124,
                    0.514344849709915,
                    0.42197122890241745,
                    -2.6901757260671806,
                    -0.052270395965623134,
                    -0.20453524790858965,
                    0.5623343376270702,
                    0.09766210381418543,
                    1.0627788121078234,
                    -1.500742168444983
                ],
                [
                    0.43527644743365806,
                    0.8929163774856708,
                    -0.9574214017314028,
                    -0.22852094966040137,
                    0.2651705634193895,
                    0.5223086735729654,
                    -0.6198940769573438,
                    -0.4621738567545516,
                    0.649304797997495,
                    1.8401788571668407,
                    0.7072705520007238,
                    0.6506520248457338,
                    1.6829354895663793,
                    0.06655952865289169,
                    -1.0623635565318779,
                    0.7094254967419469,
                    -1.0905300813110426,
                    0.4717984968496894,
                    -0.3064488003705848,
                    -0.06213661907183615,
                    -1.761096302708735,
                    0.5643842143250046,
                    -1.2154465831324832,
                    -0.45908653657203846,
                    -1.295096507358104,
                    1.4524220800062682,
                    -0.1121421648290848,
                    -1.0818885225505366,
                    1.3652990875243667,
                    -0.0052626190470614065
                ],
                [
                    2.6446062141496465,
                    -1.066401930028441,
                    -0.5540664008822166,
                    -0.8390921591240266,
                    0.694770338686734,
                    -0.4163142160441681,
                    0.8751933656221076,
                    1.6442935787559116,
                    0.9822845351805302,
                    -1.0885952888880397,
                    -1.1998964067103877,
                    1.0008136720155427,
                    1.4335920692911388,
                    1.7494365041905124,
                    -0.726754207187248,
                    0.1717505271854062,
                    1.9128408083845998,
                    0.9814167856488111,
                    1.0945869374812374,
                    -0.2133227487526279,
                    -0.4254986224980174,
                    -0.9832985674995249,
                    0.3742893240755786,
                    -0.02785140854057961,
                    -0.20540928895348853,
                    2.253517989987889,
                    -0.3800844950341753,
                    -0.33769663101796754,
                    1.6789111259315297,
                    -0.42878594047386775
                ],
                [
                    1.0558969075034543,
                    0.8448617824673141,
                    -0.5528164515667358,
                    -0.8984233078681012,
                    -0.5428524686220267,
                    -0.35243025718155047,
                    -1.8983552960972996,
                    -1.8064914686356368,
                    -1.3893327630232706,
                    0.7241504172393359,
                    0.1712252344173119,
                    0.8871811321062298,
                    -2.589725182276006,
                    -0.7009005822738563,
                    -0.04242321974537433,
                    -0.1939328159372695,
                    -0.7417213721407592,
                    -0.22268959335518146,
                    -1.1470108432210524,
                    1.1664153981067595,
                    -0.29657264748327095,
                    -0.8621198416121717,
                    -0.5692496449811092,
                    1.0881178445293684,
                    1.6806171050110055,
                    0.05780801669312621,
                    -0.02856995306530158,
                    0.6418815027069419,
                    -0.6417047865189699,
                    0.08535138129870656
                ],
                [
                    -0.40974814587949593,
                    -2.015783857718369,
                    -0.41006948220326017,
                    0.5327218124746746,
                    -0.5382916763877033,
                    0.23445819400142678,
                    1.7445263712719712,
                    1.4178854170921797,
                    -1.0222246337165282,
                    -0.1535202049638996,
                    -0.3996107155015931,
                    0.22793590740553407,
                    -0.5337619619678942,
                    -0.724175297045782,
                    -0.6230895168851669,
                    0.34261904456001757,
                    -1.2782374344320697,
                    1.6040652279460166,
                    -1.0204486754541398,
                    0.4353943475375909,
                    1.282340944370884,
                    -0.03739276976454124,
                    -1.5035373973230055,
                    1.0691187965680382,
                    -0.964323146764815,
                    2.2994333917627086,
                    0.3543255967782978,
                    0.32471078393984865,
                    0.1198127275458446,
                    0.04600775577485955
                ],
                [
                    0.018207143347856586,
                    -1.4174272196244948,
                    1.7072447076327122,
                    -1.53972827987216,
                    0.6009768274349606,
                    -1.284422531689254,
                    0.8375673931565939,
                    0.28436123067731267,
                    -0.9538404195715532,
                    -1.7465825464598945,
                    0.9579356182847395,
                    -0.22294267224442643,
                    -0.4678378288224662,
                    -0.44589440738536273,
                    0.7236041665132219,
                    0.27309048257762747,
                    0.1415864256979001,
                    -0.9844388765560331,
                    0.46623436885111813,
                    2.8975883017128123,
                    0.5917116922440977,
                    1.8482305895708202,
                    0.11577834448327438,
                    -0.45970274616820045,
                    1.722303905481518,
                    0.5129326490104437,
                    -2.8322571982219875,
                    0.4945900584110733,
                    -2.3340816169198955,
                    1.6413418233695256
                ],
                [
                    -0.7920113177755517,
                    -2.188026722422707,
                    -1.6888220988322236,
                    1.3946236588920928,
                    -1.2180706924490894,
                    1.3315740466900645,
                    1.9304106271344612,
                    -1.7384039787244245,
                    0.6626850878918232,
                    -0.7314459637766227,
                    -0.6046786852081648,
                    -0.37799243496855406,
                    0.015447353092127664,
                    -0.9885790268469385,
                    0.5644501376367284,
                    1.4445534717448614,
                    -1.6460023213727237,
                    -1.9120862797889524,
                    0.5436054266537447,
                    1.840801900983457,
                    0.8329729169350393,
                    0.8585604872641288,
                    -1.478471203204592,
                    -0.6903262387415758,
                    -2.0885170672786018,
                    -2.3065129451781536,
                    1.1132885315727754,
                    -0.3251283339289277,
                    -1.07458853957766,
                    0.3144267441923806
                ],
                [
                    -1.1491134492706851,
                    -0.002670969974328613,
                    0.22744733467276051,
                    -1.687072845161919,
                    -1.0466757068291364,
                    -1.3685650692532447,
                    1.5810326177503893,
                    -0.9682817687688255,
                    0.31059116098328127,
                    -0.4697049795995152,
                    0.454759616520541,
                    1.4478523528410212,
                    0.5243315704548963,
                    0.0720471128386908,
                    -0.9234566026760214,
                    -0.9945066454978359,
                    -0.4831728033311655,
                    0.7073898713600282,
                    0.9974876290306312,
                    2.2936974857293486,
                    -1.2244257344342917,
                    -0.043998818306608,
                    0.18132154801000416,
                    -0.9326531412484032,
                    0.40232456694183394,
                    -1.1578006113835217,
                    1.1075348500820517,
                    -1.0212278486658355,
                    1.1001110491327935,
                    -0.3297403810740057
                ]
            ],
            "function": "sigmoid"
        },
        {
            "input_size": 30,
            "output_size": 8,
            "weights": [
                [
                    -0.7794668903449951,
                    0.9264551748067097,
                    0.5087120460497532,
                    1.925903538545318,
                    1.4870098299583385,
                    -1.0629972051436385,
                    0.9502227057784559,
                    0.6134266092248731
                ],
                [
                    0.03603422596487332,
                    -2.1545102196626167,
                    0.6074808692330448,
                    0.3535278364879013,
                    0.948225114300648,
                    1.906931615418582,
                    -0.8036245798332301,
                    1.570514675541712
                ],
                [
                    -0.31736955407077316,
                    1.9776808408444788,
                    1.7081030989006187,
                    -1.2574203872495233,
                    2.331689808514521,
                    0.6561572287523999,
                    -1.0419986038088958,
                    -1.0974321257520714
                ],
                [
                    0.4157245163261902,
                    -1.1519862438817574,
                    -1.398559138587994,
                    2.2550829876757446,
                    0.6428123427538295,
                    -0.4208970839724052,
                    0.09273855171801794,
                    -0.7366180835268787
                ],
                [
                    1.10719299526068,
                    0.19181977543348688,
                    0.4802526981865587,
                    1.3490333923702922,
                    -0.4252634975982326,
                    0.27301919690143867,
                    -2.003360530682827,
                    -0.4151082726105184
                ],
                [
                    -0.294113617481868,
                    0.43806965474036286,
                    -0.1608468993523597,
                    -1.4765833209767756,
                    1.0050202307532472,
                    0.10543381062585208,
                    0.024770237195253744,
                    0.4186922707403206
                ],
                [
                    0.753310679159067,
                    -0.8340187606939071,
                    -0.39883459711020103,
                    -1.4626096744371473,
                    0.06268640351141345,
                    1.533263928893402,
                    -0.9109490158525013,
                    -1.668887781668629
                ],
                [
                    0.221391558870905,
                    0.11497119419471721,
                    -1.1284931171167105,
                    2.09823676681631,
                    3.031706832787557,
                    -0.07653232941140861,
                    -1.6453871698218265,
                    -2.306486057622674
                ],
                [
                    0.5725029255439915,
                    0.7888998163634386,
                    0.2063131160924733,
                    -0.4306182923145805,
                    0.7316307380718663,
                    -0.02305307576728733,
                    0.06523118298685023,
                    -1.7787035006807004
                ],
                [
                    0.0013434443711776434,
                    -0.5055318924913929,
                    -1.708417785967923,
                    0.9687581399692371,
                    -0.588676307076549,
                    -0.2973817533862299,
                    0.2621342988009196,
                    0.9155081721328597
                ],
                [
                    -1.11118124403892,
                    0.6663397263792246,
                    -0.32652665336500547,
                    -0.9157818862763751,
                    0.5209127648350376,
                    -1.264183693198732,
                    0.7007747618341744,
                    -0.11424967504945496
                ],
                [
                    0.6745197279432469,
                    0.15142925936395774,
                    0.13982459576824552,
                    -0.5687784245571156,
                    1.1070821442745529,
                    1.5809623310816134,
                    1.0537340678237492,
                    1.4790386650371987
                ],
                [
                    1.8036519602272443,
                    2.5218062683147027,
                    -0.3215180500472365,
                    1.5136596601067096,
                    1.9063177310918296,
                    0.6635077680012139,
                    -0.20193216164311956,
                    1.0508384169539364
                ],
                [
                    2.995123640577673,
                    1.8509242230255332,
                    -1.1231117673281201,
                    0.3036982992746176,
                    -0.6476436240739667,
                    1.3199824599363135,
                    -0.6365599943228072,
                    0.9619179947412101
                ],
                [
                    1.4203237215391822,
                    -1.701386473407256,
                    -0.7956557664104978,
                    -0.3054858385215987,
                    3.0024336607473607,
                    -0.007026900013861248,
                    0.06386192251507833,
                    -0.9497124949138647
                ],
                [
                    -0.7901688070752905,
                    -1.0968875188145069,
                    -1.2752725370544664,
                    -0.23931394826457225,
                    -0.40391312262757884,
                    -0.42502159137969364,
                    0.9206225356808039,
                    0.3155337704762513
                ],
                [
                    0.33122892183679875,
                    -1.2225772213833992,
