{
    "name": "UniformBrain",
    "layers": [
        {
            "input_size": 15,
            "output_size": 50,
            "weights": [
                [
                    0.8239379465871469,
                    1.9016765521382617,
                    0.876083873122959,
                    0.9229761469031212,
                    0.38433765778079976,
                    -0.5901852030608165,
                    1.201002685156993,
                    0.5164435700397623,
                    1.5082557277026443,
                    -0.17660238067885597,
                    1.2207003994630092,
                    -0.39871620756128157,
                    0.45730251448760245,
                    -1.4356342382523808,
                    0.4425586221479402,
                    0.7308935083534518,
                    1.5666093746634804,
                    -0.9232183695412604,
                    -0.029326106415622805,
                    -2.3914352759588025,
                    0.8965576033658482,
                    -0.8008247784224649,
                    1.1679721582566067,
                    -1.2494487719590712,
                    0.6666524311479426,
                    0.42144192304366046,
                    1.6043628106294898,
                    -2.6558067496138293,
                    0.5787961141799369,
                    1.430470405911693,
                    -2.333458113688574,
                    -0.3836504030440091,
                    -0.547178044528339,
                    -0.2854073468326262,
                    -0.3940527471773527,
                    0.8331742550547864,
                    -2.7138707829095337,
                    -0.6232050151837016,
                    -1.5294161674866986,
                    -2.1645531469862522,
                    -2.25407606528986,
                    0.9304928157241172,
                    -1.350004243061927,
                    -0.6779387822110532,
                    0.33577971567842557,
                    1.6755101528245866,
                    -0.2737710169444777,
                    0.06872732321292366,
                    -1.6345378579769492,
                    0.8290265149778492
                ],
                [
                    1.8639715183067553,
                    1.1030197939524025,
                    0.8454910530738661,
                    -1.0110997730177418,
                    -0.1484943880922585,
                    -0.34575867682500666,
                    1.5466398901916736,
                    1.3801925887829352,
                    -0.1483895834219731,
                    -0.5706523118948611,
                    -1.2472247682964726,
                    -0.8365328361525617,
                    -0.49892281070472255,
                    -1.1909790817640533,
                    -0.8022708457148411,
                    0.035952146632104186,
                    0.438855180014806,
                    0.4707631215488884,
                    0.7978148671269637,
                    -0.9309332955789905,
                    0.5251942741374804,
                    0.3193994629639697,
                    -1.1078411945645144,
                    1.1274528214670962,
                    -0.9483900265245415,
                    1.3933801876197736,
                    2.078841356159031,
                    -0.6944049840550227,
                    -0.8977554015254928,
                    -0.4475385828832321,
                    -0.6840588705126883,
                    0.8272487297336274,
                    1.3427889520077174,
                    -0.14796778800089383,
                    0.49568971284145125,
                    1.2643678319930547,
                    -1.8411747394646574,
                    1.0351186504658656,
                    1.740909109009832,
                    -0.11327518528583483,
                    0.026926382858217406,
                    -1.2414891568667867,
                    0.7572911260195101,
                    -0.5379038292751298,
                    0.27219670808042684,
                    -1.6965098126270706,
                    -0.15517545297660687,
                    0.3318438517141815,
                    -1.1706535274176422,
                    -1.4903707969564988
                ],
                [
                    1.0547065198050667,
                    -0.9052656958496957,
                    -2.086926136222303,
                    -0.014506209294514662,
                    0.4423320480379086,
                    1.798209740314706,
                    1.088545360819284,
                    0.13755209307267477,
                    -0.5072330590235448,
                    -1.1541911784822605,
                    -0.44489358012399494,
                    0.28216212924645634,
                    -0.7055337170045743,
                    -0.5405803324875518,
                    0.56669331942294,
                    1.0243622035671665,
                    -1.706192686494953,
                    0.7821674395120288,
                    -0.24849031513544192,
                    -0.5031638566936768,
                    -0.6380587023878678,
                    -0.6778635498702945,
                    -0.04297383523576376,
                    -0.11589639155926784,
                    0.06823634341225586,
                    0.871079040078404,
                    -0.5625543506176838,
                    0.3726993979630964,
                    0.80987994848924,
                    0.039237690088782945,
                    -1.0835384725903192,
                    -0.7349982187456138,
                    -1.125202654541514,
                    -0.1390816295867383,
                    -0.01909622368669854,
                    -0.3804793068206307,
                    0.9082253615388883,
                    -1.6811296779775045,
                    -1.3376259754363882,
                    0.7291971874434569,
                    -0.4250178654197114,
                    2.0724495569086416,
                    -0.8811777847583221,
                    -0.5216922262826136,
                    0.6850435347515405,
                    -0.9089293678148284,
                    -0.0783998419931938,
                    -1.044761426557382,
                    -0.31476047373236676,
                    -1.0758774825763813
                ],
                [
                    -0.18568024340566716,
                    -1.2823516799810184,
                    0.8269284229907748,
                    1.113652430601335,
                    1.0422482523371503,
                    0.9741434414888042,
                    1.7271117353642929,
                    -0.6993607466914111,
                    0.5520796704846339,
                    -0.8040588273466224,
                    -0.47094405023112795,
                    0.8968020906776853,
                    0.2930444824727938,
                    0.8678509738131613,
                    2.0117445826950187,
                    -0.8629319298638144,
                    -2.034708444751796,
                    0.30686699081867397,
                    -1.6152452305015457,
                    -0.07056996798961712,
                    0.09804683829376731,
                    0.17826508093783144,
                    -0.6509648804676142,
                    -0.2690577773659234,
                    -0.9465019300934083,
                    -0.5265553694805499,
                    -0.4067675272490745,
                    -0.6911091721905115,
                    1.0086170278149154,
                    0.16369751912604324,
                    -1.1794807690538347,
                    0.30348314381811775,
                    -0.7184129846645517,
                    -1.7368862706960528,
                    -0.7269351591937732,
                    0.9886266494244984,
                    0.4846476797365396,
                    -0.09970479663565113,
                    -1.5213045450302034,
                    -1.0112472573918094,
                    0.9095431419875709,
                    -0.16054628434733637,
                    -0.7432245638370372,
                    0.6079066889011387,
                    0.9330837689168523,
                    -0.9185584159298539,
                    1.601785243778155,
                    -0.07155049170271066,
                    1.885351101955272,
                    -1.3991131748879524
                ],
                [
                    2.5505064396632724,
                    0.22555922755696478,
                    0.9878178758994666,
                    -0.16876331241000841,
                    0.11438971275340826,
                    -0.07512806903743069,
                    0.3079611500449625,
                    0.3797869346597926,
                    1.4888781026214886,
                    0.6228892870181684,
                    1.5149472928665515,
                    2.3268985688603974,
                    0.8478602567193662,
                    -0.31405224268272114,
                    -1.0334040854658906,
                    -1.4661807902282706,
                    -0.3443129705304004,
                    -1.6049441089996024,
                    -0.9256810199249415,
                    -0.42478954250456047,
                    0.8063901352023404,
                    0.33185805865412665,
                    0.5969793117094919,
                    0.2780774208483684,
                    -1.4170213735984079,
                    0.5902922761038472,
                    -0.9455272859445891,
                    0.38561644820884455,
                    2.0384087274779055,
                    -0.6685517427966138,
                    1.4308067753709,
                    0.7306842882818803,
                    0.5677141127267104,
                    -0.5111832520067634,
                    0.44767579387648726,
                    0.5588794002037686,
                    0.5087977856349765,
                    -0.1517756161627229,
                    0.6680676368325082,
                    -1.1528481623426767,
                    1.4037597137457258,
                    -1.4926308551753604,
                    -0.6504151721441581,
                    0.7683596463272846,
                    0.5022296984704685,
                    0.9839047653097164,
                    -0.16743291501833926,
                    -0.5150981121639638,
                    -0.39654283282511177,
                    -0.1638359692772104
                ],
                [
                    0.20724533572852538,
                    -1.3979554613067189,
                    -0.8630861016386715,
                    -0.4265340754250963,
                    1.011245387481997,
                    -0.5648733369151514,
                    -1.6123424238225947,
                    1.5126130967982576,
                    1.0510324352147626,
                    -1.7774886640221512,
                    -1.2070320214038146,
                    0.11373664014394276,
                    0.18466009218548046,
                    -1.0391094571169561,
                    -0.1687822370909983,
                    2.2768638783392525,
                    -1.6419809728355037,
                    0.1745600668328769,
                    -1.0318436858466347,
                    -1.186846440423464,
                    0.30197106456698264,
                    -0.6984873674487793,
                    1.155430650542782,
                    0.9274931588637887,
                    0.6400713608798233,
                    -2.0944807560976497,
                    -0.7977767749437489,
                    0.560946986280853,
                    -2.004023129609387,
                    0.24414016204746583,
                    0.5717502413066043,
                    -0.3634788063477435,
                    -0.063554193213297,
                    2.2043215327471315,
                    -0.6579990675620679,
                    0.536515955056065,
                    -2.1645241766350813,
                    0.0451870416596771,
                    1.0964602699588841,
                    -0.7060428346445236,
                    -0.6991828609229702,
                    -1.5012833460354358,
                    0.0388014768011673,
                    -0.39202639623877744,
                    0.31178069743844083,
                    0.37106934525723284,
                    1.0955019601867129,
                    -0.22508881549689264,
                    -0.3004609467865438,
                    -0.3405028938434654
                ],
                [
                    2.069264127006438,
                    1.7428117964662266,
                    0.6819661600423826,
                    0.14940977085238488,
                    0.07983399437571155,
                    -0.09287496636530568,
                    0.36195356926010525,
                    -0.8715913527768486,
                    0.4835793910560441,
                    -1.8767687757489384,
                    -0.08224010212218419,
                    1.3727968281524732,
                    1.220502105359174,
                    -0.5206658484487405,
                    -0.11762768098158052,
                    1.16226816226457,
                    -1.8259267300348023,
                    -0.4026815422939402,
                    -0.3214888963477898,
                    0.3780934329298459,
                    0.8288769988073642,
                    -0.7864885168586865,
                    0.31061457342156096,
                    -0.09263277176739654,
                    -1.0707009857346694,
                    -1.1196197612392862,
                    0.3375631005470411,
                    0.3314275174549324,
                    0.16998037151417603,
                    0.4631248349846481,
                    0.9586536189322781,
                    0.7122525652188028,
                    -1.159079946283139,
                    1.7457875474186213,
                    1.0216689479618226,
                    -0.08621334040394742,
                    -0.21945325213259287,
                    0.13842861969323766,
                    0.6794605526654334,
                    -1.464981131261114,
                    -0.364013061389863,
                    1.29115252655309,
                    -1.1152873696563423,
                    -1.2255656194209938,
                    0.5133621666981705,
                    0.02643402902737846,
                    0.016226108703349895,
                    -0.30191040615650205,
                    -0.3061962535323269,
                    -1.1480616799661398
                ],
                [
                    -0.5180506759759432,
                    -0.025854298434111828,
                    -2.506046166077642,
                    0.4647474030011092,
                    -0.31355949644898357,
                    1.9750368447401296,
                    1.3001509816525494,
                    -0.6365374257847596,
                    1.092489133343842,
                    -0.978686899191328,
                    -0.8861467572764157,
                    1.3724863805494742,
                    -1.5007198950339258,
                    1.1896264228558038,
                    1.6386945159007067,
                    0.5158360255894511,
                    -0.6905343401433708,
                    -0.19348213581124907,
                    -0.607722263728953,
                    -2.3762878635510942,
                    -0.22670176533339553,
                    0.5156793043752892,
                    -1.3642705804851454,
                    0.3815482449502489,
                    -0.1777414223261444,
                    1.9632803692044327,
                    0.47001911612492564,
                    -0.6694833658848239,
                    0.433931303211131,
                    -0.719382043996337,
                    -0.8918865746898651,
                    1.4158362612900692,
                    -0.3020855569746176,
                    -0.10841903308006243,
                    1.5749665395553718,
                    -1.1629363378305257,
                    -0.834317639344366,
                    0.18761668616366112,
                    0.12314135147776831,
                    1.8635663746162021,
                    1.4915667472944436,
                    -0.7715377599247818,
                    -1.4705782073777454,
                    1.6284059550498955,
                    -1.0303818444920996,
                    0.8970335180090041,
                    -0.12914808844534156,
                    1.0162305422056839,
                    -0.3953110664130251,
                    -0.9219685918393797
                ],
                [
                    0.8457630861120456,
                    -0.7352575187557712,
                    0.13913009358370468,
                    1.1120782225063113,
                    0.7840291034203211,
                    1.7005456854681777,
                    -0.8170223114458179,
                    1.0023429432721365,
                    -0.19490603109108423,
                    2.1648946715146717,
                    0.9952130831389763,
                    0.35141387341170244,
                    0.7060850955445563,
                    0.11992824724403778,
                    0.5376421297147381,
                    -0.9700927349854919,
                    -0.5870404962782949,
                    -0.7744757952859327,
                    0.5995042213935597,
                    1.976642229017016,
                    -0.19694477252242698,
                    0.9293546454148284,
                    0.14722628469763954,
                    1.0453045284445694,
                    -0.5031968660391682,
                    1.3608496733501751,
                    -1.5911027981392685,
                    -1.418524294453114,
                    -1.1144346949060393,
                    0.3612718507715068,
                    -0.9511341413278624,
                    -0.007690891295768276,
                    1.2685636682199604,
                    0.6169602593875184,
                    -0.6569737287841356,
                    -0.3339269428832777,
                    2.7863783000688023,
                    1.2639323867067576,
                    0.23799427255049904,
                    0.5441489081451092,
                    0.9979336671367575,
                    -1.2417445133624097,
                    0.40877466559426595,
                    -0.16462142768024612,
                    -0.6142397578305634,
                    -0.33561214900282066,
                    0.13986994415068876,
                    0.039369188296761726,
                    0.17488450607665698,
                    0.4119379561044444
                ],
                [
                    -1.4738700273480132,
                    0.5687503152223379,
                    1.427950861476854,
                    -1.3543841235578742,
                    -0.3942818557697908,
                    0.35234443511055336,
                    2.3810181630599594,
                    1.896919342064674,
                    1.5827338040791334,
                    0.29729916579197846,
                    -0.6474950167542446,
                    0.9139109222011224,
                    1.4200060882731078,
                    -1.2735990905730152,
                    0.3124582732193376,
                    0.8075630691622934,
                    -1.2660216499057517,
                    1.3973430624347705,
                    0.8973776740118982,
                    1.1551179330809918,
                    -0.1434267093751789,
                    0.4412698589520292,
                    0.5753337581183623,
                    1.5208457627622594,
                    -0.47323581284898586,
                    0.6537428236346902,
                    0.8438321180098467,
                    0.36285566877908354,
                    0.3804085607150351,
                    -1.5660333402360598,
                    -1.907756630490114,
                    1.2500470377225714,
                    -0.31603455535725433,
                    -0.7928230964184851,
                    0.7865467159730393,
                    -1.419820394162133,
                    -1.2131325021809716,
                    0.31144116798158816,
                    -0.47963549402756567,
                    -1.0067301100754826,
                    -0.060613474058442404,
                    -0.5497769563785194,
                    1.3215232101463674,
                    0.7226275055430125,
                    0.09298424813061942,
                    -0.21112683265790472,
                    1.418164458384763,
                    -1.8415054225433696,
                    0.17525435768450925,
                    -1.1034421493891042
                ],
                [
                    0.35530638085631167,
                    -0.13287675136514435,
                    -1.2744215474075296,
                    0.9813207930096557,
                    -1.4185206874351026,
                    0.08748446561404953,
                    0.34004162377505465,
                    -0.7183905129949515,
                    -1.8559824834610692,
                    -1.040535337781158,
                    0.8604037279704969,
                    2.2628803923606373,
                    -0.6376885623159342,
                    0.056861101386647205,
                    1.4260504361821305,
                    -0.29221900584022037,
                    -0.7620753112002836,
                    -1.3861919059139836,
                    0.34576222588234806,
                    2.0285417681827576,
                    -1.0946785840598943,
                    0.2049321501564175,
                    -0.6979862657750473,
                    0.18295791938991457,
                    0.0069582801945762,
                    -1.470387291280093,
                    -2.066091465443041,
                    -0.36839145641207083,
                    0.35951553706954953,
                    -0.6785209549606651,
                    -0.8558875699646877,
                    0.3842200438252666,
                    1.8451461233646678,
                    -0.4502936194176939,
                    0.7235924934832384,
                    0.49201102215695647,
                    0.0241571623970547,
                    0.8917534991439712,
                    0.5739592565600634,
                    0.17350522508496938,
                    -1.0922726587880378,
                    1.7184825228971237,
                    -0.11516272570162478,
                    1.0324351891977852,
                    1.8161624369081153,
                    -1.178782750568841,
                    1.0687276321383286,
                    2.4610721170259846,
                    2.4315174185266883,
                    -0.1501963848636838
                ],
                [
                    0.4312821117893613,
                    -0.7690055257379618,
                    -0.2278375326310289,
                    0.406799927757875,
                    1.0809653581483152,
                    -0.9534969611594227,
                    -0.6078663020644626,
                    -1.094862067406517,
                    1.8160822124392535,
                    1.3308832342853336,
                    0.5509752218391458,
                    0.9415024617886751,
                    0.375471529854784,
                    -0.7833294007984404,
                    1.176151528819592,
                    -0.6238597405078847,
                    0.012457525339629738,
                    -0.02910513283703723,
                    0.879056548779309,
                    -0.9236296536577391,
                    1.5305235195983298,
                    -0.7935316579558691,
                    -0.7379803509828741,
                    1.105824147132091,
                    -1.562982376372082,
                    0.18570416335374051,
                    0.01065729829585245,
                    -1.6608609869549413,
                    1.3616045836194859,
                    0.40563299190302815,
                    -0.16162028922653568,
                    0.4505201277499031,
                    -0.878897533746465,
                    0.4122493450392153,
                    0.9137032072195495,
                    1.540423876086045,
                    0.8880446841754873,
                    -0.5056930719338435,
                    -1.7736174145742007,
                    1.8604096979387412,
                    2.0295176118168605,
                    1.1796630469541174,
                    0.10522179962217841,
                    0.6376430472947737,
                    0.3925368459652747,
                    0.543282715006451,
                    -0.7110992533304015,
                    1.2530319722749668,
                    0.809410346306443,
                    -0.17894298740296025
                ],
                [
                    1.13942122392915,
                    -2.748388077954158,
                    -0.39663545627059676,
                    -0.97943145958411,
                    -0.36173865672009475,
                    -1.2482695105040722,
                    1.4957512476081007,
                    -0.8693004145114426,
                    -0.06881107800499119,
                    1.29183694064684,
                    -0.23389999531669026,
                    -0.8198232207916957,
                    -1.8028414238804262,
                    1.6108685032253385,
                    -1.8523701182826329,
                    -1.1323230324933866,
                    1.407210327015297,
                    0.9351981154138815,
                    -0.9837361273175309,
                    -1.2142938835847166,
                    -1.1600316960127985,
                    -1.0025031943491138,
                    0.06487380176304385,
                    -1.7278597472281905,
                    1.1530863107138205,
                    -0.6360788117316546,
                    0.8098702038953255,
                    -0.001746433822697263,
                    -0.34805660457238824,
                    -1.9264231592520935,
                    0.42192410020284876,
                    -0.043401919074299286,
                    -0.41129741447542717,
                    -0.03958436451716969,
                    -1.7753946393450584,
                    -0.42472888605320724,
                    -1.6355014961702443,
                    0.9497295314863601,
                    -0.02369113171405618,
                    0.08349521047464982,
                    -1.4744534206333053,
                    -0.6470757560071553,
                    -0.36929083802758506,
                    -2.146306190815616,
                    -2.4371805161130218,
                    -0.9782532800502792,
                    0.9771423645450034,
                    -0.21956819504289593,
                    0.36820094822278493,
                    -0.3423783511290659
                ],
                [
                    -0.8298565753294836,
                    0.7484660978324107,
                    0.035366479336318195,
                    0.40009744104760436,
                    0.6255857509884027,
                    0.11385454534956313,
                    0.921700445088499,
                    0.5541980793234051,
                    -0.07473831361854513,
                    -0.20054814881553185,
                    0.6086956309556752,
                    0.8388068948203735,
                    -0.8402776435021172,
                    -0.6974532082425334,
                    0.6906053001232674,
                    1.5281211969285002,
                    -0.15634098450403605,
                    -1.1834281686400647,
                    -0.045077589641040514,
                    -0.0578618526005987,
                    -0.6655809347351951,
                    -1.083676908558625,
                    1.283975854613321,
                    1.1913877619100877,
                    0.13561101852967616,
                    -1.7448001450877735,
                    -0.7816444362411332,
                    1.8845366556380188,
                    -0.3666835514097362,
                    0.790608912652019,
                    0.9594698848024712,
                    0.10495294490252527,
                    0.3985784091601128,
                    2.191516462549495,
                    -0.1938190810056549,
                    -0.5735840007523252,
                    -1.5235807922146372,
                    -1.9288878892919519,
                    -0.5463100505784988,
                    -0.7496720516676664,
                    -0.9249087338879913,
                    0.7998701947464124,
                    0.1660358326873394,
                    1.645879672079039,
                    -1.296047555789886,
                    -1.7689693694661657,
                    -0.6861715283772435,
                    0.3559148866988382,
                    -0.4532618013952915,
                    -0.253667227058649
                ],
                [
                    0.9536324522124155,
                    0.2404986023041174,
                    0.6243816576696063,
                    -0.12569134752006894,
                    0.3114906576646995,
                    0.8156358525111181,
                    -0.9084664305123032,
                    0.7917764253613973,
                    -1.8877078292157048,
                    -1.0183347086592394,
                    0.18746805267858457,
                    -0.5546066662185235,
                    0.05395820071265747,
                    2.1974192918328144,
                    1.6391701720900265,
                    -0.06887928736667172,
                    1.4698811944539867,
                    -0.12696007506466495,
                    0.2535910381717289,
                    -0.020452229057727228,
                    0.7784510184306741,
                    -0.7501592514481557,
                    -0.5403557793701149,
                    0.07780784684223774,
                    0.6152092385121363,
                    -1.0432523976284103,
                    -0.4700072758545705,
                    0.309891504943581,
                    -0.40696191443665186,
                    0.5981910783106702,
                    0.5327404384223364,
                    -0.8600884336858261,
                    2.3163727342375493,
                    -1.0183643659058097,
                    -1.0875854607018565,
                    0.9296113347539393,
                    0.26343569606375744,
                    0.6422749880549821,
                    0.08052450453923571,
                    0.6951748684335676,
                    1.36009391217314,
                    0.13704754418313705,
                    2.671120121900303,
                    1.0335184744603354,
                    -0.26537488526427583,
                    0.20887634908191982,
                    0.7397078110903785,
                    -0.7170508052643576,
                    -0.7644902435830544,
                    -2.1001448848400344
                ]
            ],
            "function": "sigmoid"
        },
        {
            "input_size": 50,
            "output_size": 30,
            "weights": [
                [
                    -0.9071824405944625,
                    0.6480992786612443,
                    0.49303606100317565,
                    -1.2018473271335017,
                    -2.031676218460053,
                    0.9259482127579863,
                    -0.9687349616693492,
                    0.5526653681783487,
                    -0.892633941118048,
                    -0.2592733182590593,
                    -1.8079809254107804,
                    -0.4996275478617489,
                    0.05856923297174667,
                    0.5424663177287715,
                    -0.29213256659233355,
                    -1.8737784614590325,
                    0.2622107229163591,
                    -0.8760929002416097,
                    -1.082966635680124,
                    1.4057157597861762,
                    1.8055904459957424,
                    0.623468634402807,
                    0.39619279009395714,
                    0.10823985809001535,
                    -0.6064218572054673,
                    -0.4214431194362614,
                    -0.25867227916086405,
                    -1.8935504571285344,
                    -0.2532964861588004,
                    -1.0450323020265995
                ],
                [
                    2.1121901410995507,
                    -0.3030984414369092,
                    -1.9777645607362684,
                    -1.3938385931053423,
                    1.253444527700888,
                    0.8273205983658906,
                    0.1400827192636691,
                    0.354496770939811,
                    -0.1889307899023653,
                    -0.6534666659167275,
                    0.44100478079520505,
                    0.709592499380938,
                    0.23384615026182903,
                    -0.07624342735412334,
                    -0.11819169064948644,
                    -0.9459224010895847,
                    0.14388652379212655,
                    0.24302416520275874,
                    -0.16909271722880892,
                    -0.47244637625448405,
                    0.9801994714771922,
                    0.8160791477412619,
                    0.6471339978681485,
                    -0.7198865267052217,
                    -0.47279684984344045,
                    -0.036020698839585474,
                    -0.09905237287140656,
                    -1.0110991131694567,
                    -0.29334841008597284,
                    -1.2461917574652661
                ],
                [
                    0.8871094076896424,
                    0.402006522122147,
                    -1.125329414176559,
                    2.591378002102715,
                    2.8494479086837456,
                    1.4585495845425995,
                    -0.012020536580281932,
                    -1.999091394394605,
                    -0.3563363200479422,
                    1.0712334451946717,
                    -0.8194217123203262,
                    -0.2239572026538073,
                    -0.4726306184666632,
                    -0.3632426092739539,
                    0.33464552194937686,
                    0.81518534995209,
                    0.1702997267226582,
                    -1.9906811246465996,
                    2.1139756361275173,
                    -0.5156873859111177,
                    -0.6510526115160908,
                    0.5642583229368692,
                    1.6082722890898626,
                    -0.8687100659685618,
                    1.459098057317042,
                    -1.2553500281606373,
                    0.2557799641620969,
                    0.9758020429227092,
                    0.2540059306412623,
                    -0.005040462381081759
                ],
                [
                    -0.4193403899200941,
                    -0.9938077614389067,
                    -0.6089758311700083,
                    1.9394358206793105,
                    -0.9183039987168834,
                    -0.209828597076896,
                    1.707048354316499,
                    1.0346222407918177,
                    1.3108092339025572,
                    -1.2258111977511357,
                    -1.8452157110975362,
                    1.5356126194471464,
                    0.7075918656645348,
                    -2.125546096074395,
                    -0.19170162145629255,
                    1.1707954897655142,
                    -1.807206560581313,
                    -0.14774604100366895,
                    -1.5665364766735177,
                    -1.615561104484109,
                    1.0649267133810056,
                    0.9818888805281062,
                    -1.052386821219373,
                    -0.26736700849122436,
                    -1.8279402287346609,
                    1.0217452341308473,
                    0.8302786385942119,
                    -1.5912916525232534,
                    -0.41044969712262935,
                    0.5195399838711814
                ],
                [
                    -0.04404679188257696,
                    0.6279136334470988,
                    0.384861814025524,
                    -1.3021746961279628,
                    0.6903029045309145,
                    0.00292833750634805,
                    0.2964254513869268,
                    -0.5185213745673626,
                    -0.16953666498791223,
                    0.6616779553494635,
                    0.41258510701435175,
                    0.12693964684842501,
                    -0.43185250364896144,
                    -1.65009518259305,
                    0.3537729728725509,
                    0.9013741454483624,
                    0.5420572333255091,
                    0.16517377549420165,
                    -1.120355337641184,
                    -1.0654950337022022,
                    -0.26395070774277607,
                    0.0669870000139105,
                    -0.5199034884440071,
                    -0.42100095288595196,
                    1.360333806127038,
                    -1.5279976484572062,
                    1.029650738834059,
                    0.4681133987386419,
                    1.2682487273984338,
                    0.27617583499367704
                ],
                [
                    0.4658268042797319,
                    -0.06776558564363733,
                    1.3493055948413453,
                    2.039703235334444,
                    0.8341622737003153,
                    -0.6561314071401579,
                    -0.40270220353515507,
                    -0.0034421911824097373,
                    -0.5445586651365802,
                    1.7182607077379861,
                    0.22302382402667276,
                    0.5328634568218057,
                    1.1357463662778855,
                    -1.3212753528351318,
                    -1.6800343188041609,
                    0.0452824111929435,
                    -1.2841329375036148,
                    -0.15051910415941933,
                    -0.6048988224480976,
                    -0.8357991029808257,
                    -0.5304341454525461,
                    0.25076146940299515,
                    -1.9498814605267507,
                    0.35381351541726663,
                    -1.3440395269507754,
                    0.6855806885304627,
                    0.22768918910067235,
                    1.4765743801108475,
                    -0.35602600020094066,
                    0.143159831653353
                ],
                [
                    0.16413601732464578,
                    -0.5923247266415094,
                    -0.7756586773234958,
                    -0.8789870729500506,
                    -2.028434480050166,
                    -0.7721979386831784,
                    -0.3953316100736146,
                    -0.3518902172398176,
                    0.6231536398904242,
                    -1.1853264944975899,
                    -0.8763339249439863,
                    0.6923850699919161,
                    0.1294341717973032,
                    0.251700506963447,
                    -1.0301647421260174,
                    -0.8697127505820113,
                    0.9423148456012214,
                    0.9969014436780055,
                    1.18753568911594,
                    1.7380953713205198,
                    -0.6260777319548473,
                    0.4333739785337171,
                    -0.5288988261392299,
                    1.2218715533021807,
                    0.4790334686116464,
                    -1.5453696428620312,
                    -1.1445369161734131,
                    0.6762018191941427,
                    -0.8854394644709965,
                    0.2071052876117597
                ],
                [
                    1.4247539363074186,
                    1.3479757470944407,
                    0.7412330116365251,
                    0.20664990301449912,
                    1.9434281337844708,
                    0.48725383751929713,
                    0.7579882119206468,
                    0.9590062961159387,
                    0.31002750603848095,
                    -1.1050634774413246,
                    0.3731856466599725,
                    0.2540301665700855,
                    -0.8260131713357289,
                    0.5075018779381495,
                    2.385911526333537,
                    1.0973230797644784,
                    -1.5771763862482162,
                    -0.4692118648177992,
                    0.9536553283526252,
                    -0.741183605504204,
                    1.033500269987135,
                    -0.4399290915299514,
                    0.7350831388770062,
                    0.5769499698971163,
                    -1.3044566791575376,
                    -2.4111451729830153,
                    -0.6585515937261295,
                    -1.6195344337924158,
                    1.556859561135157,
                    -1.0161242138085333
                ],
                [
                    -0.09210930599292388,
                    -1.3739036404991318,
                    1.4492486245324643,
                    -0.6507524613647998,
                    -0.30481118552381786,
                    1.3976002246313306,
                    0.7160133757418358,
                    -0.42908522154369233,
                    -0.11300781928566384,
                    0.9511274810135414,
                    -2.2343557389497315,
                    1.1257690958273203,
                    1.72024218603983,
                    0.9021721268346642,
                    -1.144408041003473,
                    0.4195816435107813,
                    -1.75212044700257,
                    0.6791738205264064,
                    -1.2559976768725367,
                    -0.18889842766291476,
                    -0.9551913060300818,
                    0.14571122848532558,
                    -0.15971371266229803,
                    1.0729195292154052,
                    1.1603765324597162,
                    0.31432296203620225,
                    0.28395629747594703,
                    -1.8796509959928371,
                    -1.6404175503960605,
                    -1.3099448743725277
                ],
                [
                    2.3663097078173196,
                    0.4175910615134103,
                    -0.4242404077483499,
                    -2.5983450083894337,
                    1.028937183248117,
                    -0.25643760318723685,
                    0.3817983435110336,
                    0.9623660553354061,
                    0.27451935410173656,
                    -0.6184481641498878,
                    -0.8758854215317676,
                    -0.5776256043287019,
                    0.5862443210209585,
                    -1.8343939620351735,
                    0.6497140167112736,
                    0.986601894921515,
                    0.025631215240167017,
                    -0.6812770350618067,
                    0.3612761581104127,
                    1.0734759128649676,
                    -0.27807972834137373,
                    -0.7072161345921864,
                    0.4271322022336985,
                    2.0494197360801234,
                    0.3199690877071838,
                    1.595766603021651,
                    0.5972880399185867,
                    -0.7102646281624563,
                    0.5811216634598383,
                    0.5466606100216469
                ],
                [
                    -0.16391296631318159,
                    -2.0321525509675666,
                    -0.12131256615199255,
                    2.33871835909283,
                    0.4597623254736271,
                    -1.192874736170833,
                    -0.8634992646594778,
                    -0.19751303995125996,
                    0.2751177950747965,
                    -2.009045192142347,
                    -0.7600924789660152,
                    -0.4704698632999098,
                    0.016243789265193057,
                    -1.9144344414874492,
                    0.7622732346361241,
                    0.46875431960279007,
                    0.28666176793673814,
                    -0.016722606588493144,
                    0.45544977540396103,
                    0.403725280141076,
                    -0.4241755916795836,
                    -1.8989554140635234,
                    -0.6257149834277095,
                    0.2789593238183121,
                    -0.8075515551041764,
                    0.7424222470667893,
                    -1.8645403389289477,
                    -0.7075858043409714,
                    -1.2594893688349478,
                    -0.5822795548844042
                ],
                [
                    0.06898511997599976,
                    -1.368288429000801,
                    -0.8529398097879917,
                    1.6433511608579048,
                    0.060698835328325595,
                    -1.997701196571075,
                    -0.5610201992321988,
                    2.088329978379056,
                    -0.7401574186606431,
                    0.17406992147022754,
                    -1.001766082960279,
                    -0.04383310656707107,
                    -0.20410235622475303,
                    0.4885758520946665,
                    0.5930280475711934,
                    0.060450064461486194,
                    -1.3220435584932335,
                    0.7211819953236467,
                    -0.273951017328368,
                    1.3188650544324143,
                    -0.1576413639765416,
                    0.41231872547728277,
                    -0.7148253890675825,
                    -0.8356157167250022,
                    1.661226752775384,
                    1.0081051842270883,
                    0.5019993611805574,
                    0.52389072790449,
                    -1.848317310898055,
                    -1.9263607031485375
                ],
                [
                    1.0378514188554613,
                    0.37282407602979734,
                    1.3699652073272244,
                    0.400407100739118,
                    0.14219217244428667,
                    0.973715326593869,
                    0.8775657124993793,
                    -0.5631386141787277,
                    0.16882506223062813,
                    -0.7932789902608358,
                    -0.7652404050567941,
                    -0.09234804097865124,
                    -1.0745116957209853,
                    -0.1062690813126223,
                    -0.7033702848573887,
                    -0.3165925247044516,
                    -0.9032331600810138,
                    0.0018953541380346134,
                    -0.7963425145906035,
                    0.42326044227561366,
                    0.5872778078189065,
                    0.7507018164995507,
                    0.8641917307525911,
                    -0.38744479661891273,
                    -0.771330937370451,
                    -0.9558621089354266,
                    -0.27297316470664656,
                    0.494340167830046,
                    0.2458732258290514,
                    -0.05278301072389442
                ],
                [
                    0.003931849228929973,
                    -0.010954261074858945,
                    -1.9587825879173741,
                    -0.3505420683809132,
                    -0.019342180464966427,
                    -1.178592872693673,
                    -1.4083494559533334,
                    0.7565086267974677,
                    -0.08541177402635383,
                    1.1972372767927715,
                    -0.5016955603059587,
                    -1.9628002769114745,
                    -1.3682598451561387,
                    -0.3561493956794214,
                    -0.36119275023388486,
                    -0.6167929081303487,
                    0.08541501147220812,
                    -1.1477565284428475,
                    -0.9903845555397703,
                    -0.33589307544372426,
                    0.945458580629585,
                    -1.2205357034518707,
                    -1.1783799763295306,
                    -0.3912099197753757,
                    -0.15802206323153561,
                    -0.11025403783996192,
                    -1.6356208905291187,
                    0.37815404953784365,
                    -0.24534190238008358,
                    -0.9181227127198069
                ],
                [
                    -0.24127818747252008,
                    1.697191369849104,
                    1.565556838603896,
                    -0.09166110588241189,
                    -3.0148636261567097,
                    -1.0635675030389184,
                    0.3283377647294917,
                    -1.0462818305702233,
                    -1.4608726161372008,
                    0.610974548053919,
                    -2.2342858917632227,
                    -0.7786017147280273,
                    0.6694366182755057,
                    0.12757399653206333,
                    0.13390852257198316,
                    1.9015474340891774,
                    1.8510040746706962,
                    0.6078352654365384,
                    0.3906249360827234,
                    -0.009396339848549061,
                    0.27055234653294197,
                    1.845337130769251,
                    0.6998395833401867,
                    1.7130788102454995,
                    0.9442239499220245,
                    0.19827099107117616,
                    -0.9184269830540345,
                    0.24557727234063126,
                    -0.6725809552484954,
                    0.5718382535815042
                ],
                [
                    1.683479293462952,
                    0.40974325329811856,
                    0.783335140557659,
                    1.672964209575133,
                    -0.1822227107646644,
                    -1.6710956749937242,
                    -0.39619943856578815,
                    1.3792893306498832,
                    -1.7991720349838007,
                    -1.1023052339526056,
                    2.574755619771206,
                    1.832786965509481,
                    1.2758357708756476,
                    -1.38745304674606,
                    -0.12698086482602214,
                    -0.888953113705434,
                    1.0489026306869038,
                    0.47276883830564687,
                    0.3166453113645645,
                    0.8473081893201755,
                    0.8224627502163014,
                    -1.2007680412269814,
                    1.33768285081376,
                    -0.5821241449941826,
                    -1.7735190958003022,
                    0.6161400005452695,
                    0.09589829773922276,
                    -0.10075702801600767,
                    -0.8407811940737144,
                    0.6704237806340549
                ],
                [
                    -0.5184811302778078,
                    -0.3962016519425629,
                    -1.1357361037740914,
                    0.4315405325441337,
                    1.972868600499721,
                    1.5526181547774962,
                    1.2741758799785567,
                    1.9154021761270132,
                    0.898285909448522,
                    1.966827358155605,
                    -1.1195905094913212,
                    0.5625748157750113,
                    -2.267789947046886,
                    -0.11017181595404134,
                    -1.1583829250634305,
                    0.34417090680281626,
                    0.2935365332308656,
                    0.4522743129004084,
                    1.4219507851898034,
                    -1.5801361492998125,
                    -0.2565220791586537,
                    1.4106111038006235,
                    1.6219046894624671,
                    0.49074471050564183,
                    0.012050597168774282,
                    0.08847760182230074,
                    -0.2965331866314933,
                    -0.2449288258436481,
                    1.3343774845295695,
                    1.254055744505366
                ],
                [
                    -0.5887467851952086,
                    -0.22785851854380693,
                    -1.464127180787339,
                    -1.256051285134359,
                    0.5406673489813096,
                    0.6058914769443678,
                    -0.33565262581869887,
                    0.04523238366300714,
                    0.21888715433686876,
                    -0.764644444209019,
                    -0.47088740596893897,
                    0.5024588087715677,
                    1.1051563569235139,
                    -0.5123964075345371,
                    -0.18331540885722525,
                    0.173389511139599,
                    0.038101787578699975,
                    0.03078823569352517,
                    0.7096003589828631,
                    1.3937535433107358,
                    1.0593552561190323,
                    0.13656844514881267,
                    -1.8041759773082973,
                    0.5461142103391055,
                    0.28353085480722867,
                    -0.9286493076879943,
                    1.8976095856063238,
                    0.034036977370228226,
                    1.6747184661232342,
                    0.3000841275663473
                ],
                [
                    0.6870886064711799,
                    1.0179597320574643,
                    -1.7088529511326054,
                    0.21755688751412988,
                    -0.01857818321942392,
                    -0.6974629479560022,
                    -0.6778629704987119,
                    1.0032514387839921,
                    0.6610052683866082,
                    0.5349889663245313,
                    -0.715207396310664,
                    0.11853346754262573,
                    -0.7993736801005563,
                    1.1475803085671574,
                    -1.8803927933070996,
                    1.230916508380169,
                    -0.48018550090715034,
                    -2.910170902790636,
                    -0.8187247292561107,
                    0.4649675556527286,
                    -1.414495530650154,
                    0.4569140425159526,
                    -0.2948403131841441,
                    -1.8276209659962948,
                    -0.49491359786472544,
                    1.1539049272657371,
                    0.8751066144568471,
                    1.2702694243606185,
                    -2.3970536012409367,
                    -0.30963623858871137
                ],
                [
                    0.6481759079003978,
                    -0.27185693138482125,
                    0.059858905939955395,
                    1.213182139237204,
                    0.7026808784221861,
                    -2.387657566714639,
                    0.2541332272249256,
                    -0.9492550762832556,
                    0.8434977885591666,
                    -1.5695796755618192,
                    0.8544862166187611,
                    -1.8290908450421979,
                    0.5110572419222551,
                    -0.2870311709912141,
                    -0.22355377132568108,
                    0.7962148389948055,
                    0.11741556460952715,
                    -0.0315451241112507,
                    -0.5699987289223318,
                    -0.7370090758749545,
                    0.24920418884944362,
                    0.966457637349617,
                    -0.0954603549011577,
                    -0.09766340306953905,
                    1.2441811067838437,
                    -0.2523948388988629,
                    0.5294546736696703,
                    -0.9959208833708535,
                    -1.3385822079248422,
                    0.4560787175434274
                ],
                [
                    -0.12935952778345855,
                    -1.1024248341488376,
                    0.5377076414605699,
                    1.320506038084717,
                    -0.07710556287997526,
                    0.9520584352528163,
                    -0.6073493684992782,
                    0.16310746033866694,
                    -0.3153454336344889,
                    -0.3499316830847222,
                    0.44593061486943675,
                    0.5025543366003727,
                    0.5774765364011638,
                    0.9850568307983361,
                    1.6546336559731516,
                    1.1583072941641266,
                    0.16370272770441435,
                    1.7104744693171685,
                    -1.0922322901610233,
                    -1.2319193243619355,
                    -1.1603579814685077,
                    0.5879588144347939,
                    1.0706666739034063,
                    0.670123116476023,
                    -0.7638330544515347,
                    -0.1876398211876983,
                    1.522414110242259,
                    -0.39406564966569324,
                    -0.5392626057973618,
                    0.14827601451268857
                ],
                [
                    0.28698976637334556,
                    -0.7810173717240408,
                    -0.023817948249536924,
                    -0.6685937451587234,
                    0.9299087942310007,
                    -1.5879925829617754,
                    1.1867210140346516,
                    -0.20019359568142328,
                    0.5343746896566017,
                    2.2524656562383503,
                    -0.41265773766329683,
                    -0.5402435281628724,
                    1.1615670075103377,
                    -1.11217335535448,
                    0.30532625910978395,
                    -0.3195234663374535,
                    -1.8693912769150336,
                    0.931382007562725,
                    0.4878957863395026,
                    -0.7802131892406282,
                    0.6947009522492642,
                    0.004923912493274674,
                    0.33459316440790143,
                    -0.6306643514245946,
                    -0.3446638766764683,
                    0.33275580231728386,
                    -0.8101894369864775,
                    -0.12701379144491437,
                    -0.6555893216681332,
                    -1.4916794907176318
                ],
                [
                    -2.692461734486127,
                    -0.32588080349540594,
                    -0.34609435650493003,
                    2.2985572724546146,
                    0.6543043875086689,
                    -1.1866807439446394,
                    1.4925499756193448,
                    0.0965346860652011,
                    -0.5217499517082632,
                    -0.6961098204338048,
                    -1.0021841649770447,
                    0.14333308692562002,
                    -1.793338481113224,
                    0.8141298718359878,
                    -1.22301466127858,
                    -0.4454598247731083,
                    0.28879293168118514,
                    -0.15730867922357672,
                    0.996101541035902,
                    -0.728334172024778,
                    1.8108136982924536,
                    -0.7302708273287057,
                    -0.036136303961638,
                    -0.7091651898163593,
                    -1.100245139592686,
                    -1.3401481531785473,
                    0.7446114793440549,
                    -0.20390442320420785,
                    1.5082959788106562,
                    -0.09469093487408797
                ],
                [
                    -1.0669307803882209,
                    -0.6392969757597657,
                    -0.37688823641062896,
                    -0.604644251083183,
                    -0.3480200105108099,
                    -0.8959926538624184,
                    0.018535670127990858,
                    -1.8822803992230484,
                    1.6363724751593156,
                    0.6387919315935343,
                    -0.8886713742612187,
                    0.23580296922594626,
                    1.3429406866477462,
                    -0.35581309391505966,
                    0.1883315792588591,
                    0.5954179877312771,
                    0.5745297206287402,
                    -0.13480536102078858,
                    0.5811788397593043,
                    -0.7898505465632224,
                    -0.9731784849949298,
                    -0.7319982155921626,
                    -2.035057210023335,
                    1.5621738602112634,
                    -1.7658521438813537,
                    0.39724203045018597,
                    -1.7137010376859885,
                    0.7275300839630374,
                    0.5051482424123486,
                    -0.39256412773167315
                ],
                [
                    -0.6180167813435439,
                    -2.8829172334943203,
                    0.5553615832964496,
                    0.26877231197891366,
                    -0.6844448026519374,
                    1.1457304785320255,
                    -2.47426365369115,
                    -2.330783877867145,
                    0.8444265411240243,
                    1.4699481338858096,
                    1.3014763268096607,
                    0.2202991786686456,
                    -0.6390357637215138,
                    0.4013922660379614,
                    -1.5059327136124843,
                    -0.40918560150201666,
                    -0.7242640073916425,
                    1.0182149099654865,
                    -1.8226139658043128,
                    0.5770154377719351,
                    2.183726158627116,
                    -0.7658656591380015,
                    2.584407559998479,
                    1.6992977561658245,
                    0.3825996517585678,
                    -0.9389097077354915,
                    -0.7897488621872434,
                    -1.2109350818660796,
                    1.7210953833898452,
                    0.19083418087130866
                ],
                [
                    0.8835320946990645,
                    -2.925529906775026,
                    -0.80832996327099,
                    0.5198434615327583,
                    -0.9344326144708314,
                    -3.5855662694732935,
                    -1.9239911846307876,
                    -0.4356972018969641,
                    1.4481770904861873,
                    -1.2547331541290687,
                    -0.04003056595494661,
                    -1.3305754529891718,
                    0.7626564276691866,
                    0.016849618085530593,
                    1.7435090994188036,
                    1.4500238924965472,
                    -1.738969451562089,
                    0.5899420861961339,
                    -1.946567087329899,
                    2.134740265937893,
                    -0.351099012663521,
                    0.05670859920121725,
                    0.16825132456297115,
                    -1.7164343141610552,
                    0.9437177843295845,
                    0.8502613594915119,
                    -0.8799216628917627,
                    -0.17260906366919632,
                    -0.5094370522560583,
                    -0.6034186913227519
                ],
                [
                    -0.621577581277011,
                    -0.2582156684558956,
                    1.5621731565246075,
                    0.6588093670111043,
                    0.4653845280427666,
                    0.8244516632956891,
                    2.8643377172404048,
                    1.9336392215563054,
                    1.7529791285272898,
                    0.8997705519918471,
                    0.4323195614332994,
                    -0.9235532028033374,
                    -0.3061258346944905,
                    0.2896149526171463,
                    0.13696842748376598,
                    -0.5389123068029971,
                    0.2935624151062077,
                    0.7233823981556396,
                    0.02491009528576197,
                    0.7529083519868676,
                    0.0170543750368315,
                    -0.6402902456080162,
                    -0.5236392407408,
                    -0.2807599791103662,
                    -0.860362579645062,
                    0.12618098373755324,
                    -0.13770278597083876,
                    0.6048198657916781,
                    -0.30686718124934104,
                    1.5424908350184985
                ],
                [
                    -0.5416384030407263,
                    0.5136340811286895,
                    -0.5493990964340119,
                    -0.8612592902748321,
                    -0.53179220315274,
                    1.4473467936385733,
                    1.228815194242309,
                    -0.3192559890871313,
                    0.11365063534077266,
                    0.9948536323487727,
                    -0.8077935826540366,
                    0.7896238741391645,
                    -1.357616941108096,
                    -1.205618902173524,
                    1.0683185585751627,
                    -0.13682357962597,
                    0.13666065599698313,
                    2.068000540522701,
                    0.5854789121717648,
                    -0.3811984684195765,
                    0.6989443223973557,
                    -0.6097184961736959,
                    1.0947315735482697,
                    0.6837080604826081,
                    -2.0529753383856137,
                    0.4015471672105224,
                    -1.5149949490613617,
                    -0.5165600837783676,
                    2.143228890547032,
                    0.009904785138165006
                ],
                [
                    -1.0931401470327295,
                    0.7131916607693121,
                    -0.5451179187359191,
                    1.1323330684262427,
                    -1.8122354421012281,
                    -0.8011506897803311,
                    -0.524284398293339,
                    -1.6301253623280758,
                    0.3049151765123649,
                    0.790270278081451,
                    1.7763293540762373,
                    0.3467666169560852,
                    1.0402833584524067,
                    -1.6123305411492652,
                    0.017289828952191583,
                    1.4266157831753767,
                    0.4613672018878251,
                    -0.38977213234485736,
                    -0.2402297025769678,
                    0.9964062524050565,
                    -0.010641978951166742,
                    -0.8960301337041465,
                    -2.5959741778888388,
                    0.8982711459014437,
                    -0.13055402287080262,
                    -2.0330543568693016,
                    -0.4838799307221967,
                    0.6033374839678423,
                    -0.14325895786567086,
                    -0.5380077917984579
                ],
                [
                    -0.03717926007614029,
                    0.27860693847338736,
                    -0.13399216506012795,
                    -0.3906363805555381,
                    -1.4562575971493945,
                    0.5573848223484892,
                    2.707115468973253,
                    1.9829783530348,
                    -1.0830305092332044,
                    2.0439181663156756,
                    -0.6135263396655695,
                    -0.05478402917286067,
                    -0.8639597438836611,
                    -0.034999197257890594,
                    0.6488131798954613,
                    -0.2228193186593151,
                    1.3013229290726422,
                    0.0044229706799310195,
                    -0.5981205287411092,
                    0.4252014310577083,
                    -1.3110701471241004,
                    0.6308417370476923,
                    0.3892978534695594,
                    0.9737887754363105,
                    2.962921221491644,
                    0.06708905700684109,
                    -1.01546684543547,
                    0.360928763718499,
                    -0.7742059374992423,
                    0.8787543331473984
                ],
                [
                    -1.091432508416937,
                    -2.7467632423561903,
                    -0.5003067818405164,
                    0.3842646400410129,
                    1.1704940210318915,
                    -0.5684012564809929,
                    0.3415099134797819,
                    2.0497636133143176,
                    0.0032853365476552907,
                    1.5383012852703681,
                    -0.7563154734623904,
                    -1.2940424692898997,
                    -0.3227205996934436,
                    1.4598948717531994,
                    -1.5733075505614624,
                    -1.1264370769777836,
                    0.025872326572326354,
                    1.7211293343061038,
                    1.3811820217918997,
                    -0.921005032784119,
                    3.775527845852022,
                    0.6379330427499352,
                    -0.0009280657972447204,
                    0.39289261603724646,
                    0.9190540998208474,
                    -1.4958444480443025,
                    1.8323080011199047,
                    -1.1261812758953784,
                    2.3654628881496675,
                    0.062564650451291
                ],
                [
                    0.8518384337930495,
                    0.09586806227414671,
                    -0.1906186457982998,
                    -0.047729533597681825,
                    -0.05154881372585207,
                    0.10265748863382185,
                    0.8371454781156523,
                    -1.9236691608697405,
                    -0.08921397257528509,
                    -0.45175736329679983,
                    -0.9186095515327488,
                    1.3850107932366473,
                    -0.7108497765181425,
                    -0.8423515117992993,
                    -1.1948566429889718,
                    -0.20041224861794282,
                    -1.0459675350875166,
                    -0.8331481422565837,
                    0.48777528176838064,
                    0.585168175212819,
                    -0.350072582399389,
                    -0.4110115819682622,
                    0.6538670614899363,
                    0.615890661905514,
                    0.4520848238857622,
                    1.0664429097221861,
                    -0.2747761183134256,
                    0.46546633509103025,
                    0.32831724744870516,
                    -1.604170922872416
                ],
                [
                    -0.12493834744401555,
                    -0.9313388144698319,
                    0.145482711723674,
                    0.7765346786324956,
                    0.05206275494937107,
                    -0.4251078578813186,
                    -0.13032031723040838,
                    -0.21233605542039868,
                    -1.7600839058366147,
                    0.33201271908380064,
                    1.6641231663418314,
                    1.0812470073539835,
                    -0.5412383741058236,
                    -0.19435765773198066,
                    -1.1868267876645842,
                    0.0649903680970654,
                    1.3618559028163684,
                    -0.07566848260897782,
                    -0.5794381461518526,
                    0.724529706598538,
                    -0.9900020266473488,
                    0.17828903958184728,
                    1.9461437014993312,
                    -0.33210264757486013,
                    -0.17470412256337592,
                    -0.5274025465538968,
                    1.1959276381681412,
                    -1.8534869827250615,
                    -0.8175971873916987,
                    -0.14334871551323528
                ],
                [
                    0.8743379416333086,
                    0.4110474176231851,
                    -2.549507236909661,
                    -0.694324730565921,
                    -0.29876837230886205,
                    1.4477123413345767,
                    0.8170641906390015,
                    0.5214563912260628,
                    0.8619010683278168,
                    -1.388704019385773,
                    -2.633978752998967,
                    0.20123701181576892,
                    -1.606777704819727,
                    -1.4587657629768656,
                    0.018343575529884817,
                    -1.7171039353096085,
                    -0.21582144531570918,
                    -0.9162094352177006,
                    0.4582235180273142,
                    -2.063929026873875,
                    1.0919153533301222,
                    -0.41272427431239084,
                    -1.2420812775616112,
                    1.7770778067094308,
                    1.6219268823989594,
                    0.7938834932395699,
                    0.7139683645162758,
                    -1.2020806900019525,
                    1.953463515180163,
                    -1.4111809990797566
                ],
                [
                    -1.5227933296157892,
                    -1.217181011615619,
                    0.1734992954628719,
                    0.47299764579202047,
                    -2.793346600859835,
                    -0.2699915170526814,
                    -0.12356283557860384,
                    -1.4089939443597457,
                    -0.38885059128680854,
                    -0.22752947759835077,
                    -0.3391773220385076,
                    2.141867610455636,
                    0.7699804665894592,
                    0.8451412197582471,
                    -0.37170282848074465,
                    -0.7197614233673262,
                    1.0485767138915727,
                    -1.6007410117237877,
                    0.7699207585113734,
                    -0.8138838043687938,
                    -2.700749748821972,
                    2.5597751659785977,
                    -0.19790443634843474,
                    -0.051626287623623486,
                    0.5763639376598592,
                    0.0010477289409657198,
                    0.39300326034417465,
                    -1.313398643531491,
                    -1.0056963500203686,
                    0.1286771181711992
                ],
                [
                    1.4287143990470461,
                    1.7490964477967328,
                    2.054778694633081,
                    2.305462089226145,
                    -1.2921876932330232,
                    -0.7758477211902093,
                    -1.3225984916108853,
                    1.463989045896858,
                    -0.36068323200173014,
                    -0.341789035009977,
                    2.3206421421281798,
                    0.06013926605120326,
                    -1.681162835762204,
                    0.4470396099180117,
                    -1.311960905420376,
                    0.8256316423851089,
                    1.662425501574219,
                    1.4468780684455442,
                    0.7931424622046495,
                    -0.26569923741094686,
                    0.11972770999932897,
                    1.5893729390251674,
                    0.4957058615922553,
                    0.2602164253643908,
                    1.1066505270149467,
                    1.0543575795436402,
                    -0.07645708688130531,
                    -2.0106575574472063,
                    0.06529549855945388,
                    -0.2097841065696233
                ],
                [
                    2.0401940311723603,
                    -2.587504733643134,
                    -0.13677047709196516,
                    1.0028118134616877,
                    -0.2857916526578789,
                    -0.5167236154507155,
                    -0.6955197122502796,
                    -0.647122426947385,
                    -0.308653155438277,
                    -1.8315841663198993,
                    -0.9924461837796329,
                    -0.3899231874152763,
                    1.6595681027866602,
                    -1.202796571589854,
                    -2.2870440478807543,
                    1.689769839882353,
                    1.1077755238273999,
                    1.0369679032931491,
                    0.4692824155014008,
                    0.23047581986816484,
                    -0.8472080068235979,
                    -1.0683679724887787,
                    -0.1372804865103797,
                    0.05911917740488562,
                    -1.8731098834136033,
                    0.8333993712332906,
                    -1.1780013171333006,
                    -0.6393298454763503,
                    0.16972375436175516,
                    -0.11590549932513054
                ],
                [
                    -1.8347108962321037,
                    -0.21021330256585266,
                    0.15402387641950974,
                    -1.2794349572757548,
                    1.4487449319546868,
                    -0.1951047559035574,
                    -0.8185279700886137,
                    -0.36834087184576125,
                    -0.17209191852320407,
                    0.36043563457533256,
                    0.061143602425773325,
                    -0.021444376388462735,
                    1.0074373693853775,
                    -2.298191436264374,
                    0.6100071814768326,
                    1.377532113302984,
                    1.3509961521314127,
                    -1.1665242907431685,
                    -0.12816056902287262,
                    0.6906258330563306,
                    -1.0978934860714644,
                    0.11831219066004448,
                    0.4216836795303803,
                    0.07944445846168384,
                    -3.1682301138051883,
                    0.08616363682406813,
                    -1.1532643513160576,
                    -0.9273582108337961,
                    -1.0404621374839678,
                    0.8676752839318953
                ],
                [
                    -1.1127396884276564,
                    0.7632308034274735,
                    -2.041501851698269,
                    -0.10144042808295069,
                    -1.60200863269792,
                    1.3278209576633249,
                    -0.1496211702091283,
                    1.3815383609435434,
                    -0.31725510426901676,
                    -0.4063337808101305,
                    0.001965103861382239,
                    -2.638289524944987,
                    -1.189757850679326,
                    0.4200201188708449,
                    0.30021554287242613,
                    -0.2856904859524114,
                    -1.2408061865467264,
                    0.06243132392916881,
                    0.10962353216200442,
                    1.818664152100681,
                    0.7113813928331587,
                    1.7196584209270918,
                    -0.1847136290040878,
                    0.5134365609778269,
                    -2.087519480492705,
                    -1.517588683330354,
                    1.2889107217910665,
                    0.27760208837801803,
                    0.8104512079745455,
                    0.06858110241530851
                ],
                [
                    -1.2868844558572632,
                    1.001020147720086,
                    -1.1014866173065,
                    -0.2958404635935248,
                    0.5719736224864853,
                    0.6981974731389694,
                    0.9723427213128383,
                    1.4094879958115063,
                    -0.3791397683072283,
                    0.8427632190319234,
                    0.9536858327911525,
                    -0.8940911511269396,
                    0.681675036813041,
                    0.1069381692267301,
                    0.5372426342477818,
                    -0.2639653405265122,
                    -0.06910956790035762,
                    -0.032509916373829925,
                    0.16821118142477104,
                    1.3074196696314158,
                    0.4355202428083081,
                    0.18649518265367288,
                    -1.4245013631484567,
                    -0.34482233786055855,
                    -0.10790698706822134,
                    -0.44531431467379506,
                    0.27675624952229394,
                    -0.9978106041795637,
                    -0.2850172160309021,
                    -2.5520571589923624
                ],
                [
                    -0.35380217208337855,
                    -1.9148509560869367,
                    1.7115042739199184,
                    1.0817680027393137,
                    -0.2478441545692844,
                    -1.214030546391649,
                    -2.186803056292537,
                    1.8358233612459598,
                    -0.9582091726091199,
                    -2.159315413892494,
                    0.6406066981217232,
                    -0.32009126368170576,
                    1.5508051038371513,
                    0.18165118274213277,
                    0.18546961567393438,
                    -0.6783166866548331,
                    -0.5156091358985493,
                    1.259023089984617,
                    0.8600416286219625,
                    1.0030001812713463,
                    -0.40045985066697387,
                    -1.309122473465179,
                    0.36248811110222573,
                    1.343809133441808,
                    -0.6887645235248656,
                    0.7886813324045965,
                    -1.5997209642180445,
                    1.165279952854767,
                    -0.2052991670726837,
                    1.6061161400836834
                ],
                [
                    -0.43271095648155655,
                    1.6089669890780098,
                    2.0906952964531045,
                    -0.8845892667384777,
                    0.25486930192419827,
                    -1.305640905218747,
                    -0.09613199660372437,
                    0.4329328765996451,
                    -2.7544362833020335,
                    -0.2301936156414483,
                    0.33750784738095174,
                    0.08306401183421298,
                    1.2036147713756487,
                    -0.3348834834708954,
                    0.1035622325621469,
                    -0.9877531830216549,
                    0.42357254983429865,
                    0.167272211747733,
                    -1.065406724692644,
                    0.1633330841063606,
                    0.1538693146862177,
                    0.26683303483743304,
                    -0.3561317819739051,
                    1.8080980046698127,
                    0.754283253095231,
                    -0.6522265850302865,
                    -1.5022011921392373,
                    -1.7416164088392723,
                    -0.3765009008376056,
                    1.0473881220249395
                ],
                [
                    0.6364045079941434,
                    -0.16852918847661225,
                    -0.6999236553598452,
                    0.7982873243026297,
                    0.24211117489807704,
                    1.984678712542684,
                    -0.9596058530911635,
                    0.1751160984827147,
                    -1.538210629224937,
                    -0.8084995250690019,
                    0.9723225287172524,
                    -1.1255018268155843,
                    -0.11198041802584245,
                    -0.6217818957571957,
                    -1.196003807338064,
                    -1.0245400922194776,
                    -2.211878211346801,
                    -0.1723694402401441,
                    0.10881440530396239,
                    2.43360373366911,
                    -1.4839187995753014,
                    -0.7233087224232849,
                    0.09357313816456098,
                    -1.2121619701628554,
                    0.018760368056887022,
                    0.6101355847110731,
                    -2.815038344690087,
                    -0.5782217450890007,
                    -0.04133875984855557,
                    -0.5533169202539735
                ],
                [
                    -0.8924216678886091,
                    -0.07108167845104772,
                    -0.3101690748717773,
                    -0.6584228432954593,
                    -0.7097807109051416,
                    0.596035091156933,
                    -0.3100283723442418,
                    -0.3550824185684114,
                    0.7241948976864175,
                    1.2867798721202626,
                    0.17195689948572146,
                    0.1311739154613645,
                    -0.219140880138873,
                    0.10274584670578955,
                    -0.7817155289173221,
                    -0.725606906204872,
                    0.2172405001432455,
                    -0.5215207941014954,
                    -2.7094819972827726,
                    2.5852398655875692,
                    -0.6601394075034362,
                    1.2206292067805096,
                    0.4621960859165002,
                    0.5572660131389544,
                    -2.055470479488818,
                    0.6144328221350603,
                    -0.27017408561920353,
                    -0.8266649344832013,
                    -2.1297481592341962,
                    0.06568782304992403
                ],
                [
                    0.8771686818051455,
                    -0.9543502739444952,
                    -0.12114459441140704,
                    -0.29965857985793837,
                    2.231073772587797,
                    -1.6147932100132216,
                    -0.8983163167430775,
                    -0.7941556921405358,
                    -0.6426898159439128,
                    0.6867517964291625,
                    -0.7630276729314777,
                    0.4667847779377033,
                    0.16140625364845024,
                    -1.1683527203414166,
                    -0.12677162116038715,
                    0.6087832624340475,
                    -1.2125273788650792,
                    0.6274083628603098,
                    0.8222032652216562,
                    -0.46200235967185843,
                    0.1515305038216842,
                    1.161501890534387,
                    0.9000612986998638,
                    -0.3891369793013534,
                    0.2456796479043395,
                    1.5127170427668029,
                    1.1481444931668618,
                    -0.9865558937381331,
                    -0.470436734762817,
                    -1.8454452445142993
                ],
                [
                    2.2668632594380558,
                    2.115535743150879,
                    0.5280000543203377,
                    0.9712392749254146,
                    -0.4415152737547326,
                    0.3636140251594127,
                    -2.2223557234781826,
                    0.5553645130732519,
                    -3.066944313596651,
                    -1.9461646761240363,
                    0.39437743203663633,
                    0.4493301280631962,
                    0.8796224372023,
                    1.724007414760095,
                    1.3616116784533012,
                    0.47764950214773383,
                    0.5617601448700348,
                    -0.675672179052003,
                    -0.023843442958030092,
                    -0.6196846206173606,
                    -2.0294866455553797,
                    -1.6424466779432292,
                    1.366471472155686,
                    -0.4866565184684235,
                    0.4990481511290932,
                    -0.23101121469656308,
                    0.9808896360016219,
                    -1.0786599387197733,
                    2.3293609498844328,
                    0.4824658039931853
                ],
                [
                    -0.1886300156214027,
                    1.4815891547961344,
                    -0.5702813539447177,
                    -0.12602042379435568,
                    -0.15573179093866088,
                    -0.5013438422674733,
                    0.2863996319023317,
                    -0.372246087074671,
                    0.7612003924320196,
                    -1.6556015851293115,
                    0.8949361309984392,
                    0.4196147145002048,
                    0.6696606550430801,
                    0.8711974886123593,
                    -1.0524158495991165,
                    -0.118901666638557,
                    -0.5077042003659502,
                    0.6068348436313539,
                    0.7036731424011516,
                    -0.87815027326929,
                    0.14244517393209827,
                    0.2538889452710778,
                    -0.9543907422744433,
                    0.6079283652625209,
                    -1.4725063722897203,
                    -2.500120859004748,
                    0.036801663888155915,
                    -0.7505063418815828,
                    0.083347403903102,
                    0.14534451716915278
                ],
                [
                    1.0981284137147544,
                    -0.3563538449621041,
                    0.861204477705537,
                    1.1923953585748113,
                    0.5000905727214422,
                    -0.6754351149879807,
                    -3.2645464328508256,
                    -1.0326938809146655,
                    -1.1406983088861247,
                    0.29395114086113816,
                    0.8079788352274815,
                    -0.42536798994757724,
                    0.6313988451856256,
                    1.8915221058821303,
                    -1.589025018669663,
                    0.05562920505355064,
                    -0.5880277407930428,
                    1.9527277500191365,
                    -0.39454486583215775,
                    -0.940104882318183,
                    -0.5495276770125957,
                    -0.46693953146830935,
                    0.15999877779624924,
                    0.5171220876182852,
                    -0.6484745290624442,
                    -0.19068616568887045,
                    -0.9387586173725009,
                    0.2880928487722009,
                    -2.0237831197355485,
                    -0.15262159313534776
                ],
                [
                    -0.13155427513236229,
                    -0.3415580800522875,
                    0.8666599181716446,
                    0.1094842612245925,
                    -1.0664544733987706,
                    0.3727832665664571,
                    0.2224987305746337,
                    -0.3099920118792108,
                    0.4452379466315711,
                    -0.12167432864444053,
                    -0.061984044951494344,
                    -0.3082615337561676,
                    0.3102122873360682,
                    -1.2592391760878792,
                    -1.6575776067807202,
                    -1.4032574043471957,
                    -0.6898782555284564,
                    1.8108922821665738,
                    -2.8240340047953834,
                    0.10047676206790909,
                    0.21668430354227936,
                    0.02540452406240884,
                    -0.6474442709097281,
                    -0.7637022164748448,
                    0.046499137162895554,
                    -0.4857163323473098,
                    0.32619720557062704,
                    -0.4715378588383669,
                    -1.521131167999025,
                    -1.6857034870766119
                ],
                [
                    -0.2644528917277673,
                    -0.8004085367986289,
                    0.6398455877121932,
                    -0.6009494327882932,
                    1.2962455166620896,
                    -0.6045426337246116,
                    -0.7877914942467996,
                    -0.33316884169995703,
                    -0.06401451610682415,
                    -0.9862323674345354,
                    -0.00385845567288972,
                    1.6568874346855498,
                    -1.0152456463763746,
                    0.9348389584124623,
                    2.721787089649417,
                    -0.9044996287875642,
                    1.0828366002438243,
                    -2.0105742138800498,
                    0.7978875448279448,
                    0.9972873742794944,
                    -1.8257090203046396,
                    -1.9560714678928042,
                    -0.1629613243255286,
                    -0.5388614354107764,
                    0.5964115158009125,
                    0.7161942389472817,
                    -0.11738981509303914,
                    0.8658738910209508,
                    0.8828611158370905,
                    0.043121282533121655
                ]
            ],
            "function": "sigmoid"
        },
        {
            "input_size": 30,
            "output_size": 8,
            "weights": [
                [
                    0.7260684361471411,
                    0.6504903565662163,
                    0.39320447050395596,
                    -1.5645514829560625,
                    -0.2966153728948296,
                    -1.26080842195459,
                    -1.655607356835829,
                    -2.563730866905957
                ],
                [
                    -1.1679384145788185,
                    -1.0572760899364668,
                    0.17342702083328268,
                    0.12074524706436095,
                    -0.09384011144793955,
                    -1.26755501503496,
                    -1.020462241575764,
                    0.8948429393533824
                ],
                [
                    1.1952946763844519,
                    1.0740769376695625,
                    -0.14819527190174553,
                    -1.9685209848165814,
                    -0.2630777758476115,
                    -1.2568430699103044,
                    -0.7263418729307205,
                    -0.5813717431124356
                ],
                [
                    -0.4582194084249713,
                    0.9398244994731055,
                    -0.5003041533110646,
                    -0.08595637811336923,
                    -0.48273310075318787,
                    -1.386860846240732,
                    -1.6221041314592348,
                    0.536564557108277
                ],
                [
                    -1.419703065295217,
                    -2.2091387514997436,
                    -1.1665467725237706,
                    -0.007784097720646352,
                    0.4838400909139239,
                    -0.6808113047992269,
                    -0.887308472639556,
                    -1.0302331929295587
                ],
                [
                    0.07773501600028006,
                    0.06555392917703386,
                    -2.1048020395938587,
                    0.6650820944037503,
                    -0.18323370317447973,
                    1.7480809155488886,
                    -1.8179277425400695,
                    -0.4351043407425933
                ],
                [
                    -1.5549600028451935,
                    -0.711120897638818,
                    -1.882556101888233,
                    1.1925435650926346,
                    0.19347759138218829,
                    -0.12517939807217726,
                    -0.05088039639690824,
                    -1.6438078670654672
                ],
                [
                    -1.3131556587855546,
                    0.9713220061301036,
                    -0.8375281451974259,
                    -0.6632305128266647,
                    -0.23737683549076866,
                    0.9247891696261958,
                    0.7349298145517302,
                    -0.38117964233679147
                ],
                [
                    0.07538315838796728,
                    -2.585893886578789,
                    0.6975837790895992,
                    -0.5578858851463211,
                    -1.500918536528491,
                    1.049453662117961,
                    -0.9587516418252173,
                    -0.1087945049739152
                ],
                [
                    2.1544698643566393,
                    0.26664058452695993,
                    -3.4845999798019234,
                    0.9443325377519103,
                    1.2819813208571746,
                    -0.05639201793931288,
                    -0.8860270128555964,
                    0.11492924681561652
                ],
                [
                    -0.828801413940206,
                    0.15551021338009766,
                    -0.7093636594273522,
                    -1.472206467418926,
                    0.5915948597448486,
                    -1.3081549466635782,
                    0.7551473587386268,
                    1.0563055421563405
                ],
                [
                    0.4588134124561086,
                    -1.3075849079518607,
                    0.598003355100357,
                    -0.9429423224048612,
                    -0.8632139387772678,
                    -0.7002564707558461,
                    -0.02064739796797699,
                    1.123317380553622
                ],
                [
                    0.17351429292265244,
                    -0.4176802794740967,
                    -0.6434880547668518,
                    -2.1793829861068663,
                    -0.5360267086626416,
                    -1.4711474033038578,
                    0.31841634800725926,
                    -2.1486208137019527
                ],
                [
                    -0.2499970271667703,
                    -0.5753562857651336,
                    0.823703683238513,
                    -0.8346610900783853,
                    -0.43545624765892377,
                    -0.2614995733165008,
                    1.8943616375780494,
                    -1.1584552316227839
                ],
                [
                    0.2729053343691435,
                    0.4329877039393588,
                    -1.4160064380038373,
                    0.04359381213725061,
                    1.883854660728462,
                    -0.7707197320988032,
                    1.6195945575540984,
                    -1.7980003823771342
                ],
                [
                    0.6625189538512097,
                    -1.4641441717539667,
                    0.4310676305364214,
                    -0.656751788653043,
                    -1.3754774156849523,
                    -1.6443164358936102,
                    0.2757081768670693,
                    -0.3757657984852489
                ],
                [
